svm_type nu_svc
kernel_type linear
nr_class 2
total_sv 1032
rho -0.24938687934733444
label 1 -1
nr_sv 478 554
SV
0.020829644058690176 0:-1.9578477050775478E-5 1:0.49374369090739584 2:0.66598937652172 3:0.6189631766315248 4:0.678447785548252 5:0.08517265533046439 6:0.03331899267595686 7:0.11392436256170806 8:0.22289383224686132 9:0.03511296013526403 10:0.03490829665956807 11:0.09469241642422321 12:0.09469241642422321 13:0.06119922044348128 14:0.03353446564802735 15:0.07084152771197827 16:0.02798909921035536 17:0.0683909335447728 18:0.049543689110614485 19:0.053320733114509834 20:0.08451625836113161 21:0.04484524476385805 22:0.06877563524809932 23:0.021057726318678735 24:0.14797100248572825 25:0.17348424037361648 26:0.039778507649034116 27:0.15416901368643815 28:0.047017554368595504 29:0.04638156856951405 30:0.02456397977441898 31:0.03187355001131828 32:0.08674212018680824 33:0.034182353238691315 34:0.08044066083275261 35:0.1847658902736863 36:0.022732584184450334 37:0.018482510591990756 38:0.11392436256170806 39:0.28940227093702114 40:0.06203658377720168 41:0.07253478420612001 42:0.08371955783725414 43:0.08517265533046439 44:0.0850642088758875 45:0.049599906711269334 46:0.13626539509137545 47:0.14835097588237617 48:0.1247801786195985 49:0.08435134451828237 50:0.031577204171905564 51:0.18063410534592841 52:0.07991257716194126 53:0.14316306828602895 54:0.1575836478987865 55:0.07047109891463407 56:0.08770325548264764 57:0.025476136943730604 58:0.21474460242904345 59:0.09031705267296421 60:0.0646634679739411 61:0.056960913259700784 62:0.07991257716194126 63:0.08044066083275261 64:0.09214238396178881 65:0.1338136163862251 66:0.10321916314898688 67:0.0767259314855143 68:0.6217814041238926 69:0.05799041295556458 70:0.012894059126575116 71:0.07012843664980424 72:0.20072042457933764 73:0.17285075680959405 74:0.0343762245255241 75:0.35420763855989135 76:0.0904553208339959 77:0.1016183006187808 78:0.0626506414237434 79:0.06751017404932341 80:0.06877563524809932 81:0.07084152771197827 82:0.14630199799871668 83:0.07246510262978084 84:0.08844822561797744 85:0.10033324137425816 86:0.05216195171109532 87:0.035830400280995246 88:0.06414056116840852 89:0.07991257716194126 90:0.040481719467777046 91:0.07398550124286413 92:0.10033324137425816 93:0.08236675643554923 94:0.05997268975696396 95:0.014823962443355222 96:0.09403510873719101 97:0.07991257716194126 98:0.10033324137425816 99:0.11392436256170806 100:0.2301777944565429 101:0.050040116718149584 102:0.05133912427778097 103:0.09744007948638769 104:0.09238294513684316 105:0.03682974231221147 106:0.02330280397466292 107:0.09238294513684316 108:0.07084152771197827 109:0.07235056773425529 110:0.09238294513684316 111:0.02643280682940574 112:0.09469241642422321 113:0.10828353761167313 114:0.04516832535935547 115:0.1534518629710286 116:0.09031705267296421 117:0.056890619491818624 118:0.10390817386041412 119:0.026967946874268633 120:0.08517265533046439 121:0.09238294513684316 122:0.08110129523677333 123:0.05619026493099354 124:0.03187355001131828 125:0.047453302148687856 126:0.07576926159983917 127:0.07576926159983917 128:0.03321213768051441 129:0.08517265533046439 130:0.08371955783725414 131:0.07235056773425529 132:0.09031705267296421 133:0.06082533901068433 134:0.03871138914087311 135:0.10033324137425816 136:0.09238294513684316 137:0.06126598324307764 138:0.10033324137425816 139:0.05584925036801571 140:0.042258129180565804 141:0.09238294513684316 142:0.07879182394939326 143:0.07773168235585844 144:0.03386218096123795 145:0.08110129523677333 146:0.05761691893653135 147:0.06126598324307764 148:0.10390817386041412 149:0.09238294513684316 150:0.04767486205562772 151:0.0976436930007303 152:0.05454157635823783 153:0.09112891375077053 154:0.06632145597449136 155:0.18940443089419318 156:0.08371955783725414 157:0.05244408381799924 158:0.06575307289854523 159:0.11392436256170806 160:0.11994537951392792 161:0.0339726479753214 162:0.06414056116840852 163:0.07485710443052754 164:0.038292700425763916 165:0.0461740762296996 166:0.08674212018680824 167:0.11392436256170806 168:0.07991257716194126 169:0.032686426750109375 170:0.04905952023629348 171:0.09031705267296421 172:0.07879182394939326 173:0.10604165333036293 174:0.08844822561797744 175:0.06877563524809932 176:0.10390817386041412 177:0.12726247581119898 178:0.0700076564405386 179:0.05244408381799924 180:0.12435628082477852 181:0.04439929176811466 182:0.06751017404932341 183:0.23989075902785584 184:0.05107234678649119 185:0.04439929176811466 186:0.10604165333036293 187:0.09731067902470406 188:0.0508091503093904 189:0.09469241642422321 190:0.10828353761167313 191:0.07485710443052754 192:0.14168305542395654 193:0.06632145597449136 194:0.09731067902470406 195:0.06082533901068433 196:0.06690680819311255 197:0.12989849491310612 198:0.06751017404932341 199:0.05216195171109532 200:0.06217814041238926 201:0.10828353761167313 202:0.03670200346865865 203:0.08517265533046439 204:0.047017554368595504 205:0.053020826665181466 206:0.053919052861873505 207:0.06171675811022859 208:0.08371955783725414 209:0.03957658139398954 210:0.0646634679739411 211:0.17991806927089188 212:0.06414056116840852 213:0.05619026493099354 214:0.10033324137425816 215:0.0767259314855143 216:0.09031705267296421 217:0.09731067902470406 218:0.08110129523677333 219:0.08110129523677333 220:0.06944037155546562 221:0.09031705267296421 222:0.06217814041238926 223:0.0767259314855143 224:0.07879182394939326 225:0.07485710443052754 226:0.053615049204305563 227:0.014865725703312575 228:0.06414056116840852 229:0.019567806574013594 230:0.08844822561797744 231:0.051883821613213824 232:0.10390817386041412 -1:1.0 
0.008824792333924004 0:-1.9578477050775478E-5 8:0.22289383224686132 9:0.03511296013526403 10:0.017454148329784036 13:0.22439714162609803 14:0.10060339694408206 16:0.018659399473570242 17:0.1025864003171592 21:0.03843878122616404 23:0.021057726318678735 26:0.09944626912258529 30:0.02456397977441898 33:0.008545588309672829 36:0.022732584184450334 37:0.018482510591990756 40:0.020678861259067226 41:0.018133696051530004 49:0.007668304047116579 55:0.006406463537694007 61:0.008137273322814397 70:0.0019837014040884793 76:0.015075886805665985 111:0.07929842048821722 197:0.04329949830436871 227:0.02973145140662515 229:0.03913561314802719 233:0.18940443089419318 234:0.11487810127729176 235:0.19896436792347408 236:0.1209837950232708 237:0.05584925036801571 238:0.12187465879912304 239:0.07398550124286413 240:0.053315687005662644 241:0.15153852319967834 242:0.01353244430634297 243:0.10390817386041412 244:0.01598401978960951 245:0.013184023315912083 246:0.07576926159983917 247:0.030107360241122004 248:0.055514065400186295 249:0.05725040652452836 250:0.03321213768051441 251:0.04680325886796432 252:0.03942970547773155 253:0.038292700425763916 254:0.0564978289482388 255:0.050666026731319584 256:0.033044968204371486 257:0.0234125478495022 258:0.06276419929074573 259:0.04699324556628827 260:0.4331341504466925 261:0.024494926205663476 262:0.17034531066092878 263:0.02413080393995055 264:0.17689645123595488 265:0.2278487251234161 266:0.20781634772082824 267:0.2653446768539323 268:0.3528099495738473 269:0.07915316278797908 270:0.03375233281322481 271:0.048854678399187244 272:0.044780038549626464 273:0.04516832535935547 274:0.0461740762296996 275:0.045765564721800746 276:0.045765564721800746 277:0.10033324137425816 278:0.06944037155546562 279:0.08674212018680824 280:0.05273033478704145 281:0.037218029121940485 282:0.10390817386041412 283:0.05273033478704145 284:0.10033324137425816 285:0.09469241642422321 286:0.10033324137425816 -1:1.0 
0.00569780573348102 0:-6.656682197263662E-5 6:0.2265691501965066 8:0.05943835526582968 10:0.059344104321265724 16:0.03172097910506941 21:0.06534592808447887 23:0.1431925389670154 27:0.10483492930677794 33:0.1598025013908819 40:0.10044018325832652 41:0.06165456657520201 44:0.14460915508900876 45:0.12972283293716597 49:0.15643340256117821 55:0.08712790411263849 56:0.149095534320501 61:0.08300018789270686 63:0.18233216455423926 64:0.10442803515669398 70:0.025292192902128113 76:0.25629007569632173 82:0.24871339659781833 83:0.04927626978825097 90:0.5505513847617678 95:0.050401472307407755 103:0.11043209008457272 164:0.6509759072379866 173:0.180270810661617 178:0.23802603189783123 179:0.1783098849811974 185:0.15095759201158987 188:0.34550222210385473 229:0.13306108470329245 237:0.18988745125125342 242:0.1840412425662644 245:0.2689540756446065 247:0.20473004963962965 251:0.15913108015107869 255:0.25839673632972987 256:0.11235289189486306 257:0.07960266268830749 261:0.08328274909925582 263:0.08204473339583188 291:0.1034779003095472 292:0.21213143826545355 327:0.17900792465448379 332:0.15031962861051315 333:0.13608135525730922 335:0.14086428224789863 336:0.07479049319656753 342:0.2752337772654335 345:0.25761548943945317 346:0.04941588589512529 355:0.42425260730663494 358:0.6284866798455611 371:0.13307332623861123 382:0.22953459176769958 383:0.1659942781012415 384:0.5499743391911098 390:0.26228164756078887 391:0.27216271051461843 392:0.6117214355210324 393:0.4022579308272792 394:0.4397115822227995 395:0.3419932476615382 396:0.2850760206466074 397:0.30450426213745996 398:0.0535974364600157 399:0.2068061526363267 400:0.17364597907407003 401:0.19222687257200474 402:0.28958702812357895 403:0.4143738399170183 404:0.1958975243842066 405:0.10316417424038636 406:0.21807790797258897 407:0.3873428327098074 408:0.16680236880339783 409:0.4143738399170183 410:0.20534089218840834 411:0.16680236880339783 412:0.360561861082928 413:0.2757444038050293 414:0.2642877200099187 415:0.245991930296468 416:0.28958702812357895 417:0.36816402787968866 418:0.4143738399170183 419:0.2338371598435377 420:0.18544135961800862 421:0.9423060403958003 422:0.25761548943945317 423:0.245991930296468 424:0.353287791125408 425:0.15424232861204204 426:0.36816402787968866 427:0.20201696439504788 428:0.3308563086839938 429:0.2379721066549282 430:0.39692388621211927 431:0.2098369775747772 432:0.19465138218339642 433:0.6117214355210324 434:0.36874934038982504 435:0.3007239671011233 436:0.5349296549435922 437:0.2642877200099187 438:0.2068061526363267 439:0.3070779790880783 440:0.3873428327098074 441:0.2408611942207261 442:0.3873428327098074 443:0.18437467019491252 444:0.10939310801679282 445:0.11819708948433058 446:0.8847696259054442 447:0.2114056774021235 448:0.15699185918097863 449:0.23609726328858308 450:0.4143738399170183 451:0.36816402787968866 452:0.36816402787968866 453:0.20830434302646395 454:0.22953459176769958 455:0.27170276235060026 456:0.4143738399170183 457:0.3873428327098074 458:0.1283432105071256 459:0.21465835501341893 460:0.4143738399170183 461:0.2757444038050293 462:0.3873428327098074 463:0.22953459176769958 464:0.1659942781012415 465:0.1535723062218086 466:0.24871339659781833 467:0.25761548943945317 468:0.18127333581925298 469:0.20534089218840834 470:0.2608681670507486 471:0.07561354891805415 472:0.16656967514074658 473:0.16059634059899702 474:0.24337721608624924 475:0.19342810627218332 476:0.1496877123468769 477:0.05434566728467232 478:0.28004697188086736 479:0.1132845750982533 480:0.11550700311609276 481:0.1773506358177241 482:0.353287791125408 483:0.4143738399170183 484:0.3007239671011233 485:0.15290895083159742 486:0.2130121808407275 487:0.2691207534791289 488:0.2235604478550538 489:0.28958702812357895 490:0.4143738399170183 491:0.4143738399170183 -1:1.0 
0.004046886377117364 0:-1.109447032877277E-4 8:0.024765981360762367 13:0.057799263752176755 16:0.21147319403379605 33:0.12106250105369842 40:0.0837001527152721 44:0.060253814620420315 45:0.19458424940574895 49:0.08690744586732123 50:0.3578749806149297 55:0.07260658676053207 56:0.149095534320501 61:0.046111215495948245 70:0.0224819492463361 74:0.12986573709642438 76:0.17086005046421449 83:0.08212711631375161 95:0.16800490769135917 106:0.13204922252308987 124:0.36123356679494045 128:0.188202113522915 139:0.3164790854187557 211:0.3398452419561291 229:0.2217684745054874 244:0.09057611214112053 245:0.07470946545683513 247:0.11373891646646091 250:0.188202113522915 252:0.22343499770714548 254:0.32015436404001985 255:0.43066122721621647 259:0.13314752910448344 271:0.1384215887976972 292:0.05892539951818154 327:0.09944884703026875 342:0.19659555518959537 349:0.4595740063417155 351:0.2404247389946634 353:0.4732513969341536 354:0.40143532370121016 391:0.9072090350487281 392:1.0195357258683873 429:0.19831008887910684 473:0.267660567664995 477:0.09057611214112053 485:0.25484825138599565 519:0.12363300317220538 527:0.22178887706435205 563:0.17949443939896978 591:0.2251058729698722 595:0.20512886069869485 615:0.6136067131328143 616:0.5888129852090133 617:0.6796904839122582 618:0.5117966318134638 619:0.47441082774444016 620:0.6906230665283638 621:0.6906230665283638 622:0.375821583855451 623:0.3860852860922304 624:0.209430473163216 625:0.2526695323428428 626:0.5888129852090133 627:0.4927570882413504 628:0.4072598076584669 629:0.23027476359597138 630:0.4056286934770821 631:0.209430473163216 632:0.3375059742674811 633:0.32861234008153256 634:0.28644682655876547 635:0.6136067131328143 636:0.19897344076649615 637:0.5514271811399897 638:0.6906230665283638 639:0.34467692106054454 640:0.5235033557754446 641:0.375821583855451 642:0.4347802784179144 643:0.29245429558879615 644:0.23295226932697813 645:0.2879185184198789 646:0.46674495313477893 647:0.3934954388143051 648:0.31271224634368 649:0.20512886069869485 650:0.35776392502236487 651:0.49153868105858 652:0.5012066118352055 653:0.3307699051767661 654:0.30554129955061654 655:0.6136067131328143 656:0.645571387849679 657:0.4347802784179144 658:0.30045135110269494 659:0.5365903597372649 660:0.2394627320232062 661:0.6906230665283638 -1:1.0 
0.013866279001941888 0:-2.496255823973873E-4 21:0.32672964042239433 40:0.03766506872187245 41:0.23120462465700756 45:0.04864606235143724 55:0.16336482021119716 56:0.11182165074037574 70:0.018969144676596085 83:0.18478601170594114 95:0.18900552115277908 144:0.43174280725578384 204:0.5994738181995927 227:0.18953800271723534 229:0.24948953381867334 242:0.17253866490587286 259:0.29958194048508774 261:0.15615515456110465 263:0.15383387511718477 292:0.26516429783181694 577:0.42894948210625256 662:1.344623537069557 663:4.357606867985334 664:3.1078037993776375 665:2.037770717629502 666:2.558497655043583 667:1.5539018996888188 668:1.32482921672028 669:0.6580221650747914 670:1.5539018996888188 671:1.5539018996888188 672:1.9565112528806148 673:0.5201102605032298 674:1.3806151045488324 675:1.2407111575649767 676:0.5709454915077374 677:1.4525356226617778 678:1.3806151045488324 679:1.4525356226617778 680:0.5498061445007216 681:0.5940388215404911 682:0.9126645603234347 683:1.5539018996888188 684:0.6615187255684762 685:1.5539018996888188 -1:1.0 
0.04493551863007637 0:-1.3313364394527325E-5 8:0.0951013684253275 9:0.02387681289197954 10:0.07121292518551887 13:0.04161546990156727 16:0.03172097910506941 21:0.04792034726195117 27:0.04193397172271118 30:0.03340701249320982 33:0.04648800040462019 34:0.05469964936627178 36:0.01545815724542623 37:0.03770432160766114 40:0.1506602748874898 41:0.11097821983536363 44:0.13737869733455835 45:0.12972283293716597 46:0.13899070299320296 47:0.25219665900003946 49:0.05735891427243201 55:0.03920755685068732 56:0.149095534320501 57:0.017323773121736812 59:0.061415595817615666 61:0.09960022547124821 63:0.036466432910847855 70:0.014163628025191746 74:0.0077919442257854635 76:0.02050320605570574 83:0.009855253957650195 86:0.07094025432708964 95:0.08064235569185241 102:0.03491060450889106 103:0.08834567206765818 144:0.13815769832185085 147:0.04166086860529279 152:0.03708827192360172 153:0.1549191533763099 154:0.045098590062654126 157:0.10698593098871845 160:0.08156285806947099 162:0.0436155815945178 178:0.011901301594891563 185:0.2415321472185438 199:0.03547012716354482 202:0.04991472471737577 211:0.04078142903473549 225:0.3054169860765524 226:0.036458233458927784 234:0.18227325402663624 242:0.0920206212831322 244:0.010869133456934466 245:0.017930271709640434 256:0.011235289189486306 257:0.015920532537661496 258:0.021339827758853548 261:0.03331309963970233 263:0.04102236669791594 269:0.08073622604373867 270:0.04590317262598575 271:0.09966354393434199 276:0.031120584010824508 280:0.03585662765518819 292:0.0494973355952725 322:0.026039036289519465 327:0.04773544657452901 337:0.042286528004715 346:0.03953270871610024 347:0.03585662765518819 388:0.05133728420285025 390:0.026228164756078885 395:0.034199324766153824 398:0.02143897458400628 401:0.03844537451440095 425:0.03084846572240841 427:0.08080678575801915 431:0.041967395514955444 448:0.03139837183619573 453:0.20830434302646395 468:0.0362546671638506 471:0.030245419567221665 472:0.04997090254222398 477:0.010869133456934466 485:0.06116358033263897 493:0.042602436168145505 499:0.031258754504631794 501:0.026039036289519465 522:0.23507702926104793 533:0.48935000539429985 577:0.06863191713700041 591:0.05402540951276933 623:0.13899070299320296 628:0.04887117691901604 669:0.07018903094131108 676:0.030450426213746 686:0.6617865691320703 687:0.33149907193361466 688:0.32134842847477946 689:0.02340617579756589 690:0.5801233758838257 691:0.10304619577578127 692:0.14306201076560066 693:0.06822660413449555 694:0.0706575582250816 695:0.05514888076100587 696:0.06282040269305335 697:0.048675443217249856 698:0.050310140845147615 699:0.0352809986969854 700:0.05357844028558741 701:0.04293167100268379 702:0.03708827192360172 703:0.04326924177580766 704:0.08287476798340367 705:0.06282040269305335 706:0.050310140845147615 707:0.04397115822227995 708:0.06617126173679877 709:0.041967395514955444 710:0.20730133326231281 711:0.06617126173679877 712:0.07746856654196149 713:0.0643908431684718 714:0.021339827758853548 715:0.08287476798340367 716:0.0706575582250816 717:0.06822660413449555 718:0.10062028169029523 719:0.04397115822227995 720:0.06282040269305335 721:0.08287476798340367 722:0.06282040269305335 723:0.06617126173679877 724:0.0352809986969854 725:0.08287476798340367 726:0.06822660413449555 727:0.06282040269305335 728:0.061415595817615666 729:0.08287476798340367 730:0.05514888076100587 731:0.09948535863912734 732:0.11201878875234696 733:0.09443890531543324 734:0.041967395514955444 735:0.08287476798340367 736:0.049400239305784334 737:0.0643908431684718 738:0.08287476798340367 739:0.2757444038050293 740:0.1822911672946389 741:0.058406824213870036 742:0.07363280557593774 743:0.06805455873668344 744:0.1654449221090614 745:0.27170276235060026 746:0.048172238844145225 747:0.050902831012758734 748:0.15493713308392298 749:0.2861240215312013 750:0.3103553451468503 751:0.4999304232635135 752:0.03666495594607399 753:0.5534115492966237 754:0.13234252347359754 755:0.05692929932933283 756:0.17375221687414738 757:0.05791740562471579 758:0.07363280557593774 759:0.07746856654196149 760:0.05285754400198374 761:0.10434726682029946 762:0.05285754400198374 763:0.04549662957131654 764:0.04166086860529279 765:0.03226824546110774 766:0.08287476798340367 767:0.05898464172702961 768:0.08456227096084941 769:0.08287476798340367 770:0.024700119652892167 771:0.0491983860592936 772:0.12283119163523133 773:0.061415595817615666 774:0.04549662957131654 775:0.045906918353539924 776:0.0706575582250816 777:0.05898464172702961 778:0.06014479342022467 779:0.07746856654196149 780:0.06014479342022467 781:0.0706575582250816 782:0.05692929932933283 783:0.08653848355161532 784:0.048172238844145225 785:0.032418906197826856 786:0.04390455145354081 787:0.045098590062654126 788:0.05514888076100587 789:0.07746856654196149 790:0.07363280557593774 791:0.14030229590612261 792:0.10434726682029946 793:0.050310140845147615 794:0.13899070299320296 795:0.08287476798340367 796:0.09735088643449971 797:0.16574953596680733 798:0.05285754400198374 799:0.12028958684044934 800:0.2119726746752448 801:0.06014479342022467 802:0.042281135480424704 803:0.017323773121736812 804:0.04676743196870754 805:0.048675443217249856 806:0.0491983860592936 807:0.14726561115187548 808:0.25155070422573805 809:0.02521966590000395 810:0.1364532082689911 811:0.042602436168145505 812:0.048675443217249856 813:0.22549295031327063 814:0.04166086860529279 815:0.0706575582250816 816:0.05692929932933283 817:0.03336047376067957 818:0.09735088643449971 819:0.16574953596680733 820:0.0643908431684718 821:0.06282040269305335 822:0.06014479342022467 823:0.09214338373308516 824:0.08867295575624295 825:0.05152309788789063 826:0.08287476798340367 827:0.05514888076100587 828:0.07746856654196149 829:0.061415595817615666 830:0.027216271051461845 831:0.15493713308392298 832:0.05962469186275505 833:0.0706575582250816 834:0.05600939437617348 835:0.06617126173679877 836:0.23240569962588445 837:0.04397115822227995 838:0.045906918353539924 839:0.02956542529448103 840:0.08287476798340367 841:0.042602436168145505 842:0.15493713308392298 843:0.06822660413449555 844:0.05152309788789063 845:0.042602436168145505 846:0.11029776152201173 847:0.03272543310748951 848:0.03226824546110774 849:0.06607834614591752 850:0.0436155815945178 851:0.07746856654196149 852:0.045098590062654126 853:0.07746856654196149 854:0.04676743196870754 855:0.08287476798340367 856:0.08287476798340367 857:0.03368970859521785 858:0.08287476798340367 859:0.03139837183619573 860:0.06617126173679877 861:0.06822660413449555 862:0.0706575582250816 863:0.0643908431684718 864:0.05692929932933283 865:0.0706575582250816 866:0.036458233458927784 867:0.07363280557593774 868:0.0643908431684718 869:0.05152309788789063 870:0.03288138030433206 871:0.036054162132323396 872:0.029688314029213347 873:0.08287476798340367 874:0.05600939437617348 875:0.05692929932933283 876:0.04050071691209773 877:0.04471208957101076 878:0.06014479342022467 879:0.04633023433106766 880:0.05434055247012006 881:0.050310140845147615 882:0.0706575582250816 883:0.08520487233629101 884:0.05434055247012006 885:0.07746856654196149 886:0.06282040269305335 887:0.0643908431684718 888:0.03969238862121193 889:0.03547012716354482 890:0.04166086860529279 891:0.06617126173679877 892:0.061415595817615666 893:0.08287476798340367 894:0.0352809986969854 895:0.08287476798340367 896:0.08287476798340367 897:0.0706575582250816 898:0.08287476798340367 899:0.11385859865866566 900:0.0643908431684718 901:0.061415595817615666 902:0.025945468654070845 903:0.07746856654196149 904:0.08287476798340367 905:0.08287476798340367 906:0.061415595817615666 907:0.08287476798340367 908:0.0491983860592936 909:0.05692929932933283 910:0.08287476798340367 -1:1.0 
0.12397336125050168 0:-1.8154587810719078E-5 6:0.06179158641722908 8:0.22289383224686132 9:0.032559290307244824 10:0.11329329006787092 13:0.05674836804759173 16:0.008651176119564384 18:0.09188102344150323 20:0.15673924277882587 21:0.11881077833541612 23:0.05857876594105175 27:0.014295672178196992 30:0.0683325255542928 33:0.04358250037933143 36:0.021079305334672126 37:0.017138328003482337 40:0.03013205497749796 44:0.04929857559852572 45:0.03184105899366801 47:0.034390453500005386 49:0.06399548286593654 55:0.0059405389167708055 56:0.04879490214125487 60:0.11992134060621804 61:0.022636414879829137 70:0.006897870791489485 73:0.05342659755932907 74:0.0212507569794149 76:0.027958917348689643 83:0.013438982669522991 86:0.04836835522301566 90:0.037537594415575075 96:0.043598095869061285 111:0.02451042087817623 125:0.044002152901510556 126:0.35129384923561796 128:0.061593418971135815 133:0.05640167799172546 147:0.056810275370853806 160:0.055611039592821127 161:0.03150190994075257 165:0.04281596159481236 178:0.016229047629397583 185:0.041170252366797236 204:0.043598095869061285 227:0.0413537460473968 229:0.03628938673726157 233:0.058543187730932436 236:0.11218497356703291 244:0.014821545623092451 245:0.036675555769719065 247:0.027917734041767676 253:0.07101555351687126 254:0.05238889593382143 255:0.046981224787223615 256:0.045962546684262154 257:0.010854908548405566 258:0.02909976512570938 259:0.04357555497964912 261:0.011356738513534883 263:0.01118791819034071 267:0.08201562739121544 268:0.02974100401366316 271:0.045301610879246355 272:0.04152330847328999 276:0.04243716001476069 287:0.09098311025639881 291:0.05644249107793484 292:0.028927014308925483 322:0.03550777675843563 323:0.07520301921955344 326:0.09142929544155569 333:0.03711309688835706 336:0.020397407235427507 337:0.057663447279156815 351:0.039342230017308556 353:0.15488227536026844 355:0.03856841884605772 398:0.014617482670913371 400:0.04735799429292819 404:0.05342659755932907 425:0.04206608962146601 477:0.029643091246184902 504:0.027797407741359293 519:0.0404617101290854 520:0.19317048814520432 543:0.12091766694033129 562:0.10550623978482726 581:0.029009978186789694 591:0.03683550648597909 592:0.04441539383019339 593:0.032022914590941226 644:0.07623892450701103 673:0.03782620076387126 689:0.03191751245122621 750:0.060458833470165646 786:0.019956614297064003 818:0.06637560438715888 829:0.08374853975129408 902:0.1415207381131137 977:0.12299615471632942 978:0.10174112418697852 979:0.14229172748222652 980:0.15261168628046778 981:0.28103507938849437 982:0.1804670774639966 983:0.060458833470165646 984:0.044625590601122055 985:0.051787486704887295 986:0.05242551070145584 987:0.07520301921955344 988:0.08201562739121544 989:0.05412598448347081 990:0.08566418549052729 991:0.1130110472500959 992:0.05412598448347081 993:0.06941295138103463 994:0.10563895437540202 995:0.14051753969424718 996:0.08780569522973425 997:0.1130110472500959 998:0.0902335387319983 999:0.05996067030310902 1000:0.10563895437540202 1001:0.0902335387319983 1002:0.08374853975129408 1003:0.07114586374111326 1004:0.10563895437540202 1005:0.14820150673669105 1006:0.23601404604985993 1007:0.16749707950258816 1008:0.08374853975129408 1009:0.10563895437540202 1010:0.0902335387319983 1011:0.1406193512197576 1012:0.07410075336834553 1013:0.0631775922696377 1014:0.10563895437540202 1015:0.08043360235504037 1016:0.08374853975129408 1017:0.10040837123991508 1018:0.08780569522973425 1019:0.05900351151246498 1020:0.07520301921955344 1021:0.0902335387319983 1022:0.08043360235504037 1023:0.06568941660565257 1024:0.08780569522973425 1025:0.06637560438715888 1026:0.0763764468766002 1027:0.06637560438715888 1028:0.13882590276206927 1029:0.19508456013491 1030:0.3721451134608848 1031:0.2223022601050366 1032:0.0930362783652212 1033:0.1130110472500959 1034:0.05640167799172546 1035:0.0963512157614749 1036:0.10040837123991508 1037:0.06860473751611038 1038:0.10040837123991508 1039:0.0902335387319983 1040:0.0930362783652212 1041:0.060971031233196485 1042:0.0763764468766002 1043:0.056810275370853806 1044:0.06860473751611038 1045:0.08566418549052729 1046:0.10040837123991508 1047:0.0631775922696377 1048:0.1130110472500959 1049:0.05765609383694277 1050:0.08566418549052729 1051:0.10563895437540202 1052:0.04339938549574873 1053:0.05275311989241363 1054:0.10563895437540202 1055:0.08201562739121544 1056:0.07410075336834553 1057:0.08780569522973425 1058:0.07114586374111326 1059:0.03345182867445434 1060:0.07520301921955344 1061:0.058094231138380234 1062:0.1130110472500959 1063:0.07306150948034647 1064:0.07410075336834553 1065:0.04379900198154464 1066:0.0789782803973397 1067:0.05900351151246498 -1:1.0 
0.029056926912363286 0:-6.240639559934683E-5 1:0.17486755719636934 2:0.283045485021731 4:0.18021269303625445 10:0.05563509780118662 16:0.02973841791100257 23:0.06712150264078846 33:0.06809765684270536 40:0.09416267180468112 44:0.06778554144797286 45:0.19458424940574895 48:0.2651578795666468 49:0.04888543830036819 55:0.020420602526399646 56:0.13977706342546967 58:0.22816614008085867 61:0.02593755871647089 64:0.0979012829594006 66:0.16450554126869785 70:0.012646096451064057 74:0.03652473855836936 76:0.04805438919306033 96:0.14986845454989817 139:0.17801948554805008 161:0.21657563084267392 170:0.4691316622595564 178:0.055787351226054195 197:0.5520686033807011 202:0.11698763605634946 227:0.047384500679308834 229:0.062372383454668334 240:0.16994375233054967 244:0.10189812615876061 245:0.08404814863893953 247:0.06397814051238426 256:0.052665418075717056 257:0.07462749627028827 258:0.100030442619626 328:0.10320371295546495 330:0.1097164490510901 336:0.07011608737178206 342:0.03686166659804913 398:0.20099038672505887 471:0.14177540422135154 476:0.1403322303251971 477:0.10189812615876061 479:0.10620428915461248 507:0.24776973750929876 511:0.3272869172708537 571:0.13801715084517527 586:0.1898471105254581 593:0.11007876890636047 595:0.11538498414301586 636:0.11192256043115409 662:0.16807794213369462 680:0.5498061445007216 684:0.16537968139211906 697:0.22816614008085867 786:0.06860086164615752 870:0.1541314701765565 871:0.16900388499526592 1019:0.20282457082409838 1041:0.20958791986411293 1059:0.11499066106843682 1072:0.16994375233054967 1102:1.3548442174915845 1103:0.8853647373321866 1104:0.36313390566544446 1105:1.5091603867610575 1106:0.3884754749222047 1107:0.6576670120599497 1108:0.2819287191573031 1109:0.5308532503892814 1110:0.1718669809972218 1111:0.16450554126869785 1112:0.10654675576490158 1113:0.24456390661007685 1114:0.36313390566544446 1115:0.21326545111554626 1116:0.2944706376236876 1117:0.1526779162912898 1118:0.4227992818373824 1119:0.42345475542655875 1120:0.6445053597572223 1121:0.2819287191573031 1122:0.19672216647635363 1123:0.31981220688044787 1124:0.4891278132201537 1125:0.2668560906062476 1126:0.2113996409186912 1127:0.2944706376236876 1128:0.4772140407446131 1129:0.4227992818373824 1130:0.2331688093104547 1131:0.31981220688044787 1132:0.3018320773522115 1133:0.3018320773522115 1134:0.18365392911019368 1135:0.36313390566544446 1136:0.2819287191573031 1137:0.2878856053950734 1138:0.1728512533077305 -1:1.0 
0.009982012271386044 0:-4.992511647947746E-4 10:0.44508078240949295 13:0.2600966868847954 21:0.16336482021119716 33:0.21791250189665715 55:0.16336482021119716 70:0.025292192902128113 76:0.7688702270889652 233:1.609937662600642 247:0.25591256204953705 257:0.29850998508115306 278:1.7707294746643731 305:1.2389689902359535 342:0.29489333278439306 514:0.6108897114877004 689:0.8777315924087208 953:1.622596566592787 1011:1.2890107195144447 1139:2.134848724849981 1140:1.80280930541464 1141:3.1078037993776375 1142:1.6355843097944174 1143:1.6767033589129035 1144:2.255429753258425 1145:3.1078037993776375 1146:2.761230209097665 -1:1.0 
0.005768084328891906 0:-2.496255823973873E-4 8:0.167170374185146 33:0.10895625094832857 34:0.3418728085391986 40:0.03766506872187245 45:0.04864606235143724 49:0.09777087660073638 50:0.40260935319179597 56:0.11182165074037574 63:0.3418728085391986 70:0.025292192902128113 76:0.3844351135444826 134:0.4935702115461322 161:0.43315126168534784 178:0.22314940490421678 226:0.6835918773548959 245:0.16809629727787906 247:0.25591256204953705 252:0.5027287448410773 255:0.32299592041216235 405:0.38686565340144885 436:1.3373241373589806 443:0.691405013230922 477:0.40759250463504243 514:0.3054448557438502 786:0.27440344658463006 849:0.6194844951179768 870:0.616525880706226 1112:0.4261870230596063 1127:1.1778825504947503 1147:1.3806151045488324 1148:1.2792488275217915 1149:0.991078950037195 1150:0.7393777651834483 1151:1.5539018996888188 1152:2.761230209097665 1153:0.3559894614561414 1154:1.1515424215802936 1155:0.9544280814892262 1156:1.1515424215802936 1157:0.7987956781527282 1158:1.207328309408846 1159:0.824459216667749 1160:1.018885358814751 1161:1.4525356226617778 1162:0.8853647373321866 -1:1.0 
0.02322303402792905 0:-1.1477038271144245E-5 8:0.03842997107704506 10:0.09208567911920544 13:0.01195846836251933 16:0.08750614925536389 17:0.020045618452778233 21:0.015022052433213532 29:0.027189195368335823 32:0.050848829075025526 33:0.13525603565999408 34:0.06287316019111698 40:0.07965945568763828 41:0.1488213675953152 44:0.1184299114953089 45:0.19458424940574895 47:0.08696436517242741 49:0.08091382891095425 55:0.07886577527437105 56:0.16966043560608732 57:0.014934287173911045 61:0.16218427519264556 63:0.12574632038223396 64:0.05401450094311758 70:0.014826457908144065 73:0.03377543523865631 74:0.047020353086636414 76:0.09721347698825998 78:0.0367262380759875 83:0.033983634336724806 86:0.06115539166128417 87:0.08401611100371299 94:0.035156404340289216 95:0.2780770885925945 96:0.02756201462986633 100:0.044977270181163556 102:0.09028604614368377 103:0.03808003106364576 106:0.06830132199470167 111:0.09297056195170295 117:0.03334967349520402 119:0.07904398221768393 124:0.01868449483422106 134:0.022692883289477342 144:0.05955073203528053 150:0.02794733292916108 153:0.13355099428992234 161:0.05974500161177212 168:0.046845303853551776 169:0.03832201756909375 170:0.02875902910403411 178:0.12311691305060236 182:0.11872478884536186 184:0.05987792381864484 185:0.10410868414592404 186:0.03108117425200293 199:0.030577695830642085 202:0.06454490265177901 204:0.08268604388959899 206:0.03160772064316723 209:0.06960019486529195 210:0.03790617088127582 219:0.04754213858707402 226:0.03142951160252395 231:0.030414654049125345 234:0.11223722538585976 236:0.04728102334242767 242:0.14279061923244651 244:0.018739885270576663 245:0.07728565392086394 247:0.005883047403437633 252:0.046227930560099065 254:0.016559708484828614 256:0.06779915890207253 257:0.02058689552283814 261:0.035897736680713714 263:0.07072821844468265 276:0.026828089664503885 291:0.017841017294749517 292:0.10972315772351046 293:0.022286683675163448 322:0.022447445077171953 324:0.06935481565987572 326:0.057800129302132915 327:0.13374155290277523 329:0.026828089664503885 330:0.1210664265391339 332:0.0518343546932804 333:0.023462302630570555 336:0.1031593009607828 337:0.07290780690468103 339:0.08097748517249505 343:0.041527792107021747 346:0.02555994098023722 351:0.0746145741707576 353:0.024478520531076912 390:0.06783146057606608 391:0.09384921052228222 395:0.029482176522546397 396:0.049151038042518524 398:0.036963749282769444 399:0.03565623321315978 401:0.13257025694621016 404:0.03377543523865631 405:0.017786926593170063 412:0.020721946039248734 415:0.0424124017752531 420:0.03197264821000149 423:0.0424124017752531 425:0.07978051479933208 427:0.10449153330778338 429:0.06154451034179178 430:0.03421757639759649 432:0.03356058313506835 434:0.03178873624050216 436:0.03074308361744783 438:0.10696869963947933 443:0.03178873624050216 444:0.018860880692550486 445:0.020378808531781135 449:0.04070642470492812 458:0.0663844192278236 465:0.02647798383134631 468:0.06250804683422517 471:0.03911045633692456 472:0.07179727376756319 473:0.027689024241206384 477:0.13117919689403665 479:0.058595469878406886 480:0.019915000537257373 485:0.02636361221234438 487:0.04640012991019463 501:0.06734233523151585 504:0.017573073859480013 514:0.014043441643395412 515:0.02636361221234438 522:0.03377543523865631 527:0.13766206162614955 533:0.5516545153649269 563:0.037136780565304096 572:0.027817452983713572 577:0.2563835985002889 591:0.023286814445159194 593:0.06073311387937129 595:0.021220226968830504 617:0.14062561736115686 623:0.03993985718195488 624:0.10832610680856002 625:0.10455290993496942 627:0.02548743559869054 628:0.05617376657358165 629:0.07146458180564629 631:0.10832610680856002 641:0.03887809488159838 644:0.024098510620032224 645:0.029784674319297818 649:0.08488090787532201 654:0.03160772064316723 665:0.046845303853551776 673:0.04782623085087171 688:0.11872478884536186 689:0.020177737756522318 701:0.1110301836276305 702:0.03197264821000149 703:0.03730107049638591 724:0.30414654049125345 730:0.04754213858707402 736:0.08517282638928333 740:0.03142951160252395 743:0.2346708921954601 744:0.03565623321315978 745:0.046845303853551776 746:0.041527792107021747 747:0.1755270034922715 749:0.3288781856680475 750:0.42043211780977263 751:0.4668890447144882 753:0.390337299660628 754:0.05704419115241272 761:0.044977270181163556 762:0.04556684827757219 764:0.035914541901114476 765:0.055634905967427144 767:0.050848829075025526 768:0.03644925472450405 770:0.0638796197919625 772:0.052944479153116945 774:0.039221232389065976 778:0.05184895984502126 782:0.24538491090229664 783:0.14920428198554364 785:0.2794733292916108 786:0.13877875459452557 788:0.04754213858707402 793:0.17348324429361245 794:0.03993985718195488 802:0.10934776417351215 803:0.02986857434782209 805:0.0419615889803878 809:0.043482182586213704 814:0.035914541901114476 817:0.05751805820806822 822:0.15554687953506377 823:0.07943395149403894 830:0.11731151315285276 832:0.10280119286681905 834:0.04828396066911506 836:0.06678324701893232 837:0.2274370252876549 847:0.08463474079523148 848:0.027817452983713572 857:0.029042852237256767 870:0.0850380525112036 877:0.03854490480259548 889:0.12231078332256834 894:0.030414654049125345 899:0.049076982180459326 918:0.04337081107340311 920:0.027689024241206384 921:0.05512402925973266 923:0.11852972133466158 926:0.02794733292916108 949:0.6296817825362898 958:0.06935481565987572 972:0.028900064651066457 987:0.04754213858707402 1012:0.046845303853551776 1019:0.03730107049638591 1021:0.05704419115241272 1047:0.03993985718195488 1052:0.027436393129496327 1061:0.11017871422796251 1072:0.031254023417112586 1110:0.06321544128633445 1112:0.2155428622370423 1115:0.039221232389065976 1119:0.48672960393857323 1140:0.08288778415699494 1142:0.07519927861123758 1143:0.07708980960519096 1149:0.04556684827757219 1153:0.06546932624480761 1163:0.13105321121142485 1164:0.18273506437521103 1165:0.33310707532666317 1166:0.09113369655514438 1167:0.06091168812507034 1168:0.17348324429361245 1169:0.1428875310058684 1170:0.11763207609395783 1171:0.30397891714790676 1172:1.1374157392829134 1173:0.4882955823200574 1174:0.11408838230482544 1175:0.11408838230482544 1176:0.2220373902361096 1177:0.046845303853551776 1178:0.11763207609395783 1179:0.13356649403786464 1180:0.1110186951180548 1181:0.05704419115241272 1182:0.2186955283470243 1183:0.18799819652809394 1184:0.1733870391496893 1185:0.03074308361744783 1186:0.1665280426770822 1187:0.05118674832622991 1188:0.0634765565309808 1189:0.17348324429361245 1190:0.08776350174613574 1191:0.030577695830642085 1192:0.04070642470492812 1193:0.031254023417112586 1194:0.0419615889803878 1195:0.0555093475590274 1196:0.027189195368335823 1197:0.15417961921038192 1198:0.10169765815005105 1199:0.052944479153116945 1200:0.08776350174613574 1201:0.09815396436091865 1202:0.17152648041228852 1203:0.1258847669411634 1204:0.1428875310058684 1205:0.046845303853551776 1206:0.12165861619650138 1207:0.0714437655029342 1208:0.06091168812507034 1209:0.11408838230482544 1210:0.0634765565309808 1211:0.0714437655029342 1212:0.04110977320850594 1213:0.052944479153116945 1214:0.03822110161907023 1215:0.04754213858707402 1216:0.03790617088127582 1217:0.3862716853529205 1218:0.05184895984502126 1219:0.054155519562977025 1220:0.04828396066911506 1221:0.0714437655029342 1222:0.23094155295511815 1223:0.16282569881971248 1224:0.12458337632106523 1225:0.07131246642631955 1226:0.120950255091485 1227:0.2897037640146904 1228:0.073452476151975 1229:0.029482176522546397 1230:0.12182337625014068 1231:0.10369791969004252 1232:0.08995454036232711 1233:0.054155519562977025 1234:0.054155519562977025 1235:0.052944479153116945 1236:0.09815396436091865 1237:0.12182337625014068 1238:0.02834601750373453 1239:0.046845303853551776 1240:0.11763207609395783 1241:0.06678324701893232 1242:0.04618831059102363 1243:0.0634765565309808 1244:0.049076982180459326 1245:0.03887809488159838 1246:0.04754213858707402 1247:0.049076982180459326 1248:0.08221954641701187 1249:0.06469908545041655 1250:0.04618831059102363 1251:0.08674162214680622 1252:0.049928797952341196 1253:0.035156404340289216 1254:0.1428875310058684 1255:0.06678324701893232 1256:0.04556684827757219 1257:0.05184895984502126 1258:0.046845303853551776 1259:0.058816038046978915 1260:0.041527792107021747 1261:0.04388175087306787 1262:0.0714437655029342 1263:0.054155519562977025 1264:0.04556684827757219 1265:0.06432171249641289 1266:0.0714437655029342 1267:0.04618831059102363 1268:0.052944479153116945 1269:0.03491441113111873 1270:0.058816038046978915 1271:0.05184895984502126 1272:0.04828396066911506 1273:0.058816038046978915 1274:0.09369060770710355 1275:0.054155519562977025 1276:0.04070642470492812 1277:0.0634765565309808 1278:0.0329391208216169 1279:0.06678324701893232 1280:0.10265272919278948 1281:0.0634765565309808 1282:0.11981957154586463 1283:0.06678324701893232 1284:0.031254023417112586 1285:0.07491573554899052 1286:0.06091168812507034 1287:0.09113369655514438 1288:0.054155519562977025 1289:0.044977270181163556 1290:0.058816038046978915 1291:0.10831103912595405 1292:0.052944479153116945 1293:0.03565623321315978 1294:0.06091168812507034 1295:0.20739583938008505 1296:0.09113369655514438 1297:0.09237662118204726 1298:0.050848829075025526 1299:0.049928797952341196 1300:0.07519927861123758 1301:0.06678324701893232 1302:0.04618831059102363 1303:0.1269531130619616 1304:0.058816038046978915 1305:0.0555093475590274 1306:0.057239406241807414 1307:0.04828396066911506 1308:0.052944479153116945 1309:0.040316751697161674 1310:0.04556684827757219 1311:0.057239406241807414 1312:0.03178873624050216 1313:0.0714437655029342 1314:0.039574929615120616 1315:0.0634765565309808 1316:0.0634765565309808 1317:0.09985759590468239 1318:0.03356058313506835 1319:0.26713298807572927 1320:0.049076982180459326 1321:0.046845303853551776 1322:0.1428875310058684 1323:0.1624665586889311 1324:0.0419615889803878 1325:0.13356649403786464 1326:0.03854490480259548 1327:0.06091168812507034 1328:0.07775618976319676 1329:0.050848829075025526 1330:0.0714437655029342 1331:0.0525007348512862 1332:0.11408838230482544 1333:0.0634765565309808 1334:0.0714437655029342 1335:0.03790617088127582 1336:0.049928797952341196 1337:0.04828396066911506 1338:0.0555093475590274 1339:0.0728985094490081 1340:0.049928797952341196 1341:0.0714437655029342 1342:0.052944479153116945 1343:0.0728985094490081 1344:0.1428875310058684 1345:0.054155519562977025 1346:0.06678324701893232 1347:0.04828396066911506 1348:0.03844397279276486 1349:0.054155519562977025 1350:0.03854490480259548 1351:0.039574929615120616 1352:0.04388175087306787 1353:0.11903292014397081 1354:0.11563471440778644 1355:0.03334967349520402 1356:0.03377543523865631 1357:0.120950255091485 1358:0.03701006120921016 1359:0.054155519562977025 1360:0.054155519562977025 1361:0.05184895984502126 1362:0.07644220323814047 1363:0.0634765565309808 1364:0.0555093475590274 1365:0.03759963930561879 1366:0.0714437655029342 1367:0.0367262380759875 1368:0.046845303853551776 1369:0.058816038046978915 1370:0.06678324701893232 1371:0.054155519562977025 1372:0.0634765565309808 1373:0.058816038046978915 1374:0.0714437655029342 1375:0.04556684827757219 1376:0.046845303853551776 1377:0.0634765565309808 1378:0.02834601750373453 1379:0.04070642470492812 1380:0.049928797952341196 1381:0.04070642470492812 1382:0.049076982180459326 1383:0.05704419115241272 1384:0.04110977320850594 1385:0.09113369655514438 1386:0.08995454036232711 1387:0.05184895984502126 1388:0.054155519562977025 1389:0.03074308361744783 1390:0.04388175087306787 1391:0.03887809488159838 1392:0.05704419115241272 1393:0.06091168812507034 1394:0.044977270181163556 1395:0.03790617088127582 1396:0.0714437655029342 1397:0.0714437655029342 1398:0.03565623321315978 1399:0.07844246477813195 1400:0.054155519562977025 1401:0.09985759590468239 1402:0.030910885909644987 1403:0.03178873624050216 1404:0.0555093475590274 1405:0.0555093475590274 1406:0.046845303853551776 1407:0.054155519562977025 1408:0.050848829075025526 1409:0.06091168812507034 1410:0.06678324701893232 1411:0.06678324701893232 1412:0.049076982180459326 1413:0.049076982180459326 1414:0.0714437655029342 1415:0.0714437655029342 1416:0.049076982180459326 1417:0.14723094654137797 1418:0.09656792133823013 1419:0.0714437655029342 1420:0.02834601750373453 1421:0.03887809488159838 1422:0.07131246642631955 1423:0.0714437655029342 1424:0.052944479153116945 1425:0.0634765565309808 1426:0.10831103912595405 1427:0.03565623321315978 1428:0.049928797952341196 1429:0.04828396066911506 1430:0.049928797952341196 1431:0.06678324701893232 1432:0.0714437655029342 1433:0.06091168812507034 1434:0.022610486858688692 1435:0.04288162010307213 1436:0.03356058313506835 1437:0.0424124017752531 1438:0.05704419115241272 1439:0.041527792107021747 1440:0.06091168812507034 1441:0.0555093475590274 1442:0.07775618976319676 1443:0.06678324701893232 1444:0.03160772064316723 1445:0.06091168812507034 1446:0.0555093475590274 1447:0.046845303853551776 1448:0.0634765565309808 1449:0.04556684827757219 1450:0.05704419115241272 1451:0.06678324701893232 1452:0.05704419115241272 1453:0.031254023417112586 1454:0.06678324701893232 1455:0.04754213858707402 1456:0.04618831059102363 1457:0.0555093475590274 1458:0.044416463696457444 1459:0.03565623321315978 1460:0.08576324020614426 1461:0.06091168812507034 1462:0.06091168812507034 1463:0.0634765565309808 1464:0.054155519562977025 1465:0.08221954641701187 1466:0.044977270181163556 1467:0.0714437655029342 1468:0.06678324701893232 1469:0.06091168812507034 1470:0.03334967349520402 1471:0.10169765815005105 1472:0.05704419115241272 1473:0.04110977320850594 1474:0.06678324701893232 1475:0.050848829075025526 1476:0.06091168812507034 1477:0.13356649403786464 1478:0.06678324701893232 1479:0.035914541901114476 1480:0.03993985718195488 1481:0.04828396066911506 1482:0.0714437655029342 1483:0.03215955074875758 1484:0.06678324701893232 1485:0.04288162010307213 1486:0.04388175087306787 1487:0.050848829075025526 1488:0.0424124017752531 -1:1.0 
1.1574805154097836E-4 0:-9.985023295895493E-4 21:0.32672964042239433 33:0.21791250189665715 45:0.19458424940574895 185:2.264363880173848 202:1.8718021769015913 247:0.5118251240990741 416:4.343805421853684 444:1.6408966202518924 477:0.8151850092700849 514:1.2217794229754009 741:2.1902559080201263 1140:1.80280930541464 1163:1.266847708377107 1494:6.215607598755275 1495:5.116995310087166 1496:5.52246041819533 1497:5.810142490647111 -1:1.0 
0.013771042175907959 0:-4.992511647947746E-4 5:4.343805421853684 6:0.8496343132368999 16:0.23790734328802057 33:0.10895625094832857 40:0.0753301374437449 61:0.2075004697317671 70:0.012646096451064057 103:0.8282406756342954 178:0.44629880980843356 247:0.25591256204953705 305:1.2389689902359535 322:0.9764638608569799 394:1.648918433335498 472:0.6246362817777997 519:0.5563485142749243 839:1.1087034485430385 1118:1.6911971273495296 1417:2.134848724849981 1498:2.9050712453235557 1499:3.1078037993776375 1500:2.1003522891065054 1501:2.558497655043583 1502:2.4814223151299535 -1:1.0 
0.02435578821161854 0:-1.9970046591790986E-4 10:0.35606462592759436 40:0.1506602748874898 106:0.47537720108312365 134:0.39485616923690575 333:0.4082440657719277 1109:0.5662434670819002 1523:1.104492083639066 1524:1.104492083639066 1525:1.104492083639066 1526:1.243121519751055 1527:2.208984167278132 1528:1.0473181352667318 1529:2.1248753695972478 1530:1.1620284981294222 1531:1.243121519751055 1532:1.243121519751055 1533:1.104492083639066 1534:1.1620284981294222 1535:1.1620284981294222 1536:1.243121519751055 -1:1.0 
0.012072481758934375 0:-3.0257646351198463E-5 3:0.06832710391386962 8:0.06754358552935191 13:0.03152687113755096 16:0.07209313432970321 21:0.009900898194618011 27:0.02382612029699499 31:0.049259122744764613 33:0.13867159211605454 34:0.04143912830778165 40:0.0410891658784063 44:0.03286571706568381 45:0.04127544684364372 48:0.06428069807676287 49:0.09480812276435044 50:0.09760226744043539 55:0.10890988014079811 56:0.027108278967363817 57:0.07874442328062188 61:0.05030314417739809 63:0.1657565132311266 64:0.14240186612276454 70:0.025292192902128113 74:0.28334342639219867 76:0.04659819558114941 83:0.04479660889840997 95:0.09163904055892319 103:0.05019640458389669 106:0.25209397027135344 111:0.08170140292725411 115:0.11857643956852211 119:0.04167773607841516 178:0.02704841271566264 180:0.19218697945647592 186:0.16388255514692454 202:0.05672127808792701 207:0.09538044435217145 209:0.06116380760889293 226:0.08285962149756314 229:0.030241155614384646 242:0.04182755512869645 244:0.2470257603848742 245:0.08150123504382015 251:0.07233230915958122 254:0.04365741327818453 255:0.07830204131203936 256:0.07660424447377026 257:0.09045757123671305 261:0.05678369256767442 263:0.055939590951703554 270:0.0521626961658929 291:0.04703540923161237 292:0.16070563504958604 322:0.11835925586145211 327:0.13561206413218468 330:0.15958756225613105 339:0.05337152431823538 341:0.16571924299512628 342:0.1608509087914871 349:0.2506767307318448 354:0.5474118050471048 355:0.06428069807676287 361:0.14634282538289042 398:0.024362471118188955 412:0.1092611700251297 425:0.07011014936911002 427:0.13773883936025993 436:0.2431498431561783 437:0.12013078182269031 443:0.2514200048112444 449:0.10731693785844686 458:0.1750134688733531 471:0.03436979496275189 472:0.07571348870033937 477:0.024702576038487422 479:0.1544789660430727 492:0.10200049124860724 504:0.13898703870679646 536:0.33187802193579446 548:0.07976026243330805 572:0.0733369215025176 577:0.10398775323787941 591:0.06139251080996515 595:0.05594423473600769 617:0.18537013197607044 627:0.20158244518964336 634:0.07812186178875423 646:0.127294078127667 696:0.14277364248421218 724:0.16036817589538818 736:0.05613663557475493 743:0.07733472583714027 744:0.09400279665287578 752:0.08332944533198633 760:0.3603923454680709 786:0.16630511914220003 802:0.4804674486411898 803:0.03937221164031094 809:0.22926969000003591 841:0.09682371856396706 870:0.07473040978257285 872:0.06747344097548488 890:0.1893675845695127 920:0.07299833663590774 972:0.1523821590692595 1016:0.2791617991709803 1127:0.14277364248421218 1140:0.27315292506282424 1142:0.09912632180572227 1150:0.08962154729496344 1153:0.1294507132567787 1163:0.3455039204664837 1171:0.1780886585310969 1180:0.14634282538289042 1191:0.08061392537169278 1248:0.10838031118606112 1249:0.34114063237492365 1348:0.05067614595409913 1349:0.14277364248421218 1353:0.1344917409418891 1365:0.09912632180572227 1437:0.11181451377112182 1456:0.12176918246724412 1479:0.09468379228475635 1483:0.08478427015581544 1486:0.11568825230172439 1539:1.3184622179177856 1540:0.3521298479180068 1541:0.1227850216199303 1542:0.11709794974520599 1543:0.10838031118606112 1544:0.07473040978257285 1545:0.669389141599434 1546:0.09142225700619983 1547:0.15038923121999717 1548:0.09912632180572227 1549:0.26811200785013456 1550:0.5265218693155981 1551:0.8367364269992924 1552:0.10340143084390122 1553:0.19825264361144454 1554:0.11062600731193148 1555:0.18835174541682653 1556:0.18835174541682653 1557:0.4472580550844873 1558:0.1760649239590034 1559:0.13669271231869243 1560:0.1760649239590034 1561:0.09204708389113121 1562:0.15038923121999717 1563:0.15038923121999717 1564:0.2882804691847139 1565:0.7534069816673061 1566:0.1673472853998585 1567:0.11857643956852211 1568:0.09204708389113121 1569:0.13958089958549014 1570:0.15506046394203535 1571:0.10340143084390122 1572:0.09142225700619983 1573:0.26326093465779904 1574:0.1760649239590034 1575:0.12938477120302913 1576:0.15506046394203535 1577:0.07892999048821366 1578:0.1673472853998585 1579:0.13669271231869243 1580:0.11062600731193148 1581:0.13405600392506728 1582:0.127294078127667 1583:0.1673472853998585 1584:0.08579446470937882 1585:0.09682371856396706 1586:0.18835174541682653 1587:0.0793422829747524 1588:0.08683950034789911 1589:0.09400279665287578 1590:0.09081005375415377 1591:0.07694869475297572 1592:0.10340143084390122 1593:0.18835174541682653 1594:0.37670349083365307 1595:0.18835174541682653 1596:0.18835174541682653 1597:0.18835174541682653 1598:0.13958089958549014 1599:0.15506046394203535 1600:0.127294078127667 1601:0.1578599809764273 1602:0.16058535960245818 1603:0.09400279665287578 1604:0.2286824583870346 1605:0.09020997413911802 1606:0.1673472853998585 1607:0.18835174541682653 -1:1.0 
0.06482664959708775 0:-1.883966659602923E-5 2:0.08544769359146595 3:0.04254329111618297 6:0.0961850165928566 8:0.22289383224686132 9:0.03378794277166916 10:0.0503865036689992 13:0.06870478521485163 16:0.04488817797887181 20:0.08132696559278701 21:0.04315297137654265 23:0.0810523805473672 27:0.029670263011352248 28:0.04524330703393152 33:0.06167334959339353 34:0.0516034427983696 36:0.021874750818999377 37:0.017785057362104312 40:0.048324993831836346 41:0.03489881126898227 44:0.1227813580944414 45:0.04038541025402337 47:0.10706461938680922 48:0.12007149263395328 49:0.16971548391071223 53:0.06888034417535356 55:0.049317681573191594 56:0.12659054800797254 61:0.015660412809944686 63:0.0258017213991848 70:0.007158167802489088 74:0.03307900850569301 76:0.014506985416772929 80:0.066180328257605 83:0.06973057045507214 87:0.034478309704353914 88:0.061720162633751595 90:0.07790821482477846 91:0.14238719107117248 95:0.02852913526834401 96:0.13572992110179458 102:0.049401798833336404 103:0.0312543651182753 106:0.022423452881279414 108:0.06816826251529984 111:0.02543534242074892 131:0.06962035763107584 133:0.05853004319896039 155:0.12150472925287864 158:0.06327182486463787 169:0.03145297668406751 192:0.06816826251529984 197:0.3749899947491554 199:0.10038715234965515 204:0.04524330703393152 211:0.05770956938877664 212:0.061720162633751595 227:0.014304754922055497 233:0.12150472925287864 234:0.11054307858758264 235:0.06381875952262375 242:0.026043572061263825 245:0.012686513002104079 247:0.009657077813190078 254:0.054365835403022235 255:0.07313115179143298 256:0.015898994136065527 258:0.030197869470075772 267:0.08511055672673301 268:0.0308633060519146 271:0.09402221125881319 272:0.043090225774168864 291:0.32214818020896774 292:0.09005579926363594 296:0.04839527089550069 309:0.11384658419639977 310:0.062223337106999926 321:0.061720162633751595 322:0.036847692862527544 323:0.07804086900142339 326:0.1423191863005348 328:0.031155837873347907 337:0.029919713210883252 397:0.043090225774168864 398:0.03033817158114096 435:0.08511055672673301 458:0.03632355014352611 465:0.043463860251455266 471:0.042800122029087256 477:0.03076169846302207 480:0.13076264503708612 493:0.1205729325513552 495:0.11966359098233405 510:0.04403856227946864 581:0.06020938868956352 587:0.06438202297827811 593:0.066462652924595 601:0.05811534684577595 622:0.06381875952262375 625:0.08581229400322962 628:0.02305244194293209 645:0.04889182388262095 654:0.05188437162180281 662:0.05074051083281347 695:0.07804086900142339 741:0.08265116634038212 749:0.06748208054981163 770:0.034952999508809666 780:0.17022111345346602 785:0.045875810657302146 803:0.049029546570953236 832:0.04218728197836442 841:0.0602864662756776 844:0.07291004418097731 876:0.11462467050593697 902:0.07343057166246465 953:0.061230059116708944 972:0.047439728766844935 978:0.10558041189214752 981:0.21873013254293194 982:0.1872771558588644 984:0.09261915030421558 985:0.05374173148620379 986:0.16321149558000403 992:0.05616847446397914 1031:0.07689700821243405 1041:0.06327182486463787 1059:0.1388566473279237 1060:0.07804086900142339 1110:0.05188437162180281 1142:0.061720162633751595 1163:0.2868334434061374 1165:0.03645322711121974 1171:0.055442695580435825 1180:0.09111911769123367 1196:0.04463132069896635 1225:0.11706008639792077 1231:0.08511055672673301 1245:0.19145627856787129 1247:0.08056032923962192 1252:0.08195859286516385 1260:0.06816826251529984 1272:0.0792585769474153 1276:0.06681998017601408 1300:0.061720162633751595 1324:0.06888034417535356 1348:0.031553072009156066 1390:0.07203230803692273 1402:0.05074051083281347 1403:0.05218151043252241 1459:0.05853004319896039 1479:0.05895405934711244 1483:0.1583706178382213 1488:0.06962035763107584 1543:0.06748208054981163 1588:0.10813975515021398 1608:0.6789217889712676 1609:0.1674062864566298 1610:0.1516370951478889 1611:0.059831795491167024 1612:0.1930941626447987 1613:0.21925066002441929 1614:0.08056032923962192 1615:0.09654708132239935 1616:0.08889679626375474 1617:0.09261915030421558 1618:0.07291004418097731 1619:0.06327182486463787 1620:0.08195859286516385 1621:0.08056032923962192 1622:0.09998711069587018 1623:0.11727561507085424 1624:0.06381875952262375 1625:0.11727561507085424 1626:0.05811534684577595 1627:0.10962533001220964 1628:0.06075236462643932 1629:0.09998711069587018 1630:0.07203230803692273 1631:0.11160419097108654 1632:0.16693766526517811 1633:0.08511055672673301 1634:0.10962533001220964 1635:0.07689700821243405 1636:0.11727561507085424 1637:0.09654708132239935 1638:0.17381772401211978 1639:0.05616847446397914 1640:0.08889679626375474 1641:0.05580209548554327 1642:0.10962533001220964 1643:0.10948760732387734 1644:0.10962533001220964 1645:0.09111911769123367 1646:0.06888034417535356 1647:0.09998711069587018 1648:0.061230059116708944 1649:0.07291004418097731 1650:0.08346883263258906 1651:0.11088539116087165 1652:0.061720162633751595 1653:0.13924071526215168 1654:0.09654708132239935 1655:0.11727561507085424 1656:0.09654708132239935 1657:0.09111911769123367 1658:0.08889679626375474 1659:0.11727561507085424 1660:0.05895405934711244 1661:0.11790811869422488 1662:0.08195859286516385 1663:0.08346883263258906 1664:0.09998711069587018 1665:0.11727561507085424 1666:0.08195859286516385 1667:0.06748208054981163 1668:0.06556165235528441 1669:0.09654708132239935 1670:0.07479841132356188 1671:0.09654708132239935 1672:0.09998711069587018 1673:0.1639171857303277 1674:0.08511055672673301 1675:0.09998711069587018 1676:0.0936385779294322 1677:0.07581854757394445 1678:0.0792585769474153 1679:0.07581854757394445 1680:0.10962533001220964 1681:0.11727561507085424 1682:0.11727561507085424 1683:0.062223337106999926 1684:0.08195859286516385 1685:0.07383061331624961 1686:0.0936385779294322 1687:0.11727561507085424 1688:0.06327182486463787 1689:0.05440383186000134 1690:0.10419736638104395 1691:0.07203230803692273 1692:0.07804086900142339 1693:0.05654210894126555 1694:0.09654708132239935 1695:0.07383061331624961 1696:0.0936385779294322 1697:0.10962533001220964 1698:0.08511055672673301 1699:0.10962533001220964 1700:0.08889679626375474 1701:0.09998711069587018 1702:0.07689700821243405 1703:0.10419736638104395 -1:1.0 
0.06579332339937156 0:-2.8206280496879925E-6 2:0.006396508136084316 3:0.006369475788581066 8:0.22289383224686132 9:0.04046917439318566 10:0.030174968298948675 13:0.1778062096783065 14:0.15459957044514305 16:0.014785202125244217 17:0.08867637993517152 19:0.03840900266723166 20:0.012176071119824045 21:0.05076307972664319 23:0.018202441394112125 26:0.12321224191289805 27:0.028874027139578675 29:0.02672836154853352 30:0.03538878442077311 31:0.004591952120274667 33:0.019698305256194995 34:0.011588908764040631 36:0.029475299832380522 37:0.023964611191310048 40:0.02213088783658042 41:0.007837444903627375 44:0.004595629928676126 45:0.01484117156484526 48:0.011984536929565958 49:0.01104755667804931 50:0.06368961519418243 55:0.020305231890657277 56:0.022743386591262862 57:0.0036702909156222058 60:0.009315923352177955 61:0.016412466532456156 63:0.0038629695880135436 64:0.004424916743927711 70:0.0036437905028489656 74:0.009905013846337454 76:0.01303169876421975 77:0.10979943499063179 83:0.010439887667002325 86:0.02254457234971069 90:0.005832112126713642 95:0.02989917848744528 96:0.006773715459882403 102:0.007396314514595563 105:0.005305979824640636 106:0.016785918117341935 125:0.006836492682438081 129:0.012270636784897412 133:0.008762972569335878 147:0.008826455212985761 161:0.00978872907763498 165:0.006652197422922824 169:0.009418122961895923 170:0.014135793966389648 173:0.0076385936721024145 178:0.012607311011537671 179:0.007555503600898196 180:0.035831470746122626 183:0.00864013327007108 184:0.007357880469240256 209:0.011403421757590208 226:0.007724202004010123 227:0.023558395817961455 229:0.02819090777612128 231:0.007474787859530805 235:0.1242122183929033 242:0.009747947169823325 244:0.018422260096499093 245:0.013295752327063882 247:0.018795837890643964 250:0.019139197985381187 252:0.011361101578329431 254:0.008139517729831014 255:0.01094901425125974 256:0.019042863033027636 257:0.011805479635977806 258:0.013563449846728949 259:0.01692553336073942 261:0.007057860093157273 263:0.006952943508121346 268:0.3049713123434951 269:0.005701710878795104 270:0.03403836953198096 272:0.01290272297192627 274:0.013304394845845648 275:0.013186688140179877 276:0.006593344070089938 292:0.01348293039822798 293:0.016431707455417117 305:0.013999649607185916 318:0.01670910203804403 327:0.007585081553156092 328:0.0046645745968571725 333:0.017298477363217272 336:0.028521798252928297 337:0.022397525426226163 339:0.014925934766964131 342:0.018326704297335163 346:0.014657254290926996 351:0.018337480092813312 353:0.006015907588146021 355:0.005992268464782979 357:0.010103249347853154 358:0.004438465253146617 371:0.011277400528695867 390:0.005556814566965865 396:0.006039746200139988 398:0.00227107781610236 405:0.008742726630541217 412:0.005092681653713672 436:0.007555503600898196 444:0.004635301187152239 445:0.005008351249336042 458:0.005438271631657865 465:0.006507301111093585 471:0.006407927874411369 472:0.01411607416447005 476:0.006342699675715123 477:0.004605565024124773 479:0.009600387720190959 480:0.014683093616452468 485:0.006479192831847348 496:0.11410915216032033 504:0.00863761257499865 508:0.0071376501261054765 510:0.006593344070089938 514:0.027610834417523183 519:0.009429635835168208 533:0.023925195830881672 536:0.08250075121567771 537:0.009095693009043176 538:0.02589803621583889 559:0.028405052936458255 577:0.009693773606920962 581:0.03605760000617928 619:0.012061292230790851 624:0.0053245035549970175 625:0.012847603339466582 628:0.006902708604380796 629:0.005854443142270459 636:0.005058646799148208 639:0.008762972569335878 644:0.011845030643744653 649:0.005215140526238005 653:0.008409404368900832 662:0.007596743147285633 681:0.006712303068254137 689:0.009917871100663512 698:0.010658928145158392 699:0.007474787859530805 710:0.007319962332708786 719:0.009315923352177955 734:0.008891397354863441 736:0.005233076197646645 765:0.020509478047314244 770:0.005233076197646645 786:0.015503019581052546 803:0.011010872746866617 809:0.005343149555085583 818:0.010312593901959714 823:0.01301460222218717 830:0.0057661591210724245 848:0.006836492682438081 872:0.006289897040087573 902:0.005496921325015009 926:0.013736824660096124 955:0.019271405009199872 959:0.05544353592523449 961:0.009908354230658377 972:0.007102558261702773 1001:0.01401933511372855 1011:0.007282546437934715 1043:0.008826455212985761 1052:0.006742842379282995 1065:0.006804929686398179 1069:0.006423801669733291 1088:0.01693068798806257 1112:0.009631345153889408 1120:0.01456509287586943 1133:0.013642127789930463 1140:0.020370726614854687 1153:0.004022479790464875 1163:0.0035786658428731835 1171:0.008300742558652822 1187:0.012579794080175146 1196:0.02004627116140014 1252:0.012270636784897412 1265:0.005269292831627045 1277:0.015600170672868162 1282:0.009815727612514334 1300:0.009240589320872414 1306:0.007033655851747521 1311:0.007033655851747521 1318:0.008247939923025272 1339:0.008957867686530657 1365:0.009240589320872414 1378:0.013932788264547481 1401:0.012270636784897412 1402:0.007596743147285633 1434:0.005556814566965865 1453:0.007681073551663262 1488:0.010423386876968983 1505:0.009025939866132522 1508:0.012061292230790851 1514:0.03107199656446948 1529:0.010004121325787419 1537:0.02004627116140014 1564:0.008957867686530657 1577:0.02207364140772077 1585:0.009025939866132522 1588:0.008095207659549917 1631:0.008354551019022015 1639:0.008409404368900832 1667:0.010103249347853154 1673:0.012270636784897412 1704:0.07774686681514306 1705:0.10312593901959714 1706:0.17963785989427525 1707:0.012742540978861157 1708:0.017558213555805863 1709:0.015600170672868162 1710:0.027077819598397567 1711:0.012496746128607968 1712:0.012061292230790851 1713:0.058420424534963836 1714:0.04908254713958965 1715:0.03086709227259045 1716:0.017558213555805863 1717:0.014454789011545666 1718:0.010658928145158392 1719:0.12290749489064104 1720:0.022915781016307243 1721:0.027501636721911644 1722:0.028917349303802884 1723:0.010312593901959714 1724:0.05204711509967429 1725:0.014454789011545666 1726:0.011684084906992768 1727:0.011866397113596076 1728:0.012742540978861157 1729:0.01496982165785627 1730:0.014454789011545666 1731:0.010312593901959714 1732:0.008095207659549917 1733:0.011198632203810113 1734:0.013642127789930463 1735:0.013309407350223167 1736:0.008247939923025272 1737:0.008826455212985761 1738:0.012424997615835516 1739:0.013999649607185916 1740:0.010915910569468354 1741:0.0280386702274571 1742:0.04205800534118565 1743:0.02817996475304331 1744:0.009240589320872414 1745:0.011891151042835956 1746:0.015600170672868162 1747:0.011198632203810113 1748:0.012496746128607968 1749:0.016412831894483365 1750:0.009167212240637214 1751:0.010658928145158392 1752:0.015600170672868162 1753:0.023172606012030368 1754:0.007173183409175703 1755:0.049238495683450095 1756:0.027284255579860927 1757:0.024993492257215935 1758:0.01863184670435591 1759:0.035116427111611725 1760:0.025485081957722314 1761:0.03282566378896673 1762:0.02993964331571254 1763:0.028909578023091333 1764:0.010103249347853154 1765:0.016412831894483365 1766:0.015600170672868162 1767:0.015600170672868162 1768:0.017558213555805863 1769:0.017558213555805863 1770:0.023025657826322057 1771:0.028909578023091333 1772:0.035116427111611725 1773:0.01496982165785627 1774:0.008957867686530657 1775:0.017558213555805863 1776:0.015600170672868162 1777:0.035116427111611725 1778:0.017558213555805863 1779:0.017558213555805863 1780:0.07023285422322345 1781:0.013309407350223167 1782:0.020846773753937967 1783:0.00776799914111737 1784:0.009240589320872414 1785:0.010103249347853154 1786:0.013642127789930463 1787:0.015600170672868162 1788:0.012270636784897412 1789:0.00858066036273257 1790:0.006423801669733291 1791:0.013309407350223167 1792:0.009025939866132522 1793:0.035116427111611725 1794:0.0069663941322737405 1795:0.012496746128607968 1796:0.00776799914111737 1797:0.01078449809592346 1798:0.008891397354863441 1799:0.01401933511372855 1800:0.034538486739483086 1801:0.010538703245670269 1802:0.013642127789930463 1803:0.009472900332841263 1804:0.013309407350223167 1805:0.013642127789930463 1806:0.012496746128607968 1807:0.017558213555805863 1808:0.010915910569468354 1809:0.017558213555805863 1810:0.006423801669733291 1811:0.01833442448127443 1812:0.035116427111611725 1813:0.08779106777902931 1814:0.05933198556798038 1815:0.07023285422322345 1816:0.012496746128607968 1817:0.01401933511372855 1818:0.035116427111611725 1819:0.017558213555805863 1820:0.017558213555805863 1821:0.07009667556864276 1822:0.07023285422322345 1823:0.1404657084464469 1824:0.016412831894483365 1825:0.00864013327007108 1826:0.013011778774918572 1827:0.011684084906992768 1828:0.010658928145158392 1829:0.017558213555805863 1830:0.017558213555805863 1831:0.012061292230790851 1832:0.011198632203810113 1833:0.017558213555805863 1834:0.007357880469240256 1835:0.008354551019022015 1836:0.035116427111611725 1837:0.009908354230658377 1838:0.017558213555805863 1839:0.017558213555805863 1840:0.012270636784897412 1841:0.008700885262220693 1842:0.013309407350223167 1843:0.013011778774918572 1844:0.010312593901959714 1845:0.010312593901959714 1846:0.010004121325787419 1847:0.007245619653846149 1848:0.010538703245670269 1849:0.011351364467285468 1850:0.00864013327007108 1851:0.013309407350223167 1852:0.012496746128607968 1853:0.007319962332708786 1854:0.017558213555805863 1855:0.017558213555805863 1856:0.009240589320872414 -1:1.0 
0.13620458855829726 0:-4.0755197126104055E-6 6:0.0069357903121379585 8:0.22289383224686132 9:0.036546142181601335 10:0.01816656254732624 13:0.1677358225624395 14:0.12565158965260861 16:0.015536806092278897 17:0.04270944013204179 19:0.016649126870448987 20:0.008796590155954515 21:0.05601079550098188 23:0.017533780281675355 26:0.05796296828859257 30:0.04090654591005284 33:0.02846204106405318 36:0.03312462266877049 37:0.02693165829118653 40:0.008609158564999416 41:0.0037747693821552257 44:0.011067027175179241 45:0.00794221426145914 49:0.007981296049039703 50:0.04601249750763382 55:0.026671807381419943 56:0.003651319207849004 57:0.005303195853592902 61:0.016938813855654457 63:0.005581596874109365 64:0.0063935531728588155 69:0.01207147371728079 70:0.008774842435432202 74:0.05486164812032622 90:0.008426806909618896 95:0.009257413280952444 106:0.004850787766154323 111:0.09353976947385624 128:0.006913547027372388 140:0.01759318031190903 160:0.062420554645003304 178:0.01092976677081878 183:0.012484110929000663 184:0.010631386473922656 205:0.011036988407854102 227:0.012377992014186798 229:0.02443979106795167 231:0.02160061144713392 241:0.06308950761782527 242:0.011267831177526392 244:0.013309143008491182 247:0.012534492835079365 253:0.007971133558016163 254:0.029401931391430394 255:0.026367013911196925 256:0.024075619691756367 257:0.017057713433208745 258:0.019597801003028766 259:0.02445566861102757 261:0.012747359556008543 263:0.012557867356504878 268:0.24703242109307974 269:0.008238390412626395 270:0.01405199162019972 272:0.009321559045024285 273:0.018804772190425544 274:0.009611746480468081 275:0.06668696573748109 281:0.007747426470281489 292:0.012987639077476748 293:0.007914046856078449 296:0.020938362101726834 297:0.014316560806747206 322:0.007971133558016163 327:0.003653222952132322 329:0.009526709391068727 342:0.021665632612730922 346:0.012101849606969462 347:0.010976518669955568 352:0.00893982003273521 355:0.008658216475645611 358:0.006413129386179195 361:0.039422965205186816 398:0.06234803833103867 405:0.00631617393308488 408:0.010212389926738645 420:0.011353552629673998 429:0.007284860407803926 438:0.025323202363631846 444:0.006697537225517929 445:0.02170966949712194 458:0.007857747582068916 471:0.013888202862499742 479:0.0069357903121379585 480:0.014143714667276666 492:0.082433050070303 496:0.009698593004742713 508:0.010313176100576894 510:0.009526709391068727 514:0.03490798351358288 535:0.03206075924285914 536:0.2980129176566317 538:0.007484003935026097 572:0.009878034324828902 581:0.01953733224824612 627:0.07240512317015763 628:0.009973709575309396 634:0.021045072971664403 636:0.007309228436320267 662:0.021953037339911136 681:0.009698593004742713 696:0.01923073551828164 700:0.032803126705461684 736:0.007561261118232297 752:0.033671898317823044 786:0.004480056270769471 803:0.010606391707185804 809:0.007720305887756311 839:0.009050640396269703 870:0.010065728664591447 876:0.03719453593968158 890:0.012753327124069224 894:0.01080030572356696 923:0.010522536485832202 942:0.042090145943328806 953:0.013245686257900303 955:0.037126951691193226 1005:0.01663486300105716 1065:0.009832429016265125 1069:0.009281737922798306 1109:0.011555989124120414 1112:0.006958155478524185 1118:0.013805690835506366 1119:0.013827094054744776 1150:0.13278621089008869 1153:0.029060364200501336 1157:0.013041562092289441 1163:0.0051708069729677845 1165:0.023657400451771178 1173:0.041614741872827744 1185:0.0436677269341708 1200:0.01558249928962002 1212:0.014598164363836803 1228:0.13041562092289438 1229:0.010469181050863417 1258:0.01663486300105716 1260:0.014746603727799559 1280:0.012150731210575081 1335:0.013460558639473454 1348:0.013651533195798135 1353:0.012076809390700246 1389:0.0109169317335427 1420:0.010065728664591447 1479:0.038259981372207666 1514:0.022447932211882033 1557:0.030121460852628738 1564:0.012943204738905522 1566:0.04508130953628841 1577:0.010631386473922656 1582:0.017145732972298006 1583:0.022540654768144205 1585:0.10433249673831553 1588:0.011696749026451719 1591:0.02072903613753632 1601:0.010631386473922656 1611:0.012943204738905522 1720:0.022073976815708204 1721:0.013245686257900303 1754:0.031093554206304476 1790:0.009281737922798306 1810:0.055690427536789835 1834:0.031894159421767966 1837:0.014316560806747206 1857:0.45665688480651007 1858:0.1538458841462531 1859:0.18971893847010976 1860:0.014746603727799559 1861:0.09016261907257682 1862:0.25624927383371426 1863:0.2608635403964009 1864:0.03846147103656328 1865:0.07520277038891714 1866:0.09016261907257682 1867:0.030454701624222657 1868:0.030121460852628738 1869:0.05073965386739 1870:0.1422892038525823 1871:0.025369826933695 1872:0.11158360781904478 1873:0.01141992210262004 1874:0.018800692597229284 1875:0.01663486300105716 1876:0.025369826933695 1877:0.029493207455599118 1878:0.029196328727673606 1879:0.01223155826076357 1880:0.126849134668475 1881:0.126849134668475 1882:0.02949728704879537 1883:0.012753327124069224 1884:0.04742973461752744 1885:0.021629864762780084 1886:0.01888681574841331 1887:0.025369826933695 1888:0.01923073551828164 1889:0.021629864762780084 1890:0.025369826933695 1891:0.05073965386739 1892:0.04177139028642585 1893:0.011917431562248762 1894:0.025369826933695 1895:0.021629864762780084 1896:0.017729818048382386 1897:0.04508130953628841 1898:0.025369826933695 1899:0.01239817864656053 1900:0.020885695143212923 1901:0.01841167145517082 1902:0.014316560806747206 1903:0.022540654768144205 1904:0.025369826933695 1905:0.025369826933695 -1:1.0 
0.011235037206883599 0:-9.985023295895493E-4 45:0.19458424940574895 392:3.058607177605162 395:2.5649493574615367 680:2.1992245780028865 763:3.41224721784874 1119:1.693819021706235 1913:5.52246041819533 -1:1.0 
0.03127403413626965 0:-4.341314476476301E-5 1:0.2432939926210356 4:0.5014614067095776 8:0.029073108553938434 16:0.062062785205570584 27:0.23929712124373229 33:0.10421902264622733 36:0.10081406899191019 40:0.10480714774781898 41:0.08041899988069828 44:0.14146547780446508 45:0.10998240183803201 46:0.4532305532387053 47:0.16447608195654748 48:0.6456017937274879 49:0.39108350640294554 51:0.20026824723135542 55:0.028411273080208202 56:0.15557794885617493 57:0.2824528226370132 58:0.15872427136059733 61:0.1263046337497713 66:0.11443863740431154 70:0.012096266170583011 73:0.2555185100663564 74:0.12704256889867602 76:0.33429140308215877 78:0.1389209875048223 79:0.299392945783956 81:0.3141667750705123 83:0.22495688381592835 90:0.08976381273289692 91:0.1640548071037422 95:0.09861157625362386 101:0.22191703935875032 102:0.11383892774638389 103:0.14404185663205138 105:0.08166595034446891 107:0.20484913921647832 114:0.20031170376757643 115:0.5103942398818995 116:0.20026824723135542 117:0.25229752992023907 121:0.20484913921647832 123:0.12459580484698568 125:0.21044507909418092 132:0.20026824723135542 144:0.3754285280485077 152:0.36282005142653856 154:0.1470606197695243 155:0.27998915871315516 157:0.11628905542252005 158:0.4374008762381487 161:0.1506613084122949 162:0.1422247225908189 168:0.17719745370691323 169:0.21743579533768412 171:0.40053649446271083 178:0.15523436862902038 181:0.09845060348581947 182:0.149696472891978 204:0.10425631620862481 213:0.24919160969397136 227:0.032963130907345276 228:0.1422247225908189 242:0.0600134486629123 244:0.14177130596001475 245:0.058468277314044886 249:0.12694655359786722 257:0.05191478001411357 261:0.10862967273815975 263:0.10701486964673723 292:0.04611553005770729 305:0.10773643393356118 327:0.1556590649169424 328:0.14358777454673383 469:0.4017539194990598 477:0.10632847947001106 487:0.08775676743884638 499:0.10193072121075583 520:0.15397647605777157 544:0.3141667750705123 624:0.08195105471604106 654:0.11955963895458908 660:0.09370280818299373 662:0.11692378583213539 689:0.152648972592821 699:0.11504673488147413 747:0.1659874924329089 765:0.10522253954709046 770:0.08054386843334402 803:0.05649056452740264 811:0.1389209875048223 977:0.1470606197695243 1003:0.1701314132939665 1107:0.4575074866503998 1112:0.14823896454247176 1119:0.2209329158747263 1130:0.3244087781710674 1159:0.14338421159439113 1190:0.1659874924329089 1196:0.1028460868280529 1205:0.17719745370691323 1544:0.5361094614836748 1632:0.1923412230229226 1849:0.17471230527908937 1911:0.14338421159439113 1914:0.41994028153351165 1915:0.20997014076675583 1916:0.9959249545974534 1917:0.48021394940828954 1918:0.7203209241124343 1919:0.3208590395171321 1920:0.1659874924329089 1921:0.12236566161274434 1922:0.26413511029628955 1923:0.1389209875048223 1924:0.9604278988165791 1925:0.18886110529798625 1926:0.15550218561478332 1927:0.18886110529798625 1928:0.46081016233748867 1929:0.505229781795401 1930:0.1410953536167641 1931:0.505229781795401 1932:0.2891509426834009 1933:0.18886110529798625 1934:0.3922486527405956 1935:0.2702438086415337 1936:0.14835857468907565 1937:0.40969827843295664 1938:0.40969827843295664 1939:0.3922486527405956 1940:0.2526148908977005 1941:0.20026824723135542 1942:0.1923412230229226 1943:0.31100437122956665 1944:0.16042951975856606 1945:0.22247805696031156 1946:0.2526148908977005 1947:0.2702438086415337 1948:0.17983330682936693 1949:0.22247805696031156 1950:0.23040508116874434 1951:0.20484913921647832 1952:0.15872427136059733 1953:0.14835857468907565 1954:0.2526148908977005 1955:0.21577585348956116 1956:0.18886110529798625 1957:0.2571748748464168 1958:0.2526148908977005 1959:0.20997014076675583 1960:0.23040508116874434 1961:0.15107685107956845 1962:0.30795295211554313 1963:0.18886110529798625 1964:0.20026824723135542 1965:0.20026824723135542 1966:0.18886110529798625 1967:0.23040508116874434 1968:0.20997014076675583 1969:0.2526148908977005 1970:0.2526148908977005 1971:0.17471230527908937 1972:0.1622043890855337 1973:0.16042951975856606 1974:0.20484913921647832 1975:0.22247805696031156 1976:0.21577585348956116 1977:0.13999457935657758 1978:0.21577585348956116 -1:1.0 
0.015126694189782025 0:-4.341314476476301E-5 6:0.14776248925859128 8:0.22289383224686132 27:0.0341853030348189 33:0.018948913208404968 34:0.0594561406155128 40:0.006550446734238686 44:0.04715515926815503 47:0.08223804097827374 49:0.03400726142634309 70:0.0032989816828862756 76:0.06685828061643176 161:0.07533065420614744 180:0.1378732678709501 183:0.13298292076544183 245:0.029234138657022443 252:0.08743108605931779 256:0.03663681257441186 257:0.05191478001411357 261:0.054314836369079876 263:0.053507434823368616 278:0.15397647605777157 283:0.11692378583213539 292:0.023057765028853646 295:0.1961243263702978 328:0.07179388727336691 339:0.07657653489138119 342:0.1025715940119628 358:0.1366275390968611 365:0.3777222105959725 371:0.5207217113684788 471:0.04931318407699184 477:0.03544282649000369 482:0.23040508116874434 517:0.149696472891978 518:0.18886110529798625 720:0.20484913921647832 961:0.15250249555013326 1119:0.07364430529157544 1172:0.14835857468907565 1173:0.14776248925859128 1187:0.0968097196604783 1459:0.13487357780630002 1516:0.24010697470414477 1541:0.08808490681429781 1544:0.10722189229673496 1733:0.17236155652820784 1753:0.11888554388780798 1771:0.22247805696031156 1814:0.1826393294875222 1882:0.1047367438689111 1932:0.14457547134170046 1977:0.13999457935657758 1979:0.3922486527405956 1980:0.10425631620862481 1981:0.22247805696031156 1982:0.24010697470414477 1983:0.2702438086415337 1984:0.22247805696031156 1985:0.2702438086415337 1986:0.20997014076675583 1987:0.20026824723135542 1988:0.24010697470414477 1989:0.21577585348956116 1990:0.2526148908977005 1991:0.2702438086415337 1992:0.2702438086415337 1993:0.168010101808339 1994:0.2702438086415337 1995:0.24010697470414477 1996:0.2526148908977005 1997:0.2702438086415337 1998:0.20997014076675583 1999:0.1961243263702978 2000:0.1826393294875222 2001:0.2702438086415337 2002:0.2702438086415337 2003:0.18563901955217224 2004:0.2702438086415337 2005:0.2702438086415337 2006:0.24010697470414477 2007:0.2526148908977005 2008:0.2702438086415337 2009:0.1961243263702978 2010:0.2702438086415337 2011:0.20997014076675583 2012:0.2702438086415337 2013:0.2702438086415337 2014:0.2702438086415337 2015:0.48021394940828954 2016:0.24010697470414477 2017:0.2702438086415337 2018:0.20026824723135542 2019:0.2702438086415337 2020:0.2526148908977005 2021:0.2526148908977005 2022:0.2702438086415337 2023:0.16042951975856606 2024:0.24010697470414477 2025:0.24010697470414477 2026:0.24010697470414477 2027:0.23040508116874434 2028:0.15550218561478332 2029:0.2526148908977005 2030:0.2526148908977005 2031:0.2702438086415337 2032:0.17719745370691323 2033:0.1961243263702978 2034:0.41994028153351165 2035:0.24010697470414477 2036:0.2702438086415337 2037:0.2702438086415337 2038:0.2702438086415337 2039:0.4315517069791223 2040:0.21577585348956116 2041:0.2702438086415337 2042:0.2526148908977005 2043:0.2526148908977005 2044:0.2702438086415337 2045:0.23040508116874434 2046:0.2526148908977005 2047:0.2702438086415337 2048:0.18886110529798625 2049:0.168010101808339 2050:0.2526148908977005 2051:0.22247805696031156 2052:0.2702438086415337 2053:0.14457547134170046 2054:0.2526148908977005 2055:0.2702438086415337 2056:0.1622043890855337 2057:0.23040508116874434 2058:0.24010697470414477 2059:0.2702438086415337 2060:0.24010697470414477 2061:0.20997014076675583 2062:0.24010697470414477 2063:0.2702438086415337 2064:0.17983330682936693 2065:0.23040508116874434 2066:0.2526148908977005 2067:0.2702438086415337 2068:0.17471230527908937 2069:0.2702438086415337 2070:0.2702438086415337 2071:0.2702438086415337 2072:0.2702438086415337 2073:0.2702438086415337 2074:0.2702438086415337 2075:0.2702438086415337 2076:0.24010697470414477 2077:0.2702438086415337 2078:0.2702438086415337 2079:0.22247805696031156 2080:0.2702438086415337 2081:0.2702438086415337 2082:0.24010697470414477 2083:0.2702438086415337 2084:0.20997014076675583 2085:0.2702438086415337 2086:0.2526148908977005 2087:0.2702438086415337 2088:0.2526148908977005 2089:0.13685020276615903 2090:0.20026824723135542 2091:0.24010697470414477 2092:0.2526148908977005 2093:0.2702438086415337 -1:1.0 
0.05827857978293177 0:-2.496255823973873E-4 6:0.42481715661844993 16:0.11895367164401029 21:0.08168241010559858 23:0.26848601056315385 34:0.3418728085391986 49:0.09777087660073638 61:0.10375023486588356 70:0.018969144676596085 76:0.1922175567722413 178:0.8925976196168671 244:0.20379625231752121 247:0.3838688430743056 254:0.36017365954502234 255:0.32299592041216235 257:0.14925499254057653 292:0.13258214891590847 327:0.4475198116362094 342:0.29489333278439306 420:0.6954050985675323 448:0.5887194719286699 487:0.5046014127733667 510:0.5835109502029595 514:0.3054448557438502 571:0.5520686033807011 575:0.922469738611755 921:0.5994738181995927 1229:0.6412373393653842 1381:0.8853647373321866 1434:0.4917780891764791 2094:1.5539018996888188 2095:0.922469738611755 2096:1.3806151045488324 2097:1.2792488275217915 -1:1.0 
0.08002278593624637 0:-4.53864695267977E-5 8:0.020263075658805575 10:0.16184755723981561 16:0.02162794029891096 21:0.014851347291927015 33:0.11886136467090389 34:0.12431738492334495 40:0.1506602748874898 41:0.12611161344927685 44:0.12324643899631428 45:0.18573951079639672 48:0.1928420942302886 49:0.07110609207326282 50:0.07320170058032655 55:0.05940538916770806 56:0.1626496738041829 61:0.13204575346567 70:0.0160950318468088 76:0.2446405268010344 83:0.03359745667380748 87:0.16612276493915978 98:0.232590695913053 137:0.14202568842713453 161:0.07875477485188143 178:0.04057261907349396 184:0.11839498573232049 188:0.11778484844449592 242:0.12548266538608935 245:0.03056296314143256 247:0.2791773404176768 252:0.09140522633474134 255:0.11745306196805905 256:0.11490636671065539 257:0.027137271371013915 261:0.08517553885151162 263:0.08390938642755533 292:0.04821169051487581 324:0.13713338550929974 327:0.08136723847931081 332:0.10249065587080443 336:0.25496759044284384 342:0.026808484798581188 346:0.10107794842184718 396:0.29155502111584847 398:0.03654370667728343 411:0.11372888782049853 412:0.08194587751884727 415:0.16772177065668273 427:0.13773883936025993 432:0.5308674059547175 438:0.28200838995862737 439:0.2093713493782352 444:0.4475172600686979 447:0.14414023459235695 448:0.1070399039870309 449:0.16097540678767028 458:0.08750673443667654 470:0.17786465935278317 472:0.056785116525254524 477:0.11116159217319338 481:0.12092088805753916 501:0.17753888379217816 504:0.06949351935339823 519:0.3034628259681405 522:0.13356649389832267 527:0.09073181334450767 532:0.08537803899649024 533:0.7699563021938284 537:0.1463579693273311 540:0.232590695913053 543:0.15114708367541413 577:0.15598162985681913 593:0.08005728647735307 617:0.13902759898205283 625:0.516824043428542 628:0.166606284951191 648:0.2558554742811927 701:0.1463579693273311 703:0.14750877878116248 770:0.16840990672426479 786:0.09978307148532002 803:0.11811663492093281 832:0.10163299749333246 839:0.20158244518964336 857:0.22970255860375807 870:0.3362868440215778 879:0.1579439806740943 920:0.10949750495386161 921:0.10899523967265322 958:0.13713338550929974 987:0.18800754804888362 1112:0.15497709929440232 1140:0.08194587751884727 1165:0.08781913804066574 1170:0.465181391826106 1191:0.12092088805753916 1216:0.14990167575777255 1265:0.16957542385417945 1282:0.1579439806740943 1293:0.14100419497931369 1307:0.1909411171915005 1331:1.0380827118322498 1345:0.21416046372631825 1353:0.1344917409418891 1365:0.1486894827085834 1434:0.08941419803208711 1462:0.24087803940368727 1464:0.21416046372631825 1541:0.09208876621494773 1548:0.1486894827085834 1572:0.13713338550929974 1648:0.14750877878116248 1698:0.41007813695607725 1748:0.20108400588760095 1790:0.10336480868570841 1850:0.13902759898205283 1923:0.1452355778459506 1926:0.16257046677909168 2098:0.33187802193579446 2099:0.9410262465971161 2100:0.232590695913053 2101:0.2510209280997877 2102:0.2825276181252398 2103:0.7226341182110617 2104:0.7922921578155151 2105:0.1909411171915005 2106:1.4655994456476464 2107:0.8475828543757192 2108:0.24087803940368727 2109:0.48175607880737453 2110:0.16593901096789723 2111:0.16422354151413146 2112:0.3470647569051732 2113:0.11718279268313134 2114:0.2510209280997877 2115:0.11263354456690487 2116:0.21951423807433565 2117:0.20503906847803863 2118:0.1974457009933493 2119:0.2825276181252398 2120:0.26409738593850507 2121:0.24087803940368727 2122:0.5728233515745015 2123:1.1115113005251829 2124:0.5020418561995754 2125:0.24087803940368727 2126:0.6281140481347056 2127:0.18525188342086382 2128:0.1735323784525866 2129:0.1100053822537764 2130:0.16422354151413146 2131:0.7306150948034648 2132:0.2825276181252398 2133:0.18800754804888362 2134:0.41007813695607725 2135:0.21951423807433565 2136:0.21416046372631825 2137:0.16422354151413146 2138:0.2825276181252398 2139:0.20108400588760095 2140:0.2825276181252398 2141:0.2093713493782352 2142:0.2825276181252398 2143:0.18019617273403546 2144:0.21416046372631825 2145:0.22558384682999577 2146:0.2825276181252398 2147:0.17151184379027595 2148:0.2825276181252398 2149:0.2510209280997877 2150:0.18800754804888362 2151:0.2825276181252398 2152:0.232590695913053 2153:0.2825276181252398 2154:0.1826537737008662 2155:0.24087803940368727 2156:0.21951423807433565 -1:1.0 
0.015012998517817256 0:-9.985023295895493E-4 5:4.343805421853684 16:0.47581468657604115 70:0.025292192902128113 519:1.1126970285498485 2183:4.829313237635384 2184:5.116995310087166 -1:1.0 
0.2629526572280664 0:-1.9201967876722102E-5 8:0.22289383224686132 9:0.03443771090189357 10:0.017118491631134346 13:0.08002974981070629 16:0.027450847302463915 17:0.10061358492644461 19:0.052295334400769264 21:0.04398283621070693 26:0.039013536348091155 27:0.045361267488509695 30:0.0481831910959757 33:0.008381250072948352 36:0.022295419103980137 37:0.018127077695990933 45:0.003742004796264403 70:0.006323048225532028 250:0.0325734427251199 261:0.01201193496623882 263:0.011833375009014213 269:0.11644647987077693 272:0.04391888396213365 342:0.011342051260938195 445:0.03409531427432613 559:0.027624694339302806 634:0.09915467073188036 718:0.14512540628407966 1185:0.05143554374457618 1561:0.11682899109258961 1601:0.10018037254273272 1713:0.15908330988751693 1714:0.16706943930206478 1715:0.07004455554164757 1731:0.07020496617872575 1853:0.0996641025299581 1856:0.12581417767649364 1921:0.054123273405636926 2250:0.12196481388584049 2251:0.09287140841606509 2252:0.11173350943552138 2253:0.10190993974771385 2254:0.08078278035025022 2255:0.04354545923411246 2256:0.23906183072135676 -1:1.0 
0.30288551568836936 0:-9.789238525387739E-6 8:0.22289383224686132 9:0.03511296013526403 10:0.017454148329784036 13:0.11729850585000579 14:0.016767232824013677 16:0.01399454960517768 17:0.0170977333861932 21:0.03843878122616404 23:0.0315865894780181 26:0.07955701529806823 27:0.13104366163347242 30:0.01228198988720949 33:0.010681985387091036 34:0.013406776805458768 36:0.022732584184450334 37:0.018482510591990756 40:0.02215592277757203 41:0.018133696051530004 44:0.005316513054742969 45:0.007630754878656822 49:0.011502456070674868 56:0.004385162774132382 61:0.016274546645628794 69:0.02899520647778229 70:0.0034714774571548393 95:0.007411981221677611 114:0.022584162679677736 133:0.030412669505342164 164:0.019146350212881958 178:0.008750957055067324 202:0.018351001734329325 227:0.014865725703312575 242:0.006766222153171485 247:0.020071573494081337 256:0.008261242051092871 257:0.0117062739247511 268:0.03207363177944066 270:0.016876166406612405 271:0.048854678399187244 327:0.008774898267376655 341:0.026807524602152782 342:0.011564444422917375 356:0.12088742758945609 371:0.03913921359959154 398:0.007881975950002309 412:0.017674601033476862 453:0.03063299162153882 472:0.01224777023093725 492:0.016500079466686465 502:0.03579076707150724 503:0.04734620821211161 522:0.028808459468265674 533:0.027678167725921934 548:0.02580479078724672 555:0.022486610416411385 559:0.028166355012622466 572:0.023726651074343928 577:0.06728619327156903 581:0.03128527059359673 593:0.017267257867664386 660:0.021129064590282902 689:0.017210423380563153 702:0.027270788179118915 709:0.12343351622045717 719:0.03233173398697055 770:0.018161852685950122 859:0.0230870381148498 936:0.11228565664579132 955:0.08917748200335628 957:0.03506421832490212 972:0.024650055143556684 984:0.024062818461389343 1110:0.053919052861873505 1119:0.016606068840257206 1153:0.013960371037495742 1187:0.021829642668539224 1226:0.03438781762404966 1348:0.016395223691032072 1353:0.014504011278046862 1543:0.03506421832490212 1549:0.08674212018680824 1571:0.033453404096556276 1584:0.027757032700093148 1620:0.042586327665232196 1663:0.04337106009340412 1689:0.02826865773117717 1693:0.05875944654680538 1694:0.05016662068712908 1715:0.03570898909966346 1731:0.03579076707150724 1808:0.037884630799919584 1814:0.16473351287109847 1852:0.04337106009340412 2115:0.024293509612469677 2188:0.026365167393520725 2197:0.02998634487848198 2218:0.08110129523677333 2219:0.07991257716194126 2249:0.02580479078724672 2257:0.23973773148582378 2258:0.03742855221526377 2259:0.045158526336482104 2260:0.05195408693020706 2261:0.04734620821211161 2262:0.054141768805836564 2263:0.03836296574275715 2264:0.05696218128085403 2265:0.11392436256170806 2266:0.11392436256170806 2267:0.04734620821211161 2268:0.05016662068712908 2269:0.04337106009340412 2270:0.04734620821211161 2271:0.06093732939956152 2272:0.03699275062143206 2273:0.03939591197469663 2274:0.03472018577773281 2275:0.05016662068712908 2276:0.04619147256842158 2277:0.05016662068712908 2278:0.06093732939956152 2279:0.05016662068712908 2280:0.04734620821211161 2281:0.06093732939956152 2282:0.03742855221526377 2283:0.06093732939956152 2284:0.06093732939956152 2285:0.05696218128085403 2286:0.06093732939956152 2287:0.04619147256842158 2288:0.06093732939956152 2289:0.06093732939956152 2290:0.06093732939956152 2291:0.06093732939956152 2292:0.03699275062143206 2293:0.054141768805836564 -1:1.0 
0.01052666348339062 0:-3.220975256740481E-5 2:0.07304399613464026 3:0.07273530416637733 10:0.02871488918770922 13:0.016780431411922286 15:0.8158201739734271 16:0.0613954434291666 23:0.06928671240339454 27:0.02536328934841402 33:0.1405887109010691 40:0.05346009754072219 41:0.11933141917781034 44:0.10495825772589346 45:0.17575351559228936 47:0.061015320725816 49:0.1892339547111027 50:0.05194959396023174 55:0.04215866328030894 56:0.07214300047766177 57:0.1257370629803478 61:0.10709701663575076 63:0.13233786137001236 70:0.025292192902128113 74:0.05655443389682997 76:0.07440679616989986 83:0.16690349444407587 90:0.06659895783408482 95:0.17071466426702625 96:0.232054381238552 103:0.1068697645979736 106:0.038336871055090614 108:0.23309147827812204 114:0.22292754128972217 151:0.08031981198447169 153:0.14992176133191282 161:0.05589048537875456 169:0.10754888801648892 175:0.11314701282751824 180:0.6137584182642295 181:0.07304399613464026 185:0.07304399613464026 188:0.08358924728319066 196:0.2201449817966929 204:0.30940584165140267 233:0.4154677838969399 234:0.0629976684423858 242:0.24489358889865825 244:0.28925919683777207 245:0.10844922405024456 249:0.09418615266938536 250:0.05463932328084629 252:0.06486822514078416 255:0.04167689295640804 256:0.027182151264886222 257:0.0577761261447393 261:0.08059620880573143 263:0.07939812909274052 292:0.11975161837565926 316:0.09540358260431592 327:0.05774449182402702 328:0.10653286498628639 330:0.11325568934306074 336:0.10856684496275931 339:0.05681484846779895 342:0.1902537630867052 346:0.071732737589698 358:0.0506844096649646 362:0.2127636688174836 398:0.10373697379357877 399:0.10006749321112583 405:0.0998362976519868 408:0.08071082361454733 411:0.242132470843642 412:0.40708597219040255 425:0.14926676962455682 432:0.09418615266938536 458:0.062101553471189806 468:0.1754258088573416 469:0.09935849622019759 472:0.08059822990681287 477:0.1314814531080782 487:0.06510985971269247 488:0.10817441025244538 492:0.1085811681033561 493:0.20614082016844598 495:0.20458613942140982 498:0.36103557570651046 504:0.1972719259064208 533:0.09107010025948507 577:0.05534832027177452 593:0.05681484846779895 624:0.12160479086896414 625:0.07335567068018016 628:0.039412239450819384 629:0.1337079272492737 649:0.23821416081138758 653:0.09602997247067402 676:0.07367038600099837 689:0.05662784467153037 695:0.5336988460742502 714:0.10325723109122684 736:0.11951670799786532 752:0.08870553857921125 771:0.1190283533692587 785:0.07843283757538755 793:0.12171808268987325 796:0.11776316907399156 811:0.10307041008422299 817:0.08071082361454733 848:0.0780683357930026 854:0.45258805131007296 879:0.11208927660742174 894:0.1707145098241229 899:0.13773217579677294 912:0.10910949208706643 921:0.232054381238552 1020:0.13342471151856256 1023:0.11654573913906102 1034:0.10006749321112583 1049:0.10229306971070491 1053:0.18718848994082254 1111:0.16981217163220422 1112:0.05499187394317501 1158:0.3115685959764764 1163:0.04086605510893893 1189:0.2434361653797465 1193:0.0877129044286708 1212:0.1153725893270973 1217:0.13550659929719389 1249:0.09078742635784258 1265:0.06017192459341851 1300:0.10552156837383338 1306:0.08031981198447169 1331:0.14734077200199674 1348:0.05394557472533133 1353:0.04772287581808968 1368:0.13146907855674206 1378:0.07955172654273884 1434:0.06345523731309408 1453:0.0877129044286708 1459:0.10006749321112583 1481:0.13550659929719389 1571:0.11007249089834645 1588:0.09244204875744098 1611:0.10229306971070491 1638:0.14858611891358628 1677:0.12962525875545342 1712:0.13773217579677294 1795:0.2854095567436916 1810:0.07335567068018016 1849:0.12962525875545342 1852:0.1427047783718458 1882:0.07770790674145017 1911:0.2127636688174836 1977:0.20773389194846995 2089:0.10153402140715026 2115:0.07993348324102925 2164:0.08232406298792351 2225:0.11776316907399156 2232:0.12622653244391063 2276:0.15198484522512906 2294:0.3201835245328972 2295:0.2802455110873345 2296:0.25925051751090683 2297:0.16506436484152148 2298:0.10307041008422299 2299:0.20050347092758952 2300:0.13146907855674206 2301:0.3039696904502581 2302:0.34189141076652385 2303:0.1427047783718458 2304:0.12788115484350904 2305:0.37484790262239426 2306:0.15198484522512906 2307:0.17814388445791385 2308:0.2802455110873345 2309:0.18742395131119713 2310:0.2754643515935459 2311:0.19080716520863183 2312:0.18742395131119713 2313:0.17094570538326193 2314:0.40100694185517904 2315:0.16506436484152148 2316:0.34189141076652385 2317:0.14858611891358628 2318:0.34189141076652385 2319:0.20050347092758952 2320:0.1946409342712641 2321:0.10817441025244538 2322:0.12034519190217016 2323:0.18742395131119713 2324:0.10229306971070491 2325:0.1427047783718458 2326:0.1557842979882382 2327:0.09935849622019759 2328:0.20050347092758952 2329:0.17814388445791385 2330:0.14551159698441452 2331:0.15198484522512906 2332:0.1557842979882382 2333:0.20050347092758952 2334:0.14012275554366724 2335:0.3201835245328972 2336:0.15198484522512906 2337:0.20050347092758952 2338:0.16506436484152148 2339:0.10726567228577776 2340:0.12962525875545342 2341:0.17094570538326193 2342:0.12622653244391063 2343:0.16506436484152148 2344:0.18742395131119713 2345:0.17814388445791385 2346:0.3039696904502581 2347:0.11007249089834645 2348:0.15198484522512906 2349:0.20050347092758952 2350:0.13550659929719389 2351:0.13773217579677294 2352:0.18742395131119713 2353:0.1427047783718458 2354:0.1557842979882382 2355:0.1190283533692587 2356:0.12788115484350904 2357:0.11654573913906102 2358:0.16506436484152148 2359:0.18742395131119713 2360:0.10229306971070491 -1:1.0 
0.3524870448150594 0:-1.9201967876722102E-5 8:0.22289383224686132 9:0.03443771090189357 10:0.017118491631134346 13:0.08002974981070629 16:0.018300564868309277 19:0.052295334400769264 21:0.04398283621070693 23:0.04130554008663906 26:0.039013536348091155 27:0.045361267488509695 33:0.004190625036474176 36:0.022295419103980137 37:0.018127077695990933 61:0.007980787297375658 70:0.001459164975122776 250:0.0325734427251199 261:0.01201193496623882 263:0.011833375009014213 269:0.07763098658051795 274:0.0452861132252823 296:0.049325949181952634 297:0.06745302687794356 445:0.03409531427432613 501:0.07511260468130615 559:0.027624694339302806 718:0.14512540628407966 955:0.08746253042636866 1061:0.12289164279272742 1563:0.19087863962538104 1601:0.10018037254273272 1617:0.047200143905032944 1713:0.15908330988751693 1714:0.16706943930206478 1715:0.07004455554164757 1853:0.0996641025299581 1856:0.12581417767649364 1988:0.10620116188837173 2253:0.10190993974771385 2255:0.04354545923411246 2361:0.11953091536067838 2362:0.07174424901860145 -1:1.0 
