svm_type nu_svc
kernel_type linear
nr_class 2
total_sv 658
rho 0.290531130519091
label 1 -1
nr_sv 278 380
SV
1.050065620858307E-4 0:1.0 1:1.0 2:1.0 3:1.0 4:1.0 5:1.0 6:1.0 38:1.0 48:1.0 176:1.0 177:1.0 197:1.0 230:1.0 231:1.0 232:1.0 233:1.0 234:1.0 259:1.0 260:1.0 270:1.0 291:1.0 333:1.0 367:1.0 375:1.0 378:1.0 421:1.0 422:1.0 423:1.0 429:1.0 433:1.0 509:1.0 551:1.0 552:1.0 555:1.0 579:1.0 580:1.0 581:1.0 670:1.0 671:1.0 757:1.0 822:1.0 823:1.0 857:1.0 863:1.0 887:1.0 930:1.0 1003:1.0 1040:1.0 1145:1.0 1161:1.0 1163:1.0 1173:1.0 1174:1.0 1215:1.0 1218:1.0 1438:1.0 1449:1.0 1521:1.0 1524:1.0 1552:1.0 1553:1.0 1562:1.0 1563:1.0 1564:1.0 1582:1.0 1583:1.0 1584:1.0 1585:1.0 1586:1.0 1587:1.0 1595:1.0 1596:1.0 1628:1.0 1629:1.0 1659:1.0 1660:1.0 1720:1.0 1748:1.0 1814:1.0 1816:1.0 1817:1.0 1819:1.0 1882:1.0 1901:1.0 2019:1.0 2076:1.0 2083:1.0 2084:1.0 2085:1.0 2141:1.0 2142:1.0 2143:1.0 2144:1.0 2145:1.0 2146:1.0 2147:1.0 2148:1.0 2189:1.0 2311:1.0 2325:1.0 2489:1.0 2490:1.0 2540:1.0 2765:1.0 2836:1.0 2859:1.0 2866:1.0 2969:1.0 2970:1.0 2971:1.0 2972:1.0 2973:1.0 2974:1.0 2975:1.0 2976:1.0 2977:1.0 2978:1.0 2979:1.0 2980:1.0 2981:1.0 2982:1.0 2983:1.0 2984:1.0 2985:1.0 2986:1.0 2987:1.0 2988:1.0 2989:1.0 2990:1.0 2991:1.0 2992:1.0 2993:1.0 2994:1.0 2995:1.0 2996:1.0 2997:1.0 2998:1.0 2999:1.0 3000:1.0 3001:1.0 3002:1.0 3003:1.0 3004:1.0 3005:1.0 3006:1.0 3007:1.0 3008:1.0 3009:1.0 3010:1.0 3011:1.0 3012:1.0 3013:1.0 3014:1.0 3015:1.0 3016:1.0 3017:1.0 3018:1.0 3019:1.0 3020:1.0 3021:1.0 3022:1.0 3023:1.0 3024:1.0 3025:1.0 3026:1.0 3027:1.0 3028:1.0 3029:1.0 3030:1.0 3031:1.0 3032:1.0 3033:1.0 3034:1.0 3035:1.0 3036:1.0 3037:1.0 3038:1.0 3039:1.0 3040:1.0 3041:1.0 3042:1.0 3043:1.0 3044:1.0 3045:1.0 3046:1.0 3047:1.0 3048:1.0 3049:1.0 3050:1.0 3051:1.0 3052:1.0 3053:1.0 3054:1.0 3055:1.0 3056:1.0 3057:1.0 3058:1.0 3059:1.0 3060:1.0 3061:1.0 3062:1.0 3063:1.0 3064:1.0 3065:1.0 3066:1.0 3067:1.0 3068:1.0 -1:1.0 
9.621631941108815E-4 0:1.0 1:1.0 2:1.0 3:1.0 4:1.0 5:1.0 15:1.0 16:1.0 17:1.0 35:1.0 36:1.0 37:1.0 38:1.0 48:1.0 74:1.0 80:1.0 81:1.0 82:1.0 83:1.0 84:1.0 85:1.0 86:1.0 92:1.0 102:1.0 103:1.0 113:1.0 114:1.0 128:1.0 145:1.0 153:1.0 154:1.0 156:1.0 167:1.0 168:1.0 172:1.0 184:1.0 185:1.0 186:1.0 187:1.0 197:1.0 221:1.0 222:1.0 223:1.0 224:1.0 227:1.0 232:1.0 233:1.0 234:1.0 259:1.0 260:1.0 261:1.0 269:1.0 270:1.0 297:1.0 298:1.0 299:1.0 330:1.0 348:1.0 349:1.0 350:1.0 378:1.0 394:1.0 405:1.0 422:1.0 492:1.0 493:1.0 494:1.0 495:1.0 506:1.0 507:1.0 508:1.0 531:1.0 532:1.0 533:1.0 551:1.0 552:1.0 585:1.0 633:1.0 634:1.0 656:1.0 679:1.0 686:1.0 696:1.0 703:1.0 707:1.0 743:1.0 806:1.0 807:1.0 808:1.0 832:1.0 906:1.0 907:1.0 1002:1.0 1006:1.0 1016:1.0 1017:1.0 1034:1.0 1035:1.0 1048:1.0 1129:1.0 1201:1.0 1261:1.0 1262:1.0 1309:1.0 1353:1.0 1354:1.0 1359:1.0 1362:1.0 1363:1.0 1454:1.0 1468:1.0 1469:1.0 1470:1.0 1471:1.0 1484:1.0 1485:1.0 1486:1.0 1487:1.0 1488:1.0 1506:1.0 1507:1.0 1552:1.0 1553:1.0 1554:1.0 1561:1.0 1562:1.0 1563:1.0 1564:1.0 1575:1.0 1581:1.0 1622:1.0 1623:1.0 1624:1.0 1632:1.0 1633:1.0 1634:1.0 1635:1.0 1670:1.0 1671:1.0 1678:1.0 1679:1.0 1687:1.0 1699:1.0 1714:1.0 1715:1.0 1716:1.0 1718:1.0 1794:1.0 1907:1.0 1940:1.0 1990:1.0 2057:1.0 2165:1.0 2298:1.0 2414:1.0 2517:1.0 2518:1.0 2581:1.0 2595:1.0 2596:1.0 2597:1.0 2598:1.0 2615:1.0 2616:1.0 2635:1.0 2647:1.0 2661:1.0 2711:1.0 2715:1.0 2728:1.0 2759:1.0 2783:1.0 2831:1.0 2832:1.0 2833:1.0 2834:1.0 2835:1.0 2847:1.0 2849:1.0 2870:1.0 2943:1.0 2946:1.0 2947:1.0 2948:1.0 2949:1.0 2950:1.0 2958:1.0 2959:1.0 2960:1.0 2961:1.0 2964:1.0 2965:1.0 2966:1.0 3025:1.0 3030:1.0 3032:1.0 3047:1.0 3067:1.0 3069:1.0 3070:1.0 3071:1.0 3072:1.0 3073:1.0 3074:1.0 3075:1.0 3076:1.0 3077:1.0 3078:1.0 3079:1.0 3080:1.0 3081:1.0 3082:1.0 3083:1.0 3084:1.0 3085:1.0 3086:1.0 3087:1.0 3088:1.0 3089:1.0 3090:1.0 3091:1.0 3092:1.0 3093:1.0 3094:1.0 3095:1.0 3096:1.0 3097:1.0 3098:1.0 3099:1.0 3100:1.0 3101:1.0 3102:1.0 3103:1.0 3104:1.0 3105:1.0 3106:1.0 3107:1.0 3108:1.0 3109:1.0 3110:1.0 3111:1.0 3112:1.0 3113:1.0 3114:1.0 3115:1.0 3116:1.0 3117:1.0 3118:1.0 3119:1.0 3120:1.0 3121:1.0 3122:1.0 3123:1.0 3124:1.0 3125:1.0 3126:1.0 3127:1.0 3128:1.0 3129:1.0 3130:1.0 3131:1.0 3132:1.0 3133:1.0 3134:1.0 3135:1.0 3136:1.0 3137:1.0 3138:1.0 3139:1.0 3140:1.0 3141:1.0 3142:1.0 3143:1.0 3144:1.0 3145:1.0 3146:1.0 3147:1.0 3148:1.0 3149:1.0 3150:1.0 3151:1.0 3152:1.0 3153:1.0 3154:1.0 3155:1.0 3156:1.0 3157:1.0 3158:1.0 3159:1.0 3160:1.0 3161:1.0 3162:1.0 3163:1.0 3164:1.0 3165:1.0 3166:1.0 3167:1.0 3168:1.0 3169:1.0 3170:1.0 3171:1.0 3172:1.0 3173:1.0 3174:1.0 3175:1.0 3176:1.0 3177:1.0 3178:1.0 3179:1.0 3180:1.0 3181:1.0 3182:1.0 3183:1.0 3184:1.0 3185:1.0 3186:1.0 3187:1.0 3188:1.0 3189:1.0 3190:1.0 3191:1.0 3192:1.0 3193:1.0 3194:1.0 3195:1.0 3196:1.0 3197:1.0 3198:1.0 3199:1.0 3200:1.0 3201:1.0 3202:1.0 3203:1.0 3204:1.0 3205:1.0 3206:1.0 3207:1.0 3208:1.0 3209:1.0 3210:1.0 3211:1.0 3212:1.0 3213:1.0 3214:1.0 3215:1.0 3216:1.0 3217:1.0 3218:1.0 3219:1.0 3220:1.0 3221:1.0 3222:1.0 3223:1.0 3224:1.0 3225:1.0 3226:1.0 3227:1.0 3228:1.0 3229:1.0 3230:1.0 3231:1.0 3232:1.0 3233:1.0 3234:1.0 3235:1.0 3236:1.0 3237:1.0 3238:1.0 3239:1.0 3240:1.0 3241:1.0 3242:1.0 3243:1.0 3244:1.0 3245:1.0 3246:1.0 3247:1.0 3248:1.0 3249:1.0 3250:1.0 3251:1.0 3252:1.0 3253:1.0 3254:1.0 3255:1.0 3256:1.0 3257:1.0 3258:1.0 3259:1.0 3260:1.0 3261:1.0 3262:1.0 3263:1.0 3264:1.0 3265:1.0 3266:1.0 3267:1.0 3268:1.0 3269:1.0 3270:1.0 3271:1.0 3272:1.0 3273:1.0 3274:1.0 3275:1.0 3276:1.0 3277:1.0 3278:1.0 3279:1.0 3280:1.0 3281:1.0 3282:1.0 3283:1.0 3284:1.0 3285:1.0 3286:1.0 3287:1.0 3288:1.0 3289:1.0 3290:1.0 3291:1.0 3292:1.0 3293:1.0 3294:1.0 3295:1.0 3296:1.0 3297:1.0 3298:1.0 3299:1.0 3300:1.0 3301:1.0 3302:1.0 3303:1.0 3304:1.0 3305:1.0 3306:1.0 3307:1.0 3308:1.0 3309:1.0 3310:1.0 3311:1.0 3312:1.0 3313:1.0 3314:1.0 -1:1.0 
0.0015208315698323769 0:1.0 1:1.0 2:1.0 3:1.0 4:1.0 5:1.0 55:1.0 141:1.0 197:1.0 208:1.0 223:1.0 233:1.0 288:1.0 309:1.0 314:1.0 384:1.0 492:1.0 506:1.0 507:1.0 508:1.0 527:1.0 585:1.0 586:1.0 587:1.0 595:1.0 596:1.0 597:1.0 778:1.0 906:1.0 907:1.0 928:1.0 929:1.0 1330:1.0 1331:1.0 1337:1.0 1438:1.0 1468:1.0 1469:1.0 1470:1.0 1471:1.0 1476:1.0 1535:1.0 1541:1.0 1542:1.0 1600:1.0 1632:1.0 1633:1.0 1634:1.0 1635:1.0 1636:1.0 1687:1.0 1819:1.0 1902:1.0 2102:1.0 2174:1.0 2211:1.0 2249:1.0 2250:1.0 2311:1.0 2318:1.0 2357:1.0 2358:1.0 2359:1.0 2430:1.0 2571:1.0 2615:1.0 2643:1.0 2685:1.0 2686:1.0 2693:1.0 2840:1.0 2940:1.0 3315:1.0 3320:1.0 3328:1.0 3422:1.0 3456:1.0 3457:1.0 3507:1.0 3678:1.0 3812:1.0 3813:1.0 3814:1.0 3856:1.0 3857:1.0 3858:1.0 3859:1.0 3860:1.0 3861:1.0 3862:1.0 3863:1.0 3864:1.0 3865:1.0 3866:1.0 3867:1.0 3868:1.0 3869:1.0 3870:1.0 3871:1.0 3872:1.0 3873:1.0 3874:1.0 3875:1.0 3876:1.0 3877:1.0 3878:1.0 3879:1.0 3880:1.0 3881:1.0 3882:1.0 3883:1.0 3884:1.0 3885:1.0 3886:1.0 3887:1.0 3888:1.0 3889:1.0 3890:1.0 3891:1.0 3892:1.0 3893:1.0 3894:1.0 3895:1.0 3896:1.0 3897:1.0 3898:1.0 3899:1.0 3900:1.0 3901:1.0 3902:1.0 3903:1.0 3904:1.0 3905:1.0 3906:1.0 3907:1.0 3908:1.0 3909:1.0 3910:1.0 3911:1.0 3912:1.0 3913:1.0 3914:1.0 3915:1.0 3916:1.0 3917:1.0 3918:1.0 3919:1.0 3920:1.0 3921:1.0 3922:1.0 3923:1.0 3924:1.0 3925:1.0 3926:1.0 3927:1.0 3928:1.0 3929:1.0 3930:1.0 3931:1.0 3932:1.0 3933:1.0 3934:1.0 3935:1.0 3936:1.0 3937:1.0 3938:1.0 3939:1.0 3940:1.0 3941:1.0 3942:1.0 3943:1.0 3944:1.0 3945:1.0 3946:1.0 3947:1.0 3948:1.0 3949:1.0 3950:1.0 3951:1.0 3952:1.0 3953:1.0 3954:1.0 3955:1.0 -1:1.0 
0.01042232220829007 0:1.0 1:1.0 2:1.0 3:1.0 4:1.0 5:1.0 55:1.0 65:1.0 260:1.0 270:1.0 294:1.0 309:1.0 436:1.0 437:1.0 438:1.0 447:1.0 513:1.0 637:1.0 638:1.0 650:1.0 724:1.0 924:1.0 955:1.0 1034:1.0 1120:1.0 1129:1.0 1155:1.0 1273:1.0 1410:1.0 1495:1.0 1496:1.0 1563:1.0 1564:1.0 1581:1.0 1602:1.0 1622:1.0 1623:1.0 1624:1.0 1720:1.0 1721:1.0 1776:1.0 1908:1.0 1917:1.0 2005:1.0 2077:1.0 2078:1.0 2098:1.0 2230:1.0 2351:1.0 2352:1.0 2569:1.0 2715:1.0 2895:1.0 2896:1.0 3069:1.0 3070:1.0 3071:1.0 3072:1.0 3073:1.0 3375:1.0 3487:1.0 3655:1.0 3978:1.0 4489:1.0 4561:1.0 4589:1.0 4613:1.0 4715:1.0 5424:1.0 5735:1.0 5753:1.0 5754:1.0 5902:1.0 5910:1.0 6220:1.0 6232:1.0 6252:1.0 6334:1.0 6335:1.0 6336:1.0 6337:1.0 6338:1.0 6339:1.0 6340:1.0 6341:1.0 6342:1.0 6343:1.0 6344:1.0 6345:1.0 6346:1.0 6347:1.0 6348:1.0 6349:1.0 6350:1.0 6351:1.0 6352:1.0 6353:1.0 6354:1.0 6355:1.0 6356:1.0 6357:1.0 6358:1.0 6359:1.0 6360:1.0 6361:1.0 6362:1.0 6363:1.0 6364:1.0 6365:1.0 6366:1.0 6367:1.0 6368:1.0 6369:1.0 6370:1.0 6371:1.0 6372:1.0 6373:1.0 6374:1.0 6375:1.0 6376:1.0 6377:1.0 6378:1.0 -1:1.0 
0.0020954764389609104 0:1.0 1:1.0 2:1.0 3:1.0 4:1.0 5:1.0 32:1.0 51:1.0 52:1.0 171:1.0 172:1.0 220:1.0 229:1.0 233:1.0 234:1.0 259:1.0 260:1.0 266:1.0 267:1.0 268:1.0 269:1.0 270:1.0 275:1.0 276:1.0 277:1.0 314:1.0 346:1.0 347:1.0 365:1.0 366:1.0 392:1.0 400:1.0 401:1.0 405:1.0 435:1.0 436:1.0 437:1.0 438:1.0 452:1.0 542:1.0 592:1.0 593:1.0 594:1.0 618:1.0 696:1.0 705:1.0 724:1.0 757:1.0 760:1.0 761:1.0 1005:1.0 1020:1.0 1021:1.0 1022:1.0 1029:1.0 1034:1.0 1035:1.0 1111:1.0 1126:1.0 1127:1.0 1132:1.0 1145:1.0 1171:1.0 1172:1.0 1173:1.0 1182:1.0 1333:1.0 1384:1.0 1396:1.0 1397:1.0 1461:1.0 1462:1.0 1463:1.0 1464:1.0 1537:1.0 1538:1.0 1554:1.0 1563:1.0 1564:1.0 1595:1.0 1596:1.0 1612:1.0 1613:1.0 1614:1.0 1731:1.0 1988:1.0 2076:1.0 2159:1.0 2164:1.0 2272:1.0 2332:1.0 2377:1.0 2378:1.0 2444:1.0 2445:1.0 2537:1.0 2540:1.0 2564:1.0 2612:1.0 2613:1.0 2644:1.0 2645:1.0 2646:1.0 2689:1.0 2690:1.0 2691:1.0 2728:1.0 2846:1.0 2878:1.0 2879:1.0 3038:1.0 3040:1.0 3047:1.0 3067:1.0 3071:1.0 3237:1.0 3238:1.0 3356:1.0 3374:1.0 3378:1.0 3379:1.0 3380:1.0 3473:1.0 3474:1.0 3488:1.0 3716:1.0 3794:1.0 4046:1.0 4047:1.0 4138:1.0 4395:1.0 4434:1.0 4549:1.0 4550:1.0 4567:1.0 4568:1.0 4710:1.0 4711:1.0 4783:1.0 4796:1.0 4874:1.0 4875:1.0 4882:1.0 4883:1.0 4886:1.0 4938:1.0 5014:1.0 5019:1.0 5035:1.0 5102:1.0 5231:1.0 5546:1.0 5721:1.0 5735:1.0 5804:1.0 5805:1.0 5850:1.0 6087:1.0 6088:1.0 6184:1.0 6202:1.0 6203:1.0 6241:1.0 6300:1.0 6379:1.0 6380:1.0 6381:1.0 6382:1.0 6383:1.0 6384:1.0 6385:1.0 6386:1.0 6387:1.0 6388:1.0 6389:1.0 6390:1.0 6391:1.0 6392:1.0 6393:1.0 6394:1.0 6395:1.0 6396:1.0 6397:1.0 6398:1.0 6399:1.0 6400:1.0 6401:1.0 6402:1.0 6403:1.0 6404:1.0 6405:1.0 6406:1.0 6407:1.0 6408:1.0 6409:1.0 6410:1.0 6411:1.0 6412:1.0 6413:1.0 6414:1.0 6415:1.0 6416:1.0 6417:1.0 6418:1.0 6419:1.0 6420:1.0 6421:1.0 6422:1.0 6423:1.0 6424:1.0 6425:1.0 6426:1.0 6427:1.0 6428:1.0 6429:1.0 6430:1.0 6431:1.0 6432:1.0 6433:1.0 6434:1.0 6435:1.0 6436:1.0 6437:1.0 6438:1.0 6439:1.0 6440:1.0 6441:1.0 6442:1.0 6443:1.0 6444:1.0 6445:1.0 6446:1.0 6447:1.0 6448:1.0 6449:1.0 6450:1.0 6451:1.0 -1:1.0 
3.3270060651927335E-4 0:1.0 1:1.0 2:1.0 3:1.0 4:1.0 5:1.0 15:1.0 26:1.0 27:1.0 28:1.0 29:1.0 34:1.0 35:1.0 36:1.0 37:1.0 38:1.0 46:1.0 47:1.0 48:1.0 55:1.0 59:1.0 60:1.0 62:1.0 63:1.0 64:1.0 65:1.0 67:1.0 68:1.0 72:1.0 73:1.0 74:1.0 82:1.0 89:1.0 90:1.0 91:1.0 92:1.0 105:1.0 107:1.0 123:1.0 125:1.0 138:1.0 147:1.0 153:1.0 154:1.0 155:1.0 156:1.0 157:1.0 158:1.0 159:1.0 160:1.0 161:1.0 162:1.0 163:1.0 164:1.0 171:1.0 172:1.0 174:1.0 175:1.0 177:1.0 185:1.0 197:1.0 198:1.0 199:1.0 204:1.0 207:1.0 208:1.0 209:1.0 210:1.0 211:1.0 212:1.0 213:1.0 214:1.0 215:1.0 216:1.0 220:1.0 221:1.0 222:1.0 227:1.0 229:1.0 230:1.0 231:1.0 232:1.0 233:1.0 234:1.0 235:1.0 236:1.0 237:1.0 238:1.0 239:1.0 243:1.0 244:1.0 246:1.0 247:1.0 248:1.0 249:1.0 250:1.0 254:1.0 255:1.0 256:1.0 258:1.0 259:1.0 260:1.0 261:1.0 262:1.0 263:1.0 264:1.0 265:1.0 266:1.0 267:1.0 268:1.0 269:1.0 270:1.0 271:1.0 272:1.0 273:1.0 274:1.0 277:1.0 278:1.0 279:1.0 280:1.0 284:1.0 285:1.0 286:1.0 287:1.0 288:1.0 289:1.0 291:1.0 294:1.0 295:1.0 297:1.0 298:1.0 299:1.0 300:1.0 301:1.0 302:1.0 308:1.0 309:1.0 310:1.0 312:1.0 313:1.0 314:1.0 315:1.0 317:1.0 320:1.0 321:1.0 326:1.0 327:1.0 328:1.0 329:1.0 330:1.0 333:1.0 340:1.0 342:1.0 343:1.0 344:1.0 345:1.0 348:1.0 349:1.0 350:1.0 351:1.0 352:1.0 357:1.0 358:1.0 362:1.0 364:1.0 365:1.0 366:1.0 367:1.0 368:1.0 369:1.0 370:1.0 371:1.0 372:1.0 374:1.0 377:1.0 378:1.0 379:1.0 380:1.0 381:1.0 382:1.0 383:1.0 384:1.0 385:1.0 386:1.0 387:1.0 393:1.0 394:1.0 395:1.0 398:1.0 400:1.0 401:1.0 405:1.0 406:1.0 408:1.0 413:1.0 415:1.0 416:1.0 417:1.0 418:1.0 419:1.0 420:1.0 421:1.0 422:1.0 423:1.0 424:1.0 425:1.0 426:1.0 427:1.0 431:1.0 432:1.0 433:1.0 436:1.0 437:1.0 438:1.0 445:1.0 446:1.0 447:1.0 448:1.0 451:1.0 452:1.0 455:1.0 456:1.0 457:1.0 458:1.0 459:1.0 460:1.0 461:1.0 462:1.0 471:1.0 472:1.0 476:1.0 478:1.0 479:1.0 481:1.0 482:1.0 483:1.0 491:1.0 492:1.0 493:1.0 494:1.0 495:1.0 496:1.0 497:1.0 498:1.0 499:1.0 500:1.0 501:1.0 502:1.0 503:1.0 505:1.0 506:1.0 507:1.0 508:1.0 509:1.0 510:1.0 511:1.0 512:1.0 513:1.0 522:1.0 523:1.0 524:1.0 525:1.0 526:1.0 528:1.0 530:1.0 531:1.0 532:1.0 533:1.0 535:1.0 539:1.0 540:1.0 541:1.0 542:1.0 543:1.0 544:1.0 547:1.0 552:1.0 559:1.0 560:1.0 561:1.0 564:1.0 579:1.0 580:1.0 581:1.0 583:1.0 584:1.0 585:1.0 586:1.0 587:1.0 588:1.0 589:1.0 590:1.0 591:1.0 592:1.0 593:1.0 594:1.0 595:1.0 596:1.0 597:1.0 599:1.0 600:1.0 601:1.0 602:1.0 606:1.0 609:1.0 610:1.0 611:1.0 615:1.0 617:1.0 621:1.0 622:1.0 631:1.0 632:1.0 633:1.0 634:1.0 635:1.0 637:1.0 638:1.0 641:1.0 642:1.0 643:1.0 644:1.0 645:1.0 646:1.0 647:1.0 648:1.0 650:1.0 656:1.0 657:1.0 658:1.0 662:1.0 668:1.0 675:1.0 676:1.0 677:1.0 678:1.0 679:1.0 680:1.0 686:1.0 691:1.0 695:1.0 696:1.0 702:1.0 703:1.0 705:1.0 707:1.0 708:1.0 709:1.0 710:1.0 711:1.0 713:1.0 720:1.0 725:1.0 730:1.0 734:1.0 735:1.0 736:1.0 737:1.0 738:1.0 739:1.0 740:1.0 741:1.0 742:1.0 748:1.0 750:1.0 756:1.0 757:1.0 758:1.0 759:1.0 760:1.0 767:1.0 769:1.0 770:1.0 772:1.0 773:1.0 774:1.0 775:1.0 776:1.0 778:1.0 780:1.0 781:1.0 783:1.0 785:1.0 786:1.0 788:1.0 789:1.0 790:1.0 791:1.0 792:1.0 793:1.0 794:1.0 795:1.0 797:1.0 798:1.0 812:1.0 813:1.0 817:1.0 819:1.0 822:1.0 823:1.0 824:1.0 825:1.0 826:1.0 827:1.0 828:1.0 829:1.0 830:1.0 832:1.0 833:1.0 834:1.0 836:1.0 837:1.0 840:1.0 841:1.0 842:1.0 843:1.0 850:1.0 851:1.0 855:1.0 856:1.0 857:1.0 860:1.0 861:1.0 862:1.0 870:1.0 873:1.0 876:1.0 877:1.0 880:1.0 883:1.0 890:1.0 891:1.0 897:1.0 898:1.0 904:1.0 905:1.0 906:1.0 907:1.0 910:1.0 917:1.0 924:1.0 936:1.0 937:1.0 938:1.0 941:1.0 942:1.0 943:1.0 947:1.0 949:1.0 961:1.0 962:1.0 963:1.0 964:1.0 968:1.0 972:1.0 973:1.0 974:1.0 977:1.0 979:1.0 981:1.0 983:1.0 984:1.0 988:1.0 992:1.0 993:1.0 997:1.0 1002:1.0 1003:1.0 1004:1.0 1005:1.0 1006:1.0 1008:1.0 1009:1.0 1010:1.0 1016:1.0 1017:1.0 1019:1.0 1020:1.0 1021:1.0 1022:1.0 1023:1.0 1024:1.0 1027:1.0 1028:1.0 1029:1.0 1030:1.0 1031:1.0 1034:1.0 1035:1.0 1042:1.0 1048:1.0 1054:1.0 1063:1.0 1064:1.0 1065:1.0 1066:1.0 1067:1.0 1068:1.0 1069:1.0 1070:1.0 1071:1.0 1074:1.0 1075:1.0 1076:1.0 1077:1.0 1078:1.0 1079:1.0 1082:1.0 1083:1.0 1084:1.0 1085:1.0 1086:1.0 1087:1.0 1088:1.0 1092:1.0 1093:1.0 1094:1.0 1117:1.0 1118:1.0 1119:1.0 1120:1.0 1123:1.0 1125:1.0 1128:1.0 1129:1.0 1130:1.0 1133:1.0 1134:1.0 1136:1.0 1137:1.0 1138:1.0 1144:1.0 1145:1.0 1149:1.0 1152:1.0 1154:1.0 1155:1.0 1161:1.0 1162:1.0 1163:1.0 1164:1.0 1165:1.0 1169:1.0 1170:1.0 1171:1.0 1172:1.0 1173:1.0 1174:1.0 1175:1.0 1176:1.0 1177:1.0 1178:1.0 1179:1.0 1180:1.0 1181:1.0 1182:1.0 1186:1.0 1189:1.0 1193:1.0 1195:1.0 1196:1.0 1199:1.0 1200:1.0 1201:1.0 1204:1.0 1209:1.0 1211:1.0 1212:1.0 1213:1.0 1214:1.0 1215:1.0 1216:1.0 1219:1.0 1220:1.0 1241:1.0 1248:1.0 1249:1.0 1250:1.0 1253:1.0 1259:1.0 1260:1.0 1261:1.0 1262:1.0 1267:1.0 1268:1.0 1271:1.0 1283:1.0 1290:1.0 1292:1.0 1293:1.0 1296:1.0 1297:1.0 1298:1.0 1299:1.0 1300:1.0 1301:1.0 1302:1.0 1303:1.0 1305:1.0 1306:1.0 1307:1.0 1309:1.0 1311:1.0 1319:1.0 1320:1.0 1321:1.0 1322:1.0 1329:1.0 1330:1.0 1331:1.0 1333:1.0 1334:1.0 1336:1.0 1338:1.0 1341:1.0 1342:1.0 1343:1.0 1344:1.0 1345:1.0 1348:1.0 1349:1.0 1353:1.0 1354:1.0 1356:1.0 1357:1.0 1358:1.0 1359:1.0 1362:1.0 1363:1.0 1365:1.0 1367:1.0 1368:1.0 1371:1.0 1372:1.0 1373:1.0 1374:1.0 1376:1.0 1378:1.0 1380:1.0 1381:1.0 1382:1.0 1383:1.0 1387:1.0 1388:1.0 1389:1.0 1391:1.0 1394:1.0 1396:1.0 1397:1.0 1398:1.0 1399:1.0 1400:1.0 1403:1.0 1404:1.0 1405:1.0 1406:1.0 1407:1.0 1413:1.0 1414:1.0 1418:1.0 1419:1.0 1420:1.0 1421:1.0 1422:1.0 1423:1.0 1424:1.0 1434:1.0 1438:1.0 1446:1.0 1447:1.0 1449:1.0 1450:1.0 1453:1.0 1454:1.0 1455:1.0 1456:1.0 1461:1.0 1462:1.0 1463:1.0 1464:1.0 1467:1.0 1469:1.0 1470:1.0 1471:1.0 1478:1.0 1482:1.0 1483:1.0 1484:1.0 1485:1.0 1486:1.0 1487:1.0 1488:1.0 1489:1.0 1492:1.0 1498:1.0 1499:1.0 1500:1.0 1501:1.0 1502:1.0 1511:1.0 1512:1.0 1521:1.0 1529:1.0 1535:1.0 1538:1.0 1541:1.0 1542:1.0 1543:1.0 1545:1.0 1550:1.0 1552:1.0 1553:1.0 1554:1.0 1556:1.0 1557:1.0 1558:1.0 1563:1.0 1564:1.0 1567:1.0 1568:1.0 1573:1.0 1574:1.0 1578:1.0 1579:1.0 1585:1.0 1586:1.0 1587:1.0 1591:1.0 1594:1.0 1595:1.0 1596:1.0 1599:1.0 1603:1.0 1605:1.0 1607:1.0 1608:1.0 1614:1.0 1617:1.0 1622:1.0 1623:1.0 1624:1.0 1626:1.0 1627:1.0 1628:1.0 1629:1.0 1630:1.0 1631:1.0 1632:1.0 1642:1.0 1653:1.0 1657:1.0 1659:1.0 1673:1.0 1687:1.0 1701:1.0 1709:1.0 1718:1.0 1720:1.0 1724:1.0 1726:1.0 1728:1.0 1731:1.0 1753:1.0 1764:1.0 1765:1.0 1766:1.0 1767:1.0 1769:1.0 1770:1.0 1779:1.0 1780:1.0 1787:1.0 1788:1.0 1795:1.0 1796:1.0 1810:1.0 1811:1.0 1814:1.0 1816:1.0 1817:1.0 1818:1.0 1819:1.0 1826:1.0 1837:1.0 1839:1.0 1867:1.0 1868:1.0 1872:1.0 1878:1.0 1882:1.0 1896:1.0 1898:1.0 1908:1.0 1919:1.0 1927:1.0 1929:1.0 1930:1.0 1931:1.0 1932:1.0 1947:1.0 1957:1.0 1958:1.0 1964:1.0 1967:1.0 1972:1.0 1973:1.0 1974:1.0 1988:1.0 1990:1.0 1991:1.0 1993:1.0 1994:1.0 1995:1.0 1996:1.0 1997:1.0 1998:1.0 1999:1.0 2000:1.0 2004:1.0 2005:1.0 2007:1.0 2008:1.0 2009:1.0 2013:1.0 2014:1.0 2019:1.0 2020:1.0 2021:1.0 2023:1.0 2024:1.0 2025:1.0 2026:1.0 2027:1.0 2036:1.0 2039:1.0 2040:1.0 2042:1.0 2043:1.0 2044:1.0 2047:1.0 2050:1.0 2051:1.0 2053:1.0 2054:1.0 2057:1.0 2068:1.0 2072:1.0 2079:1.0 2080:1.0 2082:1.0 2084:1.0 2089:1.0 2090:1.0 2100:1.0 2105:1.0 2106:1.0 2107:1.0 2108:1.0 2109:1.0 2111:1.0 2114:1.0 2116:1.0 2117:1.0 2118:1.0 2119:1.0 2120:1.0 2121:1.0 2124:1.0 2125:1.0 2129:1.0 2130:1.0 2133:1.0 2140:1.0 2141:1.0 2142:1.0 2143:1.0 2144:1.0 2145:1.0 2146:1.0 2147:1.0 2148:1.0 2154:1.0 2157:1.0 2158:1.0 2159:1.0 2168:1.0 2174:1.0 2184:1.0 2188:1.0 2189:1.0 2190:1.0 2191:1.0 2193:1.0 2218:1.0 2219:1.0 2229:1.0 2244:1.0 2266:1.0 2272:1.0 2273:1.0 2278:1.0 2288:1.0 2296:1.0 2305:1.0 2306:1.0 2309:1.0 2310:1.0 2311:1.0 2318:1.0 2320:1.0 2321:1.0 2327:1.0 2328:1.0 2330:1.0 2331:1.0 2348:1.0 2349:1.0 2350:1.0 2351:1.0 2352:1.0 2353:1.0 2354:1.0 2369:1.0 2371:1.0 2372:1.0 2373:1.0 2374:1.0 2375:1.0 2381:1.0 2382:1.0 2383:1.0 2391:1.0 2395:1.0 2396:1.0 2398:1.0 2399:1.0 2403:1.0 2404:1.0 2405:1.0 2406:1.0 2407:1.0 2408:1.0 2409:1.0 2410:1.0 2411:1.0 2416:1.0 2417:1.0 2418:1.0 2419:1.0 2420:1.0 2430:1.0 2435:1.0 2436:1.0 2437:1.0 2438:1.0 2440:1.0 2441:1.0 2442:1.0 2445:1.0 2446:1.0 2447:1.0 2454:1.0 2466:1.0 2467:1.0 2468:1.0 2479:1.0 2487:1.0 2489:1.0 2493:1.0 2496:1.0 2497:1.0 2498:1.0 2500:1.0 2502:1.0 2503:1.0 2504:1.0 2507:1.0 2508:1.0 2509:1.0 2510:1.0 2514:1.0 2515:1.0 2522:1.0 2523:1.0 2528:1.0 2532:1.0 2538:1.0 2541:1.0 2542:1.0 2543:1.0 2544:1.0 2550:1.0 2553:1.0 2555:1.0 2560:1.0 2561:1.0 2562:1.0 2564:1.0 2565:1.0 2566:1.0 2567:1.0 2569:1.0 2570:1.0 2572:1.0 2573:1.0 2574:1.0 2576:1.0 2582:1.0 2583:1.0 2584:1.0 2585:1.0 2586:1.0 2593:1.0 2594:1.0 2595:1.0 2596:1.0 2597:1.0 2600:1.0 2602:1.0 2603:1.0 2604:1.0 2605:1.0 2612:1.0 2613:1.0 2615:1.0 2617:1.0 2618:1.0 2619:1.0 2620:1.0 2621:1.0 2622:1.0 2630:1.0 2631:1.0 2632:1.0 2633:1.0 2634:1.0 2635:1.0 2644:1.0 2645:1.0 2646:1.0 2647:1.0 2648:1.0 2652:1.0 2654:1.0 2655:1.0 2656:1.0 2659:1.0 2661:1.0 2663:1.0 2670:1.0 2679:1.0 2684:1.0 2685:1.0 2686:1.0 2687:1.0 2689:1.0 2690:1.0 2691:1.0 2692:1.0 2693:1.0 2699:1.0 2702:1.0 2703:1.0 2709:1.0 2711:1.0 2715:1.0 2723:1.0 2725:1.0 2726:1.0 2731:1.0 2767:1.0 2770:1.0 2771:1.0 2775:1.0 2790:1.0 2800:1.0 2801:1.0 2805:1.0 2814:1.0 2815:1.0 2816:1.0 2817:1.0 2818:1.0 2819:1.0 2820:1.0 2821:1.0 2822:1.0 2824:1.0 2825:1.0 2826:1.0 2830:1.0 2831:1.0 2832:1.0 2833:1.0 2834:1.0 2835:1.0 2837:1.0 2838:1.0 2840:1.0 2841:1.0 2842:1.0 2846:1.0 2849:1.0 2850:1.0 2852:1.0 2855:1.0 2856:1.0 2857:1.0 2858:1.0 2859:1.0 2861:1.0 2866:1.0 2870:1.0 2875:1.0 2878:1.0 2879:1.0 2881:1.0 2882:1.0 2883:1.0 2884:1.0 2887:1.0 2890:1.0 2891:1.0 2893:1.0 2895:1.0 2896:1.0 2897:1.0 2905:1.0 2919:1.0 2926:1.0 2927:1.0 2928:1.0 2929:1.0 2930:1.0 2931:1.0 2933:1.0 2934:1.0 2937:1.0 2940:1.0 2941:1.0 2942:1.0 2943:1.0 2946:1.0 2952:1.0 2954:1.0 2956:1.0 2958:1.0 2959:1.0 2972:1.0 2973:1.0 2979:1.0 2983:1.0 2985:1.0 2987:1.0 2988:1.0 2989:1.0 2994:1.0 2996:1.0 3001:1.0 3006:1.0 3009:1.0 3012:1.0 3013:1.0 3014:1.0 3024:1.0 3027:1.0 3034:1.0 3035:1.0 3040:1.0 3046:1.0 3047:1.0 3059:1.0 3071:1.0 3077:1.0 3090:1.0 3104:1.0 3105:1.0 3106:1.0 3110:1.0 3116:1.0 3119:1.0 3120:1.0 3121:1.0 3122:1.0 3132:1.0 3133:1.0 3134:1.0 3135:1.0 3140:1.0 3148:1.0 3155:1.0 3157:1.0 3161:1.0 3167:1.0 3168:1.0 3189:1.0 3190:1.0 3191:1.0 3208:1.0 3213:1.0 3214:1.0 3223:1.0 3225:1.0 3232:1.0 3233:1.0 3234:1.0 3238:1.0 3239:1.0 3240:1.0 3241:1.0 3242:1.0 3306:1.0 3311:1.0 3330:1.0 3340:1.0 3341:1.0 3352:1.0 3353:1.0 3354:1.0 3355:1.0 3356:1.0 3360:1.0 3364:1.0 3367:1.0 3370:1.0 3371:1.0 3374:1.0 3375:1.0 3377:1.0 3388:1.0 3396:1.0 3418:1.0 3419:1.0 3431:1.0 3433:1.0 3437:1.0 3441:1.0 3443:1.0 3452:1.0 3454:1.0 3460:1.0 3461:1.0 3467:1.0 3468:1.0 3469:1.0 3470:1.0 3471:1.0 3472:1.0 3473:1.0 3474:1.0 3475:1.0 3487:1.0 3488:1.0 3489:1.0 3503:1.0 3504:1.0 3505:1.0 3511:1.0 3513:1.0 3520:1.0 3589:1.0 3590:1.0 3592:1.0 3593:1.0 3594:1.0 3601:1.0 3602:1.0 3605:1.0 3608:1.0 3610:1.0 3622:1.0 3623:1.0 3628:1.0 3634:1.0 3635:1.0 3636:1.0 3638:1.0 3639:1.0 3640:1.0 3641:1.0 3642:1.0 3643:1.0 3644:1.0 3650:1.0 3651:1.0 3652:1.0 3662:1.0 3663:1.0 3664:1.0 3665:1.0 3666:1.0 3667:1.0 3668:1.0 3676:1.0 3677:1.0 3684:1.0 3685:1.0 3686:1.0 3690:1.0 3691:1.0 3706:1.0 3711:1.0 3712:1.0 3713:1.0 3715:1.0 3719:1.0 3722:1.0 3727:1.0 3734:1.0 3736:1.0 3737:1.0 3738:1.0 3739:1.0 3740:1.0 3741:1.0 3742:1.0 3743:1.0 3744:1.0 3745:1.0 3749:1.0 3751:1.0 3752:1.0 3755:1.0 3756:1.0 3759:1.0 3760:1.0 3761:1.0 3762:1.0 3765:1.0 3767:1.0 3768:1.0 3769:1.0 3777:1.0 3778:1.0 3782:1.0 3787:1.0 3788:1.0 3794:1.0 3796:1.0 3797:1.0 3800:1.0 3801:1.0 3802:1.0 3811:1.0 3812:1.0 3813:1.0 3814:1.0 3815:1.0 3816:1.0 3822:1.0 3823:1.0 3824:1.0 3839:1.0 3845:1.0 3851:1.0 3852:1.0 3872:1.0 3873:1.0 3874:1.0 3876:1.0 3877:1.0 3878:1.0 3884:1.0 3886:1.0 3887:1.0 3888:1.0 3894:1.0 3930:1.0 3944:1.0 3956:1.0 3960:1.0 3972:1.0 3974:1.0 3975:1.0 3976:1.0 3977:1.0 3978:1.0 3982:1.0 3984:1.0 3985:1.0 3986:1.0 3987:1.0 3988:1.0 3992:1.0 4001:1.0 4002:1.0 4003:1.0 4005:1.0 4007:1.0 4008:1.0 4015:1.0 4017:1.0 4018:1.0 4020:1.0 4024:1.0 4025:1.0 4030:1.0 4031:1.0 4042:1.0 4043:1.0 4045:1.0 4046:1.0 4047:1.0 4048:1.0 4049:1.0 4050:1.0 4053:1.0 4054:1.0 4055:1.0 4058:1.0 4059:1.0 4060:1.0 4061:1.0 4064:1.0 4065:1.0 4068:1.0 4078:1.0 4086:1.0 4087:1.0 4090:1.0 4102:1.0 4113:1.0 4116:1.0 4117:1.0 4145:1.0 4148:1.0 4149:1.0 4151:1.0 4160:1.0 4161:1.0 4184:1.0 4185:1.0 4193:1.0 4194:1.0 4199:1.0 4200:1.0 4201:1.0 4204:1.0 4205:1.0 4206:1.0 4212:1.0 4223:1.0 4224:1.0 4228:1.0 4242:1.0 4244:1.0 4245:1.0 4246:1.0 4247:1.0 4248:1.0 4256:1.0 4258:1.0 4271:1.0 4273:1.0 4275:1.0 4276:1.0 4277:1.0 4278:1.0 4280:1.0 4281:1.0 4282:1.0 4290:1.0 4291:1.0 4297:1.0 4300:1.0 4301:1.0 4302:1.0 4308:1.0 4310:1.0 4311:1.0 4312:1.0 4314:1.0 4315:1.0 4316:1.0 4319:1.0 4320:1.0 4321:1.0 4322:1.0 4323:1.0 4324:1.0 4325:1.0 4326:1.0 4327:1.0 4328:1.0 4329:1.0 4330:1.0 4331:1.0 4332:1.0 4333:1.0 4334:1.0 4335:1.0 4336:1.0 4337:1.0 4338:1.0 4339:1.0 4340:1.0 4341:1.0 4342:1.0 4343:1.0 4344:1.0 4345:1.0 4347:1.0 4348:1.0 4349:1.0 4350:1.0 4351:1.0 4352:1.0 4353:1.0 4354:1.0 4355:1.0 4357:1.0 4358:1.0 4359:1.0 4360:1.0 4361:1.0 4362:1.0 4364:1.0 4365:1.0 4366:1.0 4373:1.0 4377:1.0 4378:1.0 4379:1.0 4384:1.0 4385:1.0 4391:1.0 4392:1.0 4394:1.0 4396:1.0 4398:1.0 4399:1.0 4400:1.0 4403:1.0 4405:1.0 4406:1.0 4407:1.0 4408:1.0 4409:1.0 4410:1.0 4412:1.0 4413:1.0 4414:1.0 4415:1.0 4416:1.0 4421:1.0 4422:1.0 4423:1.0 4424:1.0 4427:1.0 4428:1.0 4429:1.0 4430:1.0 4431:1.0 4438:1.0 4439:1.0 4440:1.0 4441:1.0 4442:1.0 4444:1.0 4445:1.0 4446:1.0 4447:1.0 4449:1.0 4455:1.0 4458:1.0 4459:1.0 4460:1.0 4461:1.0 4462:1.0 4464:1.0 4465:1.0 4466:1.0 4467:1.0 4471:1.0 4472:1.0 4473:1.0 4474:1.0 4475:1.0 4476:1.0 4477:1.0 4482:1.0 4483:1.0 4484:1.0 4489:1.0 4490:1.0 4491:1.0 4492:1.0 4493:1.0 4494:1.0 4502:1.0 4503:1.0 4510:1.0 4512:1.0 4515:1.0 4523:1.0 4524:1.0 4525:1.0 4526:1.0 4527:1.0 4529:1.0 4530:1.0 4531:1.0 4532:1.0 4533:1.0 4538:1.0 4539:1.0 4540:1.0 4541:1.0 4542:1.0 4543:1.0 4544:1.0 4547:1.0 4548:1.0 4549:1.0 4550:1.0 4551:1.0 4552:1.0 4555:1.0 4556:1.0 4557:1.0 4558:1.0 4560:1.0 4561:1.0 4562:1.0 4567:1.0 4568:1.0 4569:1.0 4570:1.0 4579:1.0 4585:1.0 4586:1.0 4587:1.0 4588:1.0 4589:1.0 4590:1.0 4591:1.0 4592:1.0 4599:1.0 4600:1.0 4601:1.0 4613:1.0 4622:1.0 4624:1.0 4625:1.0 4627:1.0 4631:1.0 4636:1.0 4637:1.0 4638:1.0 4639:1.0 4640:1.0 4642:1.0 4643:1.0 4644:1.0 4645:1.0 4646:1.0 4648:1.0 4652:1.0 4653:1.0 4654:1.0 4661:1.0 4664:1.0 4665:1.0 4667:1.0 4671:1.0 4674:1.0 4675:1.0 4676:1.0 4677:1.0 4683:1.0 4688:1.0 4689:1.0 4690:1.0 4691:1.0 4692:1.0 4697:1.0 4698:1.0 4699:1.0 4700:1.0 4701:1.0 4702:1.0 4703:1.0 4704:1.0 4710:1.0 4711:1.0 4712:1.0 4718:1.0 4721:1.0 4722:1.0 4723:1.0 4724:1.0 4727:1.0 4730:1.0 4733:1.0 4737:1.0 4738:1.0 4743:1.0 4745:1.0 4746:1.0 4757:1.0 4759:1.0 4760:1.0 4761:1.0 4763:1.0 4764:1.0 4765:1.0 4766:1.0 4767:1.0 4768:1.0 4769:1.0 4770:1.0 4771:1.0 4774:1.0 4775:1.0 4780:1.0 4781:1.0 4783:1.0 4791:1.0 4792:1.0 4793:1.0 4794:1.0 4801:1.0 4802:1.0 4803:1.0 4805:1.0 4814:1.0 4819:1.0 4835:1.0 4841:1.0 4843:1.0 4844:1.0 4845:1.0 4846:1.0 4849:1.0 4850:1.0 4851:1.0 4852:1.0 4853:1.0 4854:1.0 4862:1.0 4863:1.0 4864:1.0 4866:1.0 4869:1.0 4873:1.0 4874:1.0 4875:1.0 4876:1.0 4884:1.0 4886:1.0 4887:1.0 4889:1.0 4890:1.0 4896:1.0 4897:1.0 4899:1.0 4900:1.0 4901:1.0 4903:1.0 4905:1.0 4906:1.0 4908:1.0 4909:1.0 4910:1.0 4915:1.0 4916:1.0 4922:1.0 4925:1.0 4926:1.0 4937:1.0 4938:1.0 4940:1.0 4941:1.0 4942:1.0 4943:1.0 4945:1.0 4946:1.0 4947:1.0 4948:1.0 4949:1.0 4951:1.0 4978:1.0 4979:1.0 4984:1.0 4985:1.0 4986:1.0 4992:1.0 4993:1.0 4999:1.0 5001:1.0 5006:1.0 5007:1.0 5013:1.0 5014:1.0 5015:1.0 5016:1.0 5019:1.0 5021:1.0 5023:1.0 5024:1.0 5030:1.0 5045:1.0 5046:1.0 5048:1.0 5049:1.0 5050:1.0 5051:1.0 5052:1.0 5054:1.0 5055:1.0 5059:1.0 5062:1.0 5067:1.0 5077:1.0 5084:1.0 5086:1.0 5098:1.0 5099:1.0 5100:1.0 5102:1.0 5106:1.0 5108:1.0 5119:1.0 5120:1.0 5124:1.0 5125:1.0 5126:1.0 5132:1.0 5133:1.0 5134:1.0 5135:1.0 5143:1.0 5152:1.0 5158:1.0 5159:1.0 5166:1.0 5198:1.0 5217:1.0 5218:1.0 5237:1.0 5241:1.0 5245:1.0 5249:1.0 5250:1.0 5261:1.0 5263:1.0 5266:1.0 5268:1.0 5269:1.0 5270:1.0 5271:1.0 5272:1.0 5273:1.0 5274:1.0 5275:1.0 5276:1.0 5277:1.0 5284:1.0 5285:1.0 5290:1.0 5295:1.0 5296:1.0 5297:1.0 5298:1.0 5299:1.0 5300:1.0 5312:1.0 5313:1.0 5321:1.0 5332:1.0 5336:1.0 5349:1.0 5352:1.0 5362:1.0 5373:1.0 5379:1.0 5384:1.0 5409:1.0 5410:1.0 5411:1.0 5412:1.0 5413:1.0 5426:1.0 5437:1.0 5463:1.0 5464:1.0 5466:1.0 5497:1.0 5541:1.0 5546:1.0 5547:1.0 5548:1.0 5572:1.0 5573:1.0 5577:1.0 5591:1.0 5594:1.0 5622:1.0 5625:1.0 5626:1.0 5627:1.0 5633:1.0 5655:1.0 5713:1.0 5718:1.0 5719:1.0 5731:1.0 5732:1.0 5733:1.0 5737:1.0 5751:1.0 5752:1.0 5756:1.0 5768:1.0 5777:1.0 5784:1.0 5794:1.0 5795:1.0 5796:1.0 5797:1.0 5799:1.0 5804:1.0 5805:1.0 5807:1.0 5809:1.0 5825:1.0 5838:1.0 5839:1.0 5840:1.0 5841:1.0 5842:1.0 5843:1.0 5844:1.0 5851:1.0 5852:1.0 5854:1.0 5859:1.0 5863:1.0 5872:1.0 5878:1.0 5887:1.0 5900:1.0 5902:1.0 5905:1.0 5909:1.0 5917:1.0 5922:1.0 5926:1.0 5933:1.0 5935:1.0 5936:1.0 5940:1.0 5942:1.0 5946:1.0 5947:1.0 5958:1.0 5960:1.0 5961:1.0 5963:1.0 5983:1.0 5984:1.0 5988:1.0 5998:1.0 6000:1.0 6012:1.0 6013:1.0 6018:1.0 6037:1.0 6038:1.0 6048:1.0 6057:1.0 6058:1.0 6060:1.0 6068:1.0 6070:1.0 6071:1.0 6075:1.0 6076:1.0 6079:1.0 6084:1.0 6147:1.0 6149:1.0 6163:1.0 6165:1.0 6178:1.0 6185:1.0 6189:1.0 6190:1.0 6191:1.0 6192:1.0 6197:1.0 6202:1.0 6203:1.0 6205:1.0 6206:1.0 6207:1.0 6208:1.0 6216:1.0 6217:1.0 6218:1.0 6220:1.0 6224:1.0 6225:1.0 6237:1.0 6238:1.0 6239:1.0 6240:1.0 6241:1.0 6246:1.0 6249:1.0 6260:1.0 6266:1.0 6274:1.0 6280:1.0 6281:1.0 6282:1.0 6283:1.0 6284:1.0 6287:1.0 6289:1.0 6294:1.0 6295:1.0 6296:1.0 6300:1.0 6307:1.0 6319:1.0 6339:1.0 6340:1.0 6341:1.0 6347:1.0 6348:1.0 6351:1.0 6352:1.0 6353:1.0 6354:1.0 6356:1.0 6357:1.0 6368:1.0 6375:1.0 6376:1.0 6381:1.0 6389:1.0 6390:1.0 6391:1.0 6392:1.0 6412:1.0 6417:1.0 6420:1.0 6430:1.0 6431:1.0 6434:1.0 6440:1.0 6450:1.0 6452:1.0 6453:1.0 6454:1.0 6455:1.0 6456:1.0 6457:1.0 6458:1.0 6459:1.0 6460:1.0 6461:1.0 6462:1.0 6463:1.0 6464:1.0 6465:1.0 6466:1.0 6467:1.0 6468:1.0 6469:1.0 6470:1.0 6471:1.0 6472:1.0 6473:1.0 6474:1.0 6475:1.0 6476:1.0 6477:1.0 6478:1.0 6479:1.0 6480:1.0 6481:1.0 6482:1.0 6483:1.0 6484:1.0 6485:1.0 6486:1.0 6487:1.0 6488:1.0 6489:1.0 6490:1.0 6491:1.0 6492:1.0 6493:1.0 6494:1.0 6495:1.0 6496:1.0 6497:1.0 6498:1.0 6499:1.0 6500:1.0 6501:1.0 6502:1.0 6503:1.0 6504:1.0 6505:1.0 6506:1.0 6507:1.0 6508:1.0 6509:1.0 6510:1.0 6511:1.0 6512:1.0 6513:1.0 6514:1.0 6515:1.0 6516:1.0 6517:1.0 6518:1.0 6519:1.0 6520:1.0 6521:1.0 6522:1.0 6523:1.0 6524:1.0 6525:1.0 6526:1.0 6527:1.0 6528:1.0 6529:1.0 6530:1.0 6531:1.0 6532:1.0 6533:1.0 6534:1.0 6535:1.0 6536:1.0 6537:1.0 6538:1.0 6539:1.0 6540:1.0 6541:1.0 6542:1.0 6543:1.0 6544:1.0 6545:1.0 6546:1.0 6547:1.0 6548:1.0 6549:1.0 6550:1.0 6551:1.0 6552:1.0 6553:1.0 6554:1.0 6555:1.0 6556:1.0 6557:1.0 6558:1.0 6559:1.0 6560:1.0 6561:1.0 6562:1.0 6563:1.0 6564:1.0 6565:1.0 6566:1.0 6567:1.0 6568:1.0 6569:1.0 6570:1.0 6571:1.0 6572:1.0 6573:1.0 6574:1.0 6575:1.0 6576:1.0 6577:1.0 6578:1.0 6579:1.0 6580:1.0 6581:1.0 6582:1.0 6583:1.0 6584:1.0 6585:1.0 6586:1.0 6587:1.0 6588:1.0 6589:1.0 6590:1.0 6591:1.0 6592:1.0 6593:1.0 6594:1.0 6595:1.0 6596:1.0 6597:1.0 6598:1.0 6599:1.0 6600:1.0 6601:1.0 6602:1.0 6603:1.0 6604:1.0 6605:1.0 6606:1.0 6607:1.0 6608:1.0 6609:1.0 6610:1.0 6611:1.0 6612:1.0 6613:1.0 6614:1.0 6615:1.0 6616:1.0 6617:1.0 6618:1.0 6619:1.0 6620:1.0 6621:1.0 6622:1.0 6623:1.0 6624:1.0 6625:1.0 6626:1.0 6627:1.0 6628:1.0 6629:1.0 6630:1.0 6631:1.0 6632:1.0 6633:1.0 6634:1.0 6635:1.0 6636:1.0 6637:1.0 6638:1.0 6639:1.0 6640:1.0 6641:1.0 6642:1.0 6643:1.0 6644:1.0 6645:1.0 6646:1.0 6647:1.0 6648:1.0 6649:1.0 6650:1.0 6651:1.0 6652:1.0 6653:1.0 6654:1.0 6655:1.0 6656:1.0 6657:1.0 6658:1.0 6659:1.0 6660:1.0 6661:1.0 6662:1.0 6663:1.0 6664:1.0 6665:1.0 6666:1.0 6667:1.0 6668:1.0 6669:1.0 6670:1.0 6671:1.0 6672:1.0 6673:1.0 6674:1.0 6675:1.0 6676:1.0 6677:1.0 6678:1.0 6679:1.0 6680:1.0 6681:1.0 6682:1.0 6683:1.0 6684:1.0 6685:1.0 6686:1.0 6687:1.0 6688:1.0 6689:1.0 6690:1.0 6691:1.0 6692:1.0 6693:1.0 6694:1.0 6695:1.0 6696:1.0 6697:1.0 6698:1.0 6699:1.0 6700:1.0 6701:1.0 6702:1.0 6703:1.0 6704:1.0 6705:1.0 6706:1.0 6707:1.0 6708:1.0 6709:1.0 6710:1.0 6711:1.0 6712:1.0 6713:1.0 6714:1.0 6715:1.0 6716:1.0 6717:1.0 6718:1.0 6719:1.0 6720:1.0 6721:1.0 6722:1.0 6723:1.0 6724:1.0 6725:1.0 6726:1.0 6727:1.0 6728:1.0 6729:1.0 6730:1.0 6731:1.0 6732:1.0 6733:1.0 6734:1.0 6735:1.0 6736:1.0 6737:1.0 6738:1.0 6739:1.0 6740:1.0 6741:1.0 6742:1.0 6743:1.0 6744:1.0 6745:1.0 6746:1.0 6747:1.0 6748:1.0 6749:1.0 6750:1.0 6751:1.0 6752:1.0 6753:1.0 6754:1.0 6755:1.0 6756:1.0 6757:1.0 6758:1.0 6759:1.0 6760:1.0 6761:1.0 6762:1.0 6763:1.0 6764:1.0 6765:1.0 6766:1.0 6767:1.0 6768:1.0 6769:1.0 6770:1.0 6771:1.0 6772:1.0 6773:1.0 6774:1.0 6775:1.0 6776:1.0 6777:1.0 6778:1.0 6779:1.0 6780:1.0 6781:1.0 6782:1.0 6783:1.0 6784:1.0 6785:1.0 6786:1.0 6787:1.0 6788:1.0 6789:1.0 6790:1.0 6791:1.0 6792:1.0 6793:1.0 6794:1.0 6795:1.0 6796:1.0 6797:1.0 6798:1.0 6799:1.0 6800:1.0 6801:1.0 6802:1.0 6803:1.0 6804:1.0 6805:1.0 6806:1.0 6807:1.0 6808:1.0 6809:1.0 6810:1.0 6811:1.0 6812:1.0 6813:1.0 6814:1.0 6815:1.0 6816:1.0 6817:1.0 6818:1.0 6819:1.0 6820:1.0 6821:1.0 6822:1.0 6823:1.0 6824:1.0 6825:1.0 6826:1.0 6827:1.0 6828:1.0 6829:1.0 6830:1.0 6831:1.0 6832:1.0 6833:1.0 6834:1.0 6835:1.0 6836:1.0 6837:1.0 6838:1.0 6839:1.0 6840:1.0 6841:1.0 6842:1.0 6843:1.0 6844:1.0 6845:1.0 6846:1.0 6847:1.0 6848:1.0 6849:1.0 6850:1.0 6851:1.0 6852:1.0 6853:1.0 6854:1.0 6855:1.0 6856:1.0 6857:1.0 6858:1.0 6859:1.0 6860:1.0 6861:1.0 6862:1.0 6863:1.0 6864:1.0 6865:1.0 6866:1.0 6867:1.0 6868:1.0 6869:1.0 6870:1.0 6871:1.0 6872:1.0 6873:1.0 6874:1.0 6875:1.0 6876:1.0 6877:1.0 6878:1.0 6879:1.0 6880:1.0 6881:1.0 6882:1.0 6883:1.0 6884:1.0 6885:1.0 6886:1.0 6887:1.0 6888:1.0 6889:1.0 6890:1.0 6891:1.0 6892:1.0 6893:1.0 6894:1.0 6895:1.0 6896:1.0 6897:1.0 6898:1.0 6899:1.0 6900:1.0 6901:1.0 6902:1.0 6903:1.0 6904:1.0 6905:1.0 6906:1.0 6907:1.0 6908:1.0 6909:1.0 6910:1.0 6911:1.0 6912:1.0 6913:1.0 6914:1.0 6915:1.0 6916:1.0 6917:1.0 6918:1.0 6919:1.0 6920:1.0 6921:1.0 6922:1.0 6923:1.0 6924:1.0 6925:1.0 6926:1.0 6927:1.0 6928:1.0 6929:1.0 6930:1.0 6931:1.0 6932:1.0 6933:1.0 6934:1.0 6935:1.0 6936:1.0 6937:1.0 6938:1.0 6939:1.0 6940:1.0 6941:1.0 6942:1.0 6943:1.0 6944:1.0 6945:1.0 6946:1.0 6947:1.0 6948:1.0 6949:1.0 6950:1.0 6951:1.0 6952:1.0 6953:1.0 6954:1.0 6955:1.0 6956:1.0 6957:1.0 6958:1.0 6959:1.0 6960:1.0 6961:1.0 6962:1.0 6963:1.0 6964:1.0 6965:1.0 6966:1.0 6967:1.0 6968:1.0 6969:1.0 6970:1.0 6971:1.0 6972:1.0 6973:1.0 6974:1.0 6975:1.0 6976:1.0 6977:1.0 6978:1.0 6979:1.0 6980:1.0 6981:1.0 6982:1.0 6983:1.0 6984:1.0 6985:1.0 6986:1.0 6987:1.0 6988:1.0 6989:1.0 6990:1.0 6991:1.0 6992:1.0 6993:1.0 6994:1.0 6995:1.0 6996:1.0 6997:1.0 6998:1.0 6999:1.0 7000:1.0 7001:1.0 7002:1.0 7003:1.0 7004:1.0 7005:1.0 7006:1.0 7007:1.0 7008:1.0 7009:1.0 7010:1.0 7011:1.0 7012:1.0 7013:1.0 7014:1.0 7015:1.0 7016:1.0 7017:1.0 7018:1.0 7019:1.0 7020:1.0 7021:1.0 7022:1.0 7023:1.0 7024:1.0 7025:1.0 7026:1.0 7027:1.0 7028:1.0 7029:1.0 7030:1.0 7031:1.0 7032:1.0 7033:1.0 7034:1.0 7035:1.0 7036:1.0 7037:1.0 7038:1.0 7039:1.0 7040:1.0 7041:1.0 7042:1.0 7043:1.0 7044:1.0 7045:1.0 7046:1.0 7047:1.0 7048:1.0 7049:1.0 7050:1.0 7051:1.0 7052:1.0 7053:1.0 7054:1.0 7055:1.0 7056:1.0 7057:1.0 7058:1.0 7059:1.0 7060:1.0 7061:1.0 7062:1.0 7063:1.0 7064:1.0 7065:1.0 7066:1.0 7067:1.0 7068:1.0 7069:1.0 7070:1.0 7071:1.0 7072:1.0 7073:1.0 7074:1.0 7075:1.0 7076:1.0 7077:1.0 7078:1.0 7079:1.0 7080:1.0 7081:1.0 7082:1.0 7083:1.0 7084:1.0 7085:1.0 7086:1.0 7087:1.0 7088:1.0 7089:1.0 7090:1.0 7091:1.0 7092:1.0 7093:1.0 7094:1.0 7095:1.0 7096:1.0 7097:1.0 7098:1.0 7099:1.0 7100:1.0 7101:1.0 7102:1.0 7103:1.0 7104:1.0 7105:1.0 7106:1.0 7107:1.0 7108:1.0 7109:1.0 7110:1.0 7111:1.0 7112:1.0 7113:1.0 7114:1.0 7115:1.0 7116:1.0 7117:1.0 7118:1.0 7119:1.0 7120:1.0 7121:1.0 7122:1.0 7123:1.0 7124:1.0 7125:1.0 7126:1.0 7127:1.0 7128:1.0 7129:1.0 7130:1.0 7131:1.0 7132:1.0 7133:1.0 7134:1.0 7135:1.0 7136:1.0 7137:1.0 7138:1.0 7139:1.0 7140:1.0 7141:1.0 7142:1.0 7143:1.0 7144:1.0 7145:1.0 7146:1.0 7147:1.0 7148:1.0 7149:1.0 7150:1.0 7151:1.0 7152:1.0 7153:1.0 7154:1.0 7155:1.0 7156:1.0 7157:1.0 7158:1.0 7159:1.0 7160:1.0 7161:1.0 7162:1.0 7163:1.0 7164:1.0 7165:1.0 7166:1.0 7167:1.0 7168:1.0 7169:1.0 7170:1.0 7171:1.0 7172:1.0 7173:1.0 7174:1.0 7175:1.0 7176:1.0 7177:1.0 7178:1.0 7179:1.0 7180:1.0 7181:1.0 7182:1.0 7183:1.0 7184:1.0 7185:1.0 7186:1.0 7187:1.0 7188:1.0 7189:1.0 7190:1.0 7191:1.0 7192:1.0 7193:1.0 7194:1.0 7195:1.0 7196:1.0 7197:1.0 7198:1.0 7199:1.0 7200:1.0 7201:1.0 7202:1.0 7203:1.0 7204:1.0 7205:1.0 7206:1.0 7207:1.0 7208:1.0 7209:1.0 7210:1.0 7211:1.0 7212:1.0 7213:1.0 7214:1.0 7215:1.0 7216:1.0 7217:1.0 7218:1.0 7219:1.0 7220:1.0 7221:1.0 7222:1.0 7223:1.0 7224:1.0 7225:1.0 7226:1.0 7227:1.0 7228:1.0 7229:1.0 7230:1.0 7231:1.0 7232:1.0 7233:1.0 7234:1.0 7235:1.0 7236:1.0 7237:1.0 7238:1.0 7239:1.0 7240:1.0 7241:1.0 7242:1.0 7243:1.0 7244:1.0 7245:1.0 7246:1.0 7247:1.0 7248:1.0 7249:1.0 7250:1.0 7251:1.0 7252:1.0 7253:1.0 7254:1.0 7255:1.0 7256:1.0 7257:1.0 7258:1.0 7259:1.0 7260:1.0 7261:1.0 7262:1.0 7263:1.0 7264:1.0 7265:1.0 7266:1.0 7267:1.0 7268:1.0 7269:1.0 7270:1.0 7271:1.0 7272:1.0 7273:1.0 7274:1.0 7275:1.0 7276:1.0 7277:1.0 7278:1.0 7279:1.0 7280:1.0 7281:1.0 7282:1.0 7283:1.0 7284:1.0 7285:1.0 7286:1.0 7287:1.0 7288:1.0 7289:1.0 7290:1.0 7291:1.0 7292:1.0 7293:1.0 7294:1.0 7295:1.0 7296:1.0 7297:1.0 7298:1.0 7299:1.0 7300:1.0 7301:1.0 7302:1.0 7303:1.0 7304:1.0 7305:1.0 7306:1.0 7307:1.0 7308:1.0 7309:1.0 7310:1.0 7311:1.0 7312:1.0 7313:1.0 7314:1.0 7315:1.0 7316:1.0 7317:1.0 7318:1.0 7319:1.0 7320:1.0 7321:1.0 7322:1.0 7323:1.0 7324:1.0 7325:1.0 7326:1.0 7327:1.0 7328:1.0 7329:1.0 7330:1.0 7331:1.0 7332:1.0 7333:1.0 7334:1.0 7335:1.0 7336:1.0 7337:1.0 7338:1.0 7339:1.0 7340:1.0 7341:1.0 7342:1.0 7343:1.0 7344:1.0 7345:1.0 7346:1.0 7347:1.0 7348:1.0 7349:1.0 7350:1.0 7351:1.0 7352:1.0 7353:1.0 7354:1.0 7355:1.0 7356:1.0 7357:1.0 7358:1.0 7359:1.0 7360:1.0 7361:1.0 7362:1.0 7363:1.0 7364:1.0 7365:1.0 7366:1.0 7367:1.0 7368:1.0 7369:1.0 7370:1.0 7371:1.0 7372:1.0 7373:1.0 7374:1.0 7375:1.0 7376:1.0 7377:1.0 7378:1.0 7379:1.0 7380:1.0 7381:1.0 7382:1.0 7383:1.0 7384:1.0 7385:1.0 7386:1.0 7387:1.0 7388:1.0 7389:1.0 7390:1.0 7391:1.0 7392:1.0 7393:1.0 7394:1.0 7395:1.0 7396:1.0 7397:1.0 7398:1.0 7399:1.0 7400:1.0 7401:1.0 7402:1.0 7403:1.0 7404:1.0 7405:1.0 7406:1.0 7407:1.0 7408:1.0 7409:1.0 7410:1.0 7411:1.0 7412:1.0 7413:1.0 7414:1.0 7415:1.0 7416:1.0 7417:1.0 7418:1.0 7419:1.0 7420:1.0 7421:1.0 7422:1.0 7423:1.0 7424:1.0 7425:1.0 7426:1.0 7427:1.0 7428:1.0 7429:1.0 7430:1.0 7431:1.0 7432:1.0 7433:1.0 7434:1.0 7435:1.0 7436:1.0 7437:1.0 7438:1.0 7439:1.0 7440:1.0 7441:1.0 7442:1.0 7443:1.0 7444:1.0 7445:1.0 7446:1.0 7447:1.0 7448:1.0 7449:1.0 7450:1.0 7451:1.0 7452:1.0 7453:1.0 7454:1.0 7455:1.0 7456:1.0 7457:1.0 7458:1.0 7459:1.0 7460:1.0 7461:1.0 7462:1.0 7463:1.0 7464:1.0 7465:1.0 7466:1.0 7467:1.0 7468:1.0 7469:1.0 7470:1.0 7471:1.0 7472:1.0 7473:1.0 7474:1.0 7475:1.0 7476:1.0 7477:1.0 7478:1.0 7479:1.0 7480:1.0 7481:1.0 7482:1.0 7483:1.0 7484:1.0 7485:1.0 7486:1.0 7487:1.0 7488:1.0 7489:1.0 7490:1.0 7491:1.0 7492:1.0 7493:1.0 7494:1.0 7495:1.0 7496:1.0 7497:1.0 7498:1.0 7499:1.0 7500:1.0 7501:1.0 7502:1.0 7503:1.0 7504:1.0 7505:1.0 7506:1.0 7507:1.0 7508:1.0 7509:1.0 7510:1.0 7511:1.0 7512:1.0 7513:1.0 7514:1.0 7515:1.0 7516:1.0 7517:1.0 7518:1.0 7519:1.0 7520:1.0 7521:1.0 7522:1.0 7523:1.0 7524:1.0 7525:1.0 7526:1.0 7527:1.0 7528:1.0 7529:1.0 7530:1.0 7531:1.0 7532:1.0 7533:1.0 7534:1.0 7535:1.0 7536:1.0 7537:1.0 7538:1.0 7539:1.0 7540:1.0 7541:1.0 7542:1.0 7543:1.0 7544:1.0 7545:1.0 7546:1.0 7547:1.0 7548:1.0 7549:1.0 7550:1.0 7551:1.0 7552:1.0 7553:1.0 7554:1.0 7555:1.0 7556:1.0 7557:1.0 7558:1.0 7559:1.0 7560:1.0 7561:1.0 7562:1.0 7563:1.0 7564:1.0 7565:1.0 7566:1.0 7567:1.0 7568:1.0 7569:1.0 7570:1.0 7571:1.0 7572:1.0 7573:1.0 7574:1.0 7575:1.0 7576:1.0 7577:1.0 7578:1.0 7579:1.0 7580:1.0 7581:1.0 7582:1.0 7583:1.0 7584:1.0 7585:1.0 7586:1.0 7587:1.0 7588:1.0 7589:1.0 7590:1.0 7591:1.0 7592:1.0 7593:1.0 7594:1.0 7595:1.0 7596:1.0 7597:1.0 7598:1.0 7599:1.0 7600:1.0 7601:1.0 7602:1.0 7603:1.0 7604:1.0 7605:1.0 7606:1.0 7607:1.0 7608:1.0 7609:1.0 7610:1.0 7611:1.0 7612:1.0 7613:1.0 7614:1.0 7615:1.0 7616:1.0 7617:1.0 7618:1.0 7619:1.0 7620:1.0 7621:1.0 7622:1.0 7623:1.0 7624:1.0 7625:1.0 7626:1.0 7627:1.0 7628:1.0 7629:1.0 7630:1.0 7631:1.0 7632:1.0 7633:1.0 7634:1.0 7635:1.0 7636:1.0 7637:1.0 7638:1.0 7639:1.0 7640:1.0 7641:1.0 7642:1.0 7643:1.0 7644:1.0 7645:1.0 7646:1.0 7647:1.0 7648:1.0 7649:1.0 7650:1.0 7651:1.0 7652:1.0 7653:1.0 7654:1.0 7655:1.0 7656:1.0 7657:1.0 7658:1.0 7659:1.0 7660:1.0 7661:1.0 7662:1.0 7663:1.0 7664:1.0 7665:1.0 7666:1.0 7667:1.0 7668:1.0 7669:1.0 7670:1.0 7671:1.0 7672:1.0 7673:1.0 7674:1.0 7675:1.0 7676:1.0 7677:1.0 7678:1.0 7679:1.0 7680:1.0 7681:1.0 7682:1.0 7683:1.0 7684:1.0 7685:1.0 7686:1.0 7687:1.0 7688:1.0 7689:1.0 7690:1.0 7691:1.0 7692:1.0 7693:1.0 7694:1.0 7695:1.0 7696:1.0 7697:1.0 7698:1.0 7699:1.0 7700:1.0 7701:1.0 7702:1.0 7703:1.0 7704:1.0 7705:1.0 7706:1.0 7707:1.0 7708:1.0 7709:1.0 7710:1.0 7711:1.0 7712:1.0 7713:1.0 7714:1.0 7715:1.0 7716:1.0 7717:1.0 7718:1.0 7719:1.0 7720:1.0 7721:1.0 7722:1.0 7723:1.0 7724:1.0 7725:1.0 7726:1.0 7727:1.0 7728:1.0 7729:1.0 7730:1.0 7731:1.0 7732:1.0 7733:1.0 7734:1.0 7735:1.0 7736:1.0 7737:1.0 7738:1.0 7739:1.0 7740:1.0 7741:1.0 7742:1.0 7743:1.0 7744:1.0 7745:1.0 7746:1.0 7747:1.0 7748:1.0 7749:1.0 7750:1.0 7751:1.0 7752:1.0 7753:1.0 7754:1.0 7755:1.0 7756:1.0 7757:1.0 7758:1.0 7759:1.0 7760:1.0 7761:1.0 7762:1.0 7763:1.0 7764:1.0 7765:1.0 7766:1.0 7767:1.0 7768:1.0 7769:1.0 7770:1.0 7771:1.0 7772:1.0 7773:1.0 7774:1.0 7775:1.0 7776:1.0 7777:1.0 7778:1.0 7779:1.0 7780:1.0 7781:1.0 7782:1.0 7783:1.0 7784:1.0 7785:1.0 7786:1.0 7787:1.0 7788:1.0 7789:1.0 7790:1.0 7791:1.0 7792:1.0 7793:1.0 7794:1.0 7795:1.0 7796:1.0 7797:1.0 7798:1.0 7799:1.0 7800:1.0 7801:1.0 7802:1.0 7803:1.0 7804:1.0 7805:1.0 7806:1.0 7807:1.0 7808:1.0 7809:1.0 7810:1.0 7811:1.0 7812:1.0 7813:1.0 7814:1.0 7815:1.0 7816:1.0 7817:1.0 7818:1.0 7819:1.0 7820:1.0 7821:1.0 7822:1.0 7823:1.0 7824:1.0 7825:1.0 7826:1.0 7827:1.0 7828:1.0 7829:1.0 7830:1.0 7831:1.0 7832:1.0 7833:1.0 7834:1.0 7835:1.0 7836:1.0 7837:1.0 7838:1.0 7839:1.0 7840:1.0 7841:1.0 7842:1.0 7843:1.0 7844:1.0 7845:1.0 7846:1.0 7847:1.0 7848:1.0 7849:1.0 7850:1.0 7851:1.0 7852:1.0 7853:1.0 7854:1.0 7855:1.0 7856:1.0 7857:1.0 7858:1.0 7859:1.0 7860:1.0 7861:1.0 7862:1.0 7863:1.0 7864:1.0 7865:1.0 7866:1.0 7867:1.0 7868:1.0 7869:1.0 7870:1.0 7871:1.0 7872:1.0 7873:1.0 7874:1.0 7875:1.0 7876:1.0 7877:1.0 7878:1.0 7879:1.0 7880:1.0 7881:1.0 7882:1.0 7883:1.0 7884:1.0 7885:1.0 7886:1.0 7887:1.0 7888:1.0 7889:1.0 7890:1.0 7891:1.0 7892:1.0 7893:1.0 7894:1.0 7895:1.0 7896:1.0 7897:1.0 -1:1.0 
0.02277719783157998 0:1.0 1:1.0 2:1.0 3:1.0 4:1.0 5:1.0 197:1.0 215:1.0 233:1.0 234:1.0 270:1.0 288:1.0 385:1.0 413:1.0 479:1.0 513:1.0 850:1.0 851:1.0 1195:1.0 1199:1.0 1209:1.0 1215:1.0 1280:1.0 1319:1.0 1320:1.0 1349:1.0 1563:1.0 1564:1.0 1620:1.0 1788:1.0 2189:1.0 2416:1.0 2514:1.0 2515:1.0 2516:1.0 2705:1.0 2774:1.0 2780:1.0 2878:1.0 2879:1.0 3069:1.0 3070:1.0 3071:1.0 3072:1.0 3073:1.0 3625:1.0 3736:1.0 3987:1.0 4130:1.0 4305:1.0 4306:1.0 4307:1.0 4459:1.0 4884:1.0 5015:1.0 5140:1.0 5141:1.0 5142:1.0 5902:1.0 6340:1.0 6341:1.0 7464:1.0 7929:1.0 7930:1.0 7931:1.0 7932:1.0 7933:1.0 7934:1.0 7935:1.0 7936:1.0 7937:1.0 7938:1.0 7939:1.0 7940:1.0 7941:1.0 7942:1.0 7943:1.0 7944:1.0 7945:1.0 7946:1.0 7947:1.0 -1:1.0 
0.0079015225194957 0:1.0 1:1.0 2:1.0 3:1.0 4:1.0 5:1.0 36:1.0 37:1.0 38:1.0 39:1.0 40:1.0 41:1.0 42:1.0 43:1.0 44:1.0 45:1.0 46:1.0 47:1.0 48:1.0 91:1.0 92:1.0 153:1.0 204:1.0 270:1.0 300:1.0 349:1.0 481:1.0 482:1.0 483:1.0 591:1.0 592:1.0 646:1.0 647:1.0 648:1.0 876:1.0 887:1.0 910:1.0 924:1.0 1130:1.0 1145:1.0 1237:1.0 1296:1.0 1302:1.0 1303:1.0 1334:1.0 1359:1.0 1372:1.0 1440:1.0 1489:1.0 1563:1.0 1564:1.0 1995:1.0 1996:1.0 1997:1.0 2036:1.0 2367:1.0 2368:1.0 2369:1.0 2428:1.0 2545:1.0 2855:1.0 2858:1.0 2887:1.0 2967:1.0 3096:1.0 3511:1.0 3956:1.0 3957:1.0 4046:1.0 4047:1.0 4201:1.0 4369:1.0 4551:1.0 4783:1.0 4808:1.0 4809:1.0 4810:1.0 5237:1.0 5622:1.0 6068:1.0 6185:1.0 6224:1.0 6320:1.0 6769:1.0 6780:1.0 7223:1.0 7224:1.0 7225:1.0 7255:1.0 7865:1.0 7948:1.0 7949:1.0 7950:1.0 7951:1.0 7952:1.0 7953:1.0 7954:1.0 7955:1.0 7956:1.0 7957:1.0 7958:1.0 7959:1.0 7960:1.0 7961:1.0 7962:1.0 7963:1.0 7964:1.0 7965:1.0 7966:1.0 7967:1.0 7968:1.0 7969:1.0 7970:1.0 7971:1.0 7972:1.0 7973:1.0 7974:1.0 7975:1.0 7976:1.0 -1:1.0 
0.016426974558786923 0:1.0 1:1.0 2:1.0 3:1.0 4:1.0 5:1.0 65:1.0 211:1.0 212:1.0 246:1.0 605:1.0 1208:1.0 1318:1.0 1470:1.0 1471:1.0 2057:1.0 2133:1.0 2353:1.0 2739:1.0 2921:1.0 2953:1.0 2954:1.0 3252:1.0 3648:1.0 3649:1.0 3650:1.0 3695:1.0 3696:1.0 4266:1.0 4288:1.0 5659:1.0 6188:1.0 6600:1.0 6620:1.0 7977:1.0 8074:1.0 8075:1.0 8076:1.0 8077:1.0 8078:1.0 8079:1.0 8080:1.0 8081:1.0 8082:1.0 8083:1.0 8084:1.0 8085:1.0 8086:1.0 8087:1.0 8088:1.0 8089:1.0 8090:1.0 8091:1.0 8092:1.0 8093:1.0 8094:1.0 8095:1.0 8096:1.0 8097:1.0 8098:1.0 8099:1.0 8100:1.0 8101:1.0 8102:1.0 8103:1.0 8104:1.0 8105:1.0 8106:1.0 8107:1.0 8108:1.0 8109:1.0 8110:1.0 8111:1.0 8112:1.0 8113:1.0 8114:1.0 8115:1.0 8116:1.0 8117:1.0 8118:1.0 8119:1.0 8120:1.0 8121:1.0 8122:1.0 8123:1.0 -1:1.0 
0.009209247937667756 0:1.0 1:1.0 2:1.0 3:1.0 4:1.0 5:1.0 197:1.0 216:1.0 424:1.0 444:1.0 506:1.0 507:1.0 508:1.0 593:1.0 594:1.0 757:1.0 941:1.0 942:1.0 943:1.0 979:1.0 1331:1.0 1603:1.0 1632:1.0 1633:1.0 1634:1.0 1635:1.0 2072:1.0 2820:1.0 2821:1.0 2849:1.0 2876:1.0 2877:1.0 2878:1.0 2879:1.0 2931:1.0 3767:1.0 3768:1.0 3769:1.0 4677:1.0 5410:1.0 5411:1.0 5592:1.0 5593:1.0 5618:1.0 6957:1.0 7075:1.0 7318:1.0 7631:1.0 7632:1.0 7977:1.0 7978:1.0 8124:1.0 8125:1.0 8126:1.0 8127:1.0 8128:1.0 8129:1.0 8130:1.0 8131:1.0 8132:1.0 8133:1.0 8134:1.0 8135:1.0 -1:1.0 
0.023695105371889822 0:1.0 1:1.0 2:1.0 3:1.0 4:1.0 5:1.0 28:1.0 234:1.0 536:1.0 537:1.0 538:1.0 539:1.0 968:1.0 1215:1.0 1535:1.0 2356:1.0 2357:1.0 2358:1.0 2359:1.0 2360:1.0 2373:1.0 2374:1.0 2375:1.0 4311:1.0 4459:1.0 6837:1.0 9797:1.0 9798:1.0 9799:1.0 9800:1.0 9801:1.0 9802:1.0 -1:1.0 
1.5956397646928004E-4 0:1.0 1:1.0 2:1.0 3:1.0 4:1.0 5:1.0 8:1.0 9:1.0 10:1.0 11:1.0 12:1.0 13:1.0 20:1.0 21:1.0 22:1.0 23:1.0 26:1.0 27:1.0 28:1.0 29:1.0 30:1.0 31:1.0 32:1.0 33:1.0 34:1.0 35:1.0 36:1.0 37:1.0 38:1.0 39:1.0 40:1.0 41:1.0 42:1.0 43:1.0 44:1.0 45:1.0 46:1.0 47:1.0 48:1.0 55:1.0 73:1.0 74:1.0 77:1.0 90:1.0 91:1.0 92:1.0 130:1.0 131:1.0 132:1.0 152:1.0 153:1.0 154:1.0 155:1.0 156:1.0 157:1.0 158:1.0 159:1.0 160:1.0 161:1.0 162:1.0 163:1.0 164:1.0 171:1.0 174:1.0 175:1.0 177:1.0 178:1.0 179:1.0 183:1.0 185:1.0 197:1.0 198:1.0 199:1.0 207:1.0 208:1.0 215:1.0 216:1.0 218:1.0 220:1.0 221:1.0 222:1.0 227:1.0 229:1.0 230:1.0 231:1.0 232:1.0 233:1.0 234:1.0 235:1.0 237:1.0 238:1.0 239:1.0 240:1.0 241:1.0 242:1.0 243:1.0 244:1.0 245:1.0 246:1.0 247:1.0 248:1.0 249:1.0 250:1.0 251:1.0 252:1.0 253:1.0 254:1.0 255:1.0 256:1.0 258:1.0 259:1.0 260:1.0 261:1.0 262:1.0 268:1.0 269:1.0 270:1.0 273:1.0 274:1.0 275:1.0 276:1.0 277:1.0 279:1.0 284:1.0 285:1.0 291:1.0 297:1.0 298:1.0 299:1.0 300:1.0 301:1.0 303:1.0 308:1.0 309:1.0 311:1.0 314:1.0 317:1.0 318:1.0 319:1.0 320:1.0 321:1.0 322:1.0 323:1.0 324:1.0 325:1.0 326:1.0 327:1.0 328:1.0 329:1.0 330:1.0 331:1.0 332:1.0 341:1.0 342:1.0 346:1.0 347:1.0 348:1.0 349:1.0 350:1.0 351:1.0 352:1.0 354:1.0 355:1.0 362:1.0 368:1.0 377:1.0 378:1.0 381:1.0 382:1.0 383:1.0 384:1.0 385:1.0 386:1.0 388:1.0 389:1.0 390:1.0 391:1.0 392:1.0 393:1.0 394:1.0 395:1.0 402:1.0 412:1.0 413:1.0 415:1.0 416:1.0 417:1.0 418:1.0 419:1.0 420:1.0 424:1.0 425:1.0 426:1.0 427:1.0 435:1.0 436:1.0 437:1.0 438:1.0 440:1.0 441:1.0 442:1.0 443:1.0 444:1.0 445:1.0 451:1.0 452:1.0 453:1.0 455:1.0 456:1.0 457:1.0 458:1.0 459:1.0 460:1.0 461:1.0 462:1.0 463:1.0 464:1.0 465:1.0 466:1.0 467:1.0 468:1.0 471:1.0 472:1.0 473:1.0 474:1.0 475:1.0 477:1.0 478:1.0 479:1.0 480:1.0 481:1.0 482:1.0 483:1.0 484:1.0 485:1.0 486:1.0 491:1.0 492:1.0 497:1.0 501:1.0 502:1.0 503:1.0 504:1.0 505:1.0 506:1.0 507:1.0 508:1.0 522:1.0 528:1.0 539:1.0 546:1.0 552:1.0 553:1.0 554:1.0 555:1.0 556:1.0 559:1.0 560:1.0 561:1.0 562:1.0 563:1.0 564:1.0 565:1.0 582:1.0 583:1.0 584:1.0 585:1.0 586:1.0 587:1.0 591:1.0 592:1.0 593:1.0 594:1.0 595:1.0 596:1.0 597:1.0 602:1.0 606:1.0 609:1.0 617:1.0 625:1.0 627:1.0 628:1.0 633:1.0 634:1.0 635:1.0 637:1.0 638:1.0 639:1.0 640:1.0 641:1.0 642:1.0 643:1.0 644:1.0 645:1.0 646:1.0 647:1.0 648:1.0 651:1.0 652:1.0 653:1.0 656:1.0 657:1.0 658:1.0 659:1.0 660:1.0 661:1.0 662:1.0 663:1.0 664:1.0 665:1.0 672:1.0 673:1.0 674:1.0 675:1.0 676:1.0 678:1.0 679:1.0 680:1.0 686:1.0 695:1.0 696:1.0 702:1.0 703:1.0 708:1.0 710:1.0 722:1.0 723:1.0 724:1.0 727:1.0 728:1.0 729:1.0 730:1.0 731:1.0 732:1.0 733:1.0 734:1.0 735:1.0 736:1.0 737:1.0 738:1.0 739:1.0 740:1.0 741:1.0 757:1.0 760:1.0 761:1.0 767:1.0 770:1.0 771:1.0 772:1.0 773:1.0 774:1.0 775:1.0 776:1.0 780:1.0 781:1.0 782:1.0 783:1.0 784:1.0 792:1.0 793:1.0 807:1.0 808:1.0 818:1.0 832:1.0 833:1.0 834:1.0 835:1.0 836:1.0 837:1.0 838:1.0 857:1.0 860:1.0 863:1.0 898:1.0 906:1.0 907:1.0 924:1.0 936:1.0 956:1.0 957:1.0 958:1.0 959:1.0 960:1.0 964:1.0 969:1.0 970:1.0 977:1.0 978:1.0 979:1.0 980:1.0 985:1.0 986:1.0 987:1.0 988:1.0 989:1.0 990:1.0 991:1.0 992:1.0 993:1.0 994:1.0 1002:1.0 1003:1.0 1005:1.0 1010:1.0 1011:1.0 1016:1.0 1017:1.0 1019:1.0 1020:1.0 1021:1.0 1022:1.0 1024:1.0 1025:1.0 1026:1.0 1027:1.0 1028:1.0 1029:1.0 1030:1.0 1045:1.0 1047:1.0 1048:1.0 1064:1.0 1065:1.0 1066:1.0 1067:1.0 1068:1.0 1069:1.0 1070:1.0 1071:1.0 1074:1.0 1076:1.0 1077:1.0 1078:1.0 1079:1.0 1088:1.0 1089:1.0 1090:1.0 1107:1.0 1112:1.0 1113:1.0 1114:1.0 1120:1.0 1121:1.0 1129:1.0 1132:1.0 1137:1.0 1144:1.0 1145:1.0 1150:1.0 1151:1.0 1152:1.0 1154:1.0 1156:1.0 1161:1.0 1162:1.0 1163:1.0 1164:1.0 1165:1.0 1170:1.0 1171:1.0 1172:1.0 1173:1.0 1174:1.0 1175:1.0 1176:1.0 1177:1.0 1178:1.0 1179:1.0 1199:1.0 1213:1.0 1214:1.0 1215:1.0 1216:1.0 1220:1.0 1240:1.0 1241:1.0 1248:1.0 1249:1.0 1250:1.0 1251:1.0 1253:1.0 1254:1.0 1261:1.0 1281:1.0 1289:1.0 1292:1.0 1293:1.0 1302:1.0 1303:1.0 1305:1.0 1312:1.0 1324:1.0 1325:1.0 1326:1.0 1330:1.0 1331:1.0 1334:1.0 1337:1.0 1345:1.0 1346:1.0 1347:1.0 1349:1.0 1359:1.0 1372:1.0 1375:1.0 1376:1.0 1377:1.0 1378:1.0 1379:1.0 1380:1.0 1381:1.0 1387:1.0 1389:1.0 1404:1.0 1409:1.0 1427:1.0 1449:1.0 1453:1.0 1454:1.0 1458:1.0 1461:1.0 1468:1.0 1469:1.0 1470:1.0 1471:1.0 1472:1.0 1473:1.0 1482:1.0 1489:1.0 1497:1.0 1521:1.0 1541:1.0 1542:1.0 1544:1.0 1545:1.0 1546:1.0 1547:1.0 1548:1.0 1549:1.0 1550:1.0 1551:1.0 1552:1.0 1553:1.0 1554:1.0 1556:1.0 1567:1.0 1576:1.0 1577:1.0 1578:1.0 1579:1.0 1588:1.0 1590:1.0 1622:1.0 1623:1.0 1624:1.0 1659:1.0 1660:1.0 1709:1.0 1710:1.0 1711:1.0 1717:1.0 1718:1.0 1774:1.0 1779:1.0 1819:1.0 1845:1.0 1882:1.0 1909:1.0 1921:1.0 1922:1.0 1945:1.0 1964:1.0 1973:1.0 1988:1.0 2004:1.0 2005:1.0 2020:1.0 2021:1.0 2034:1.0 2035:1.0 2036:1.0 2037:1.0 2038:1.0 2039:1.0 2040:1.0 2071:1.0 2082:1.0 2087:1.0 2100:1.0 2119:1.0 2129:1.0 2148:1.0 2155:1.0 2187:1.0 2208:1.0 2209:1.0 2218:1.0 2273:1.0 2303:1.0 2305:1.0 2311:1.0 2312:1.0 2318:1.0 2320:1.0 2321:1.0 2397:1.0 2405:1.0 2406:1.0 2453:1.0 2454:1.0 2487:1.0 2489:1.0 2495:1.0 2496:1.0 2503:1.0 2509:1.0 2510:1.0 2532:1.0 2545:1.0 2564:1.0 2565:1.0 2570:1.0 2586:1.0 2600:1.0 2652:1.0 2711:1.0 2715:1.0 2723:1.0 2728:1.0 2769:1.0 2805:1.0 2824:1.0 2825:1.0 2842:1.0 2843:1.0 2844:1.0 2856:1.0 2857:1.0 2875:1.0 2878:1.0 2879:1.0 2882:1.0 2883:1.0 2933:1.0 2940:1.0 2943:1.0 2972:1.0 2998:1.0 2999:1.0 3001:1.0 3007:1.0 3008:1.0 3009:1.0 3012:1.0 3040:1.0 3056:1.0 3059:1.0 3098:1.0 3099:1.0 3100:1.0 3118:1.0 3132:1.0 3133:1.0 3214:1.0 3215:1.0 3225:1.0 3237:1.0 3238:1.0 3239:1.0 3240:1.0 3241:1.0 3242:1.0 3360:1.0 3365:1.0 3375:1.0 3431:1.0 3454:1.0 3473:1.0 3474:1.0 3481:1.0 3534:1.0 3538:1.0 3639:1.0 3640:1.0 3641:1.0 3686:1.0 3690:1.0 3706:1.0 3715:1.0 3727:1.0 3734:1.0 3751:1.0 3752:1.0 3756:1.0 3777:1.0 3812:1.0 3813:1.0 3814:1.0 3815:1.0 3816:1.0 3834:1.0 3835:1.0 3853:1.0 3858:1.0 3859:1.0 3860:1.0 3861:1.0 3862:1.0 3925:1.0 3978:1.0 4001:1.0 4004:1.0 4005:1.0 4030:1.0 4031:1.0 4036:1.0 4043:1.0 4064:1.0 4065:1.0 4070:1.0 4071:1.0 4072:1.0 4073:1.0 4074:1.0 4075:1.0 4076:1.0 4077:1.0 4078:1.0 4090:1.0 4145:1.0 4271:1.0 4272:1.0 4273:1.0 4290:1.0 4291:1.0 4304:1.0 4318:1.0 4327:1.0 4336:1.0 4337:1.0 4338:1.0 4339:1.0 4357:1.0 4358:1.0 4359:1.0 4368:1.0 4369:1.0 4377:1.0 4391:1.0 4392:1.0 4410:1.0 4412:1.0 4414:1.0 4416:1.0 4418:1.0 4428:1.0 4429:1.0 4430:1.0 4455:1.0 4460:1.0 4461:1.0 4462:1.0 4463:1.0 4467:1.0 4471:1.0 4472:1.0 4478:1.0 4511:1.0 4512:1.0 4515:1.0 4547:1.0 4561:1.0 4567:1.0 4568:1.0 4620:1.0 4621:1.0 4622:1.0 4640:1.0 4642:1.0 4643:1.0 4647:1.0 4666:1.0 4667:1.0 4676:1.0 4677:1.0 4703:1.0 4704:1.0 4732:1.0 4755:1.0 4783:1.0 4796:1.0 4805:1.0 4814:1.0 4860:1.0 4865:1.0 4887:1.0 4897:1.0 4916:1.0 4917:1.0 4937:1.0 4938:1.0 4939:1.0 4942:1.0 4947:1.0 4992:1.0 4999:1.0 5003:1.0 5004:1.0 5036:1.0 5037:1.0 5044:1.0 5046:1.0 5062:1.0 5083:1.0 5121:1.0 5136:1.0 5140:1.0 5141:1.0 5198:1.0 5268:1.0 5304:1.0 5364:1.0 5373:1.0 5379:1.0 5410:1.0 5469:1.0 5477:1.0 5539:1.0 5541:1.0 5546:1.0 5571:1.0 5572:1.0 5573:1.0 5574:1.0 5575:1.0 5576:1.0 5577:1.0 5587:1.0 5618:1.0 5622:1.0 5633:1.0 5655:1.0 5659:1.0 5660:1.0 5733:1.0 5778:1.0 5823:1.0 5828:1.0 5865:1.0 5866:1.0 5877:1.0 5922:1.0 5940:1.0 5963:1.0 5983:1.0 6000:1.0 6005:1.0 6038:1.0 6149:1.0 6166:1.0 6172:1.0 6177:1.0 6178:1.0 6189:1.0 6197:1.0 6202:1.0 6203:1.0 6204:1.0 6237:1.0 6238:1.0 6240:1.0 6246:1.0 6248:1.0 6249:1.0 6272:1.0 6276:1.0 6285:1.0 6286:1.0 6287:1.0 6292:1.0 6293:1.0 6295:1.0 6299:1.0 6301:1.0 6325:1.0 6344:1.0 6351:1.0 6360:1.0 6375:1.0 6376:1.0 6441:1.0 6442:1.0 6443:1.0 6445:1.0 6450:1.0 6470:1.0 6471:1.0 6472:1.0 6473:1.0 6479:1.0 6489:1.0 6528:1.0 6560:1.0 6581:1.0 6617:1.0 6623:1.0 6624:1.0 6625:1.0 6626:1.0 6627:1.0 6628:1.0 6700:1.0 6733:1.0 6734:1.0 6753:1.0 6754:1.0 6755:1.0 6840:1.0 6853:1.0 6922:1.0 6923:1.0 6937:1.0 6964:1.0 6965:1.0 6966:1.0 6985:1.0 7020:1.0 7070:1.0 7071:1.0 7086:1.0 7100:1.0 7101:1.0 7135:1.0 7174:1.0 7180:1.0 7223:1.0 7224:1.0 7225:1.0 7228:1.0 7230:1.0 7245:1.0 7361:1.0 7362:1.0 7456:1.0 7529:1.0 7570:1.0 7571:1.0 7625:1.0 7626:1.0 7631:1.0 7637:1.0 7670:1.0 7671:1.0 7716:1.0 7731:1.0 7805:1.0 7842:1.0 7844:1.0 7892:1.0 8028:1.0 8126:1.0 8164:1.0 8203:1.0 8213:1.0 8227:1.0 8285:1.0 8297:1.0 8312:1.0 8334:1.0 8384:1.0 8559:1.0 8587:1.0 8588:1.0 8589:1.0 8601:1.0 8618:1.0 8619:1.0 8645:1.0 8650:1.0 8659:1.0 8660:1.0 8661:1.0 8667:1.0 8681:1.0 8695:1.0 8724:1.0 8742:1.0 8743:1.0 8823:1.0 8854:1.0 8857:1.0 8867:1.0 9014:1.0 9015:1.0 9070:1.0 9165:1.0 9213:1.0 9256:1.0 9322:1.0 9323:1.0 9370:1.0 9371:1.0 9481:1.0 9564:1.0 9740:1.0 9786:1.0 9787:1.0 9788:1.0 9803:1.0 9804:1.0 9805:1.0 9806:1.0 9807:1.0 9808:1.0 9809:1.0 9810:1.0 9811:1.0 9812:1.0 9813:1.0 9814:1.0 9815:1.0 9816:1.0 9817:1.0 9818:1.0 9819:1.0 9820:1.0 9821:1.0 9822:1.0 9823:1.0 9824:1.0 9825:1.0 9826:1.0 9827:1.0 9828:1.0 9829:1.0 9830:1.0 9831:1.0 9832:1.0 9833:1.0 9834:1.0 9835:1.0 9836:1.0 9837:1.0 9838:1.0 9839:1.0 9840:1.0 9841:1.0 9842:1.0 9843:1.0 9844:1.0 9845:1.0 9846:1.0 9847:1.0 9848:1.0 9849:1.0 9850:1.0 9851:1.0 9852:1.0 9853:1.0 9854:1.0 9855:1.0 9856:1.0 9857:1.0 9858:1.0 9859:1.0 9860:1.0 9861:1.0 9862:1.0 9863:1.0 9864:1.0 9865:1.0 9866:1.0 9867:1.0 9868:1.0 9869:1.0 9870:1.0 9871:1.0 9872:1.0 9873:1.0 9874:1.0 9875:1.0 9876:1.0 9877:1.0 9878:1.0 9879:1.0 9880:1.0 9881:1.0 9882:1.0 9883:1.0 9884:1.0 9885:1.0 9886:1.0 9887:1.0 9888:1.0 9889:1.0 9890:1.0 9891:1.0 9892:1.0 9893:1.0 9894:1.0 9895:1.0 9896:1.0 9897:1.0 9898:1.0 9899:1.0 9900:1.0 9901:1.0 9902:1.0 9903:1.0 9904:1.0 9905:1.0 9906:1.0 9907:1.0 9908:1.0 9909:1.0 9910:1.0 9911:1.0 9912:1.0 9913:1.0 9914:1.0 9915:1.0 9916:1.0 9917:1.0 9918:1.0 9919:1.0 9920:1.0 9921:1.0 9922:1.0 9923:1.0 9924:1.0 9925:1.0 9926:1.0 9927:1.0 9928:1.0 9929:1.0 9930:1.0 9931:1.0 9932:1.0 9933:1.0 9934:1.0 9935:1.0 9936:1.0 9937:1.0 9938:1.0 9939:1.0 9940:1.0 9941:1.0 9942:1.0 9943:1.0 9944:1.0 9945:1.0 9946:1.0 9947:1.0 9948:1.0 9949:1.0 9950:1.0 9951:1.0 9952:1.0 9953:1.0 9954:1.0 9955:1.0 9956:1.0 9957:1.0 9958:1.0 9959:1.0 9960:1.0 9961:1.0 9962:1.0 9963:1.0 9964:1.0 9965:1.0 9966:1.0 9967:1.0 9968:1.0 9969:1.0 9970:1.0 9971:1.0 9972:1.0 9973:1.0 9974:1.0 9975:1.0 9976:1.0 9977:1.0 9978:1.0 9979:1.0 9980:1.0 9981:1.0 9982:1.0 9983:1.0 9984:1.0 9985:1.0 9986:1.0 9987:1.0 9988:1.0 9989:1.0 9990:1.0 9991:1.0 9992:1.0 9993:1.0 9994:1.0 9995:1.0 9996:1.0 9997:1.0 9998:1.0 9999:1.0 10000:1.0 10001:1.0 10002:1.0 10003:1.0 10004:1.0 10005:1.0 10006:1.0 10007:1.0 10008:1.0 10009:1.0 10010:1.0 10011:1.0 10012:1.0 10013:1.0 10014:1.0 10015:1.0 10016:1.0 10017:1.0 10018:1.0 10019:1.0 10020:1.0 10021:1.0 10022:1.0 10023:1.0 10024:1.0 10025:1.0 10026:1.0 10027:1.0 10028:1.0 10029:1.0 -1:1.0 
0.005006701047246256 0:1.0 1:1.0 2:1.0 3:1.0 4:1.0 5:1.0 92:1.0 153:1.0 171:1.0 172:1.0 177:1.0 197:1.0 259:1.0 260:1.0 286:1.0 354:1.0 422:1.0 436:1.0 437:1.0 438:1.0 479:1.0 555:1.0 655:1.0 954:1.0 982:1.0 1016:1.0 1017:1.0 1107:1.0 1145:1.0 1329:1.0 1389:1.0 1391:1.0 1438:1.0 1453:1.0 1482:1.0 1550:1.0 1563:1.0 1564:1.0 1607:1.0 1612:1.0 1613:1.0 1614:1.0 1620:1.0 1621:1.0 1622:1.0 1623:1.0 1624:1.0 1632:1.0 1633:1.0 1692:1.0 1780:1.0 1819:1.0 1899:1.0 1904:1.0 2013:1.0 2014:1.0 2021:1.0 2098:1.0 2165:1.0 2166:1.0 2278:1.0 2320:1.0 2321:1.0 2377:1.0 2378:1.0 2468:1.0 2538:1.0 2540:1.0 2541:1.0 2542:1.0 2543:1.0 2544:1.0 2545:1.0 2586:1.0 2624:1.0 2625:1.0 2653:1.0 2654:1.0 2705:1.0 2720:1.0 2721:1.0 2722:1.0 2731:1.0 2790:1.0 2824:1.0 2876:1.0 2933:1.0 2943:1.0 3057:1.0 3058:1.0 3069:1.0 3070:1.0 3071:1.0 3072:1.0 3073:1.0 3348:1.0 3349:1.0 3350:1.0 3364:1.0 3365:1.0 3366:1.0 3367:1.0 3381:1.0 3713:1.0 3764:1.0 4413:1.0 4414:1.0 4834:1.0 5191:1.0 5273:1.0 5274:1.0 5275:1.0 5276:1.0 5372:1.0 5735:1.0 6165:1.0 6342:1.0 6504:1.0 6652:1.0 6778:1.0 7109:1.0 7225:1.0 7226:1.0 7227:1.0 7447:1.0 7448:1.0 7449:1.0 7456:1.0 7660:1.0 7661:1.0 7713:1.0 7754:1.0 8722:1.0 9107:1.0 9208:1.0 9216:1.0 9595:1.0 9596:1.0 9710:1.0 9720:1.0 10020:1.0 10478:1.0 10479:1.0 10480:1.0 10481:1.0 10482:1.0 10483:1.0 10484:1.0 10485:1.0 10486:1.0 10487:1.0 10488:1.0 10489:1.0 10490:1.0 10491:1.0 -1:1.0 
0.0020024374601927196 0:1.0 1:1.0 2:1.0 3:1.0 4:1.0 5:1.0 28:1.0 29:1.0 35:1.0 36:1.0 37:1.0 55:1.0 63:1.0 64:1.0 65:1.0 74:1.0 92:1.0 123:1.0 145:1.0 167:1.0 171:1.0 172:1.0 197:1.0 204:1.0 218:1.0 220:1.0 221:1.0 226:1.0 227:1.0 228:1.0 229:1.0 230:1.0 231:1.0 232:1.0 233:1.0 234:1.0 251:1.0 252:1.0 253:1.0 254:1.0 255:1.0 256:1.0 259:1.0 260:1.0 262:1.0 263:1.0 264:1.0 265:1.0 266:1.0 267:1.0 268:1.0 269:1.0 270:1.0 280:1.0 281:1.0 288:1.0 289:1.0 290:1.0 291:1.0 292:1.0 293:1.0 300:1.0 301:1.0 302:1.0 303:1.0 304:1.0 308:1.0 309:1.0 312:1.0 314:1.0 322:1.0 329:1.0 330:1.0 342:1.0 349:1.0 350:1.0 351:1.0 352:1.0 353:1.0 362:1.0 367:1.0 368:1.0 378:1.0 383:1.0 384:1.0 385:1.0 386:1.0 387:1.0 388:1.0 393:1.0 395:1.0 400:1.0 401:1.0 413:1.0 417:1.0 422:1.0 423:1.0 426:1.0 427:1.0 433:1.0 436:1.0 437:1.0 438:1.0 439:1.0 440:1.0 444:1.0 447:1.0 448:1.0 452:1.0 461:1.0 475:1.0 476:1.0 478:1.0 479:1.0 480:1.0 481:1.0 483:1.0 487:1.0 491:1.0 492:1.0 493:1.0 494:1.0 495:1.0 497:1.0 505:1.0 506:1.0 507:1.0 508:1.0 515:1.0 522:1.0 523:1.0 526:1.0 528:1.0 530:1.0 531:1.0 532:1.0 533:1.0 534:1.0 535:1.0 536:1.0 537:1.0 552:1.0 563:1.0 564:1.0 585:1.0 591:1.0 592:1.0 593:1.0 594:1.0 595:1.0 606:1.0 611:1.0 612:1.0 613:1.0 614:1.0 615:1.0 616:1.0 627:1.0 628:1.0 633:1.0 634:1.0 637:1.0 638:1.0 639:1.0 656:1.0 658:1.0 688:1.0 695:1.0 696:1.0 703:1.0 708:1.0 710:1.0 711:1.0 713:1.0 725:1.0 730:1.0 733:1.0 734:1.0 757:1.0 759:1.0 762:1.0 769:1.0 776:1.0 789:1.0 790:1.0 791:1.0 797:1.0 798:1.0 807:1.0 808:1.0 832:1.0 833:1.0 834:1.0 836:1.0 850:1.0 851:1.0 852:1.0 853:1.0 857:1.0 860:1.0 861:1.0 864:1.0 897:1.0 898:1.0 924:1.0 936:1.0 943:1.0 968:1.0 977:1.0 979:1.0 985:1.0 991:1.0 992:1.0 993:1.0 1003:1.0 1005:1.0 1009:1.0 1010:1.0 1016:1.0 1019:1.0 1020:1.0 1021:1.0 1022:1.0 1023:1.0 1029:1.0 1034:1.0 1035:1.0 1045:1.0 1048:1.0 1054:1.0 1069:1.0 1070:1.0 1071:1.0 1072:1.0 1073:1.0 1074:1.0 1075:1.0 1082:1.0 1083:1.0 1084:1.0 1085:1.0 1086:1.0 1107:1.0 1121:1.0 1123:1.0 1129:1.0 1130:1.0 1134:1.0 1149:1.0 1161:1.0 1162:1.0 1163:1.0 1164:1.0 1169:1.0 1171:1.0 1172:1.0 1181:1.0 1182:1.0 1189:1.0 1191:1.0 1195:1.0 1201:1.0 1209:1.0 1210:1.0 1211:1.0 1212:1.0 1213:1.0 1214:1.0 1220:1.0 1247:1.0 1251:1.0 1253:1.0 1254:1.0 1262:1.0 1271:1.0 1283:1.0 1285:1.0 1292:1.0 1300:1.0 1305:1.0 1320:1.0 1331:1.0 1332:1.0 1333:1.0 1334:1.0 1337:1.0 1341:1.0 1342:1.0 1345:1.0 1349:1.0 1359:1.0 1372:1.0 1373:1.0 1380:1.0 1387:1.0 1388:1.0 1389:1.0 1398:1.0 1402:1.0 1403:1.0 1411:1.0 1412:1.0 1440:1.0 1443:1.0 1444:1.0 1446:1.0 1452:1.0 1458:1.0 1461:1.0 1467:1.0 1471:1.0 1482:1.0 1483:1.0 1501:1.0 1502:1.0 1521:1.0 1541:1.0 1542:1.0 1548:1.0 1554:1.0 1556:1.0 1563:1.0 1564:1.0 1565:1.0 1576:1.0 1588:1.0 1594:1.0 1595:1.0 1596:1.0 1600:1.0 1612:1.0 1613:1.0 1614:1.0 1615:1.0 1616:1.0 1617:1.0 1618:1.0 1619:1.0 1622:1.0 1623:1.0 1624:1.0 1632:1.0 1659:1.0 1660:1.0 1706:1.0 1709:1.0 1718:1.0 1765:1.0 1818:1.0 1819:1.0 1868:1.0 1908:1.0 1927:1.0 1945:1.0 1972:1.0 1993:1.0 1994:1.0 1996:1.0 1999:1.0 2004:1.0 2007:1.0 2008:1.0 2009:1.0 2018:1.0 2019:1.0 2021:1.0 2035:1.0 2039:1.0 2040:1.0 2044:1.0 2049:1.0 2054:1.0 2068:1.0 2071:1.0 2072:1.0 2077:1.0 2089:1.0 2100:1.0 2103:1.0 2114:1.0 2116:1.0 2124:1.0 2125:1.0 2133:1.0 2145:1.0 2166:1.0 2168:1.0 2188:1.0 2189:1.0 2190:1.0 2193:1.0 2208:1.0 2209:1.0 2272:1.0 2278:1.0 2279:1.0 2311:1.0 2318:1.0 2321:1.0 2377:1.0 2378:1.0 2383:1.0 2391:1.0 2396:1.0 2404:1.0 2405:1.0 2406:1.0 2415:1.0 2427:1.0 2435:1.0 2436:1.0 2437:1.0 2438:1.0 2440:1.0 2441:1.0 2466:1.0 2468:1.0 2479:1.0 2489:1.0 2493:1.0 2494:1.0 2495:1.0 2496:1.0 2497:1.0 2498:1.0 2507:1.0 2508:1.0 2509:1.0 2528:1.0 2541:1.0 2547:1.0 2571:1.0 2583:1.0 2584:1.0 2594:1.0 2617:1.0 2618:1.0 2619:1.0 2620:1.0 2622:1.0 2647:1.0 2655:1.0 2656:1.0 2660:1.0 2671:1.0 2684:1.0 2689:1.0 2690:1.0 2699:1.0 2700:1.0 2701:1.0 2705:1.0 2709:1.0 2710:1.0 2716:1.0 2717:1.0 2718:1.0 2719:1.0 2720:1.0 2721:1.0 2722:1.0 2725:1.0 2745:1.0 2767:1.0 2775:1.0 2777:1.0 2783:1.0 2804:1.0 2805:1.0 2814:1.0 2824:1.0 2825:1.0 2831:1.0 2837:1.0 2846:1.0 2847:1.0 2848:1.0 2849:1.0 2853:1.0 2854:1.0 2855:1.0 2866:1.0 2870:1.0 2878:1.0 2879:1.0 2881:1.0 2883:1.0 2887:1.0 2893:1.0 2901:1.0 2902:1.0 2934:1.0 2987:1.0 2988:1.0 3012:1.0 3013:1.0 3014:1.0 3025:1.0 3027:1.0 3029:1.0 3030:1.0 3031:1.0 3032:1.0 3035:1.0 3047:1.0 3059:1.0 3095:1.0 3096:1.0 3110:1.0 3111:1.0 3132:1.0 3133:1.0 3134:1.0 3135:1.0 3148:1.0 3155:1.0 3158:1.0 3168:1.0 3169:1.0 3187:1.0 3188:1.0 3189:1.0 3190:1.0 3207:1.0 3208:1.0 3209:1.0 3210:1.0 3213:1.0 3215:1.0 3216:1.0 3217:1.0 3218:1.0 3232:1.0 3233:1.0 3234:1.0 3235:1.0 3236:1.0 3306:1.0 3340:1.0 3341:1.0 3370:1.0 3375:1.0 3422:1.0 3426:1.0 3439:1.0 3441:1.0 3447:1.0 3448:1.0 3469:1.0 3470:1.0 3471:1.0 3472:1.0 3473:1.0 3488:1.0 3511:1.0 3512:1.0 3579:1.0 3593:1.0 3602:1.0 3643:1.0 3644:1.0 3662:1.0 3668:1.0 3684:1.0 3685:1.0 3686:1.0 3711:1.0 3727:1.0 3749:1.0 3755:1.0 3777:1.0 3779:1.0 3780:1.0 3781:1.0 3787:1.0 3788:1.0 3793:1.0 3794:1.0 3796:1.0 3814:1.0 3815:1.0 3824:1.0 3835:1.0 3836:1.0 3845:1.0 3876:1.0 3887:1.0 3888:1.0 3899:1.0 3900:1.0 3901:1.0 3905:1.0 3925:1.0 3987:1.0 3988:1.0 3989:1.0 3990:1.0 4001:1.0 4005:1.0 4007:1.0 4018:1.0 4035:1.0 4043:1.0 4048:1.0 4049:1.0 4050:1.0 4059:1.0 4060:1.0 4061:1.0 4069:1.0 4070:1.0 4117:1.0 4149:1.0 4151:1.0 4194:1.0 4206:1.0 4224:1.0 4249:1.0 4274:1.0 4282:1.0 4292:1.0 4293:1.0 4294:1.0 4295:1.0 4302:1.0 4377:1.0 4378:1.0 4379:1.0 4383:1.0 4385:1.0 4389:1.0 4390:1.0 4431:1.0 4455:1.0 4460:1.0 4461:1.0 4462:1.0 4479:1.0 4521:1.0 4526:1.0 4529:1.0 4534:1.0 4535:1.0 4548:1.0 4549:1.0 4551:1.0 4552:1.0 4561:1.0 4569:1.0 4570:1.0 4571:1.0 4579:1.0 4583:1.0 4595:1.0 4640:1.0 4665:1.0 4667:1.0 4703:1.0 4704:1.0 4711:1.0 4723:1.0 4727:1.0 4733:1.0 4737:1.0 4744:1.0 4745:1.0 4746:1.0 4780:1.0 4788:1.0 4792:1.0 4808:1.0 4809:1.0 4810:1.0 4835:1.0 4842:1.0 4848:1.0 4857:1.0 4866:1.0 4876:1.0 4885:1.0 4887:1.0 4888:1.0 4889:1.0 4899:1.0 4916:1.0 4943:1.0 4945:1.0 4946:1.0 4948:1.0 5000:1.0 5010:1.0 5014:1.0 5022:1.0 5045:1.0 5046:1.0 5059:1.0 5098:1.0 5099:1.0 5102:1.0 5120:1.0 5124:1.0 5125:1.0 5129:1.0 5166:1.0 5192:1.0 5202:1.0 5205:1.0 5266:1.0 5269:1.0 5270:1.0 5271:1.0 5274:1.0 5275:1.0 5276:1.0 5304:1.0 5312:1.0 5349:1.0 5379:1.0 5426:1.0 5440:1.0 5463:1.0 5464:1.0 5476:1.0 5546:1.0 5548:1.0 5581:1.0 5582:1.0 5583:1.0 5587:1.0 5588:1.0 5594:1.0 5618:1.0 5625:1.0 5626:1.0 5627:1.0 5632:1.0 5651:1.0 5685:1.0 5686:1.0 5735:1.0 5741:1.0 5748:1.0 5814:1.0 5831:1.0 5902:1.0 5905:1.0 5910:1.0 5911:1.0 5952:1.0 5963:1.0 5967:1.0 5968:1.0 5969:1.0 5981:1.0 5983:1.0 5984:1.0 5998:1.0 6011:1.0 6068:1.0 6084:1.0 6149:1.0 6167:1.0 6182:1.0 6184:1.0 6198:1.0 6202:1.0 6203:1.0 6210:1.0 6211:1.0 6220:1.0 6237:1.0 6238:1.0 6246:1.0 6248:1.0 6249:1.0 6257:1.0 6266:1.0 6294:1.0 6299:1.0 6341:1.0 6375:1.0 6376:1.0 6389:1.0 6417:1.0 6444:1.0 6445:1.0 6474:1.0 6478:1.0 6479:1.0 6500:1.0 6501:1.0 6502:1.0 6503:1.0 6517:1.0 6549:1.0 6550:1.0 6560:1.0 6617:1.0 6630:1.0 6631:1.0 6656:1.0 6710:1.0 6714:1.0 6715:1.0 6724:1.0 6740:1.0 6741:1.0 6742:1.0 6751:1.0 6752:1.0 6769:1.0 6837:1.0 6871:1.0 6886:1.0 6898:1.0 6899:1.0 6935:1.0 6941:1.0 6962:1.0 6975:1.0 6987:1.0 6989:1.0 6990:1.0 6997:1.0 6998:1.0 7000:1.0 7009:1.0 7012:1.0 7024:1.0 7036:1.0 7038:1.0 7064:1.0 7065:1.0 7083:1.0 7084:1.0 7122:1.0 7126:1.0 7127:1.0 7129:1.0 7130:1.0 7183:1.0 7186:1.0 7196:1.0 7197:1.0 7210:1.0 7230:1.0 7233:1.0 7234:1.0 7236:1.0 7268:1.0 7274:1.0 7285:1.0 7286:1.0 7296:1.0 7297:1.0 7298:1.0 7299:1.0 7325:1.0 7330:1.0 7331:1.0 7385:1.0 7386:1.0 7387:1.0 7405:1.0 7430:1.0 7433:1.0 7455:1.0 7456:1.0 7483:1.0 7486:1.0 7492:1.0 7495:1.0 7502:1.0 7527:1.0 7587:1.0 7588:1.0 7625:1.0 7626:1.0 7633:1.0 7634:1.0 7660:1.0 7661:1.0 7671:1.0 7770:1.0 7771:1.0 7772:1.0 7773:1.0 7774:1.0 7780:1.0 7781:1.0 7822:1.0 7839:1.0 7876:1.0 7910:1.0 7911:1.0 7949:1.0 7965:1.0 8010:1.0 8011:1.0 8035:1.0 8142:1.0 8168:1.0 8181:1.0 8182:1.0 8200:1.0 8219:1.0 8377:1.0 8422:1.0 8425:1.0 8507:1.0 8559:1.0 8583:1.0 8624:1.0 8634:1.0 8635:1.0 8636:1.0 8714:1.0 8820:1.0 8821:1.0 8848:1.0 8853:1.0 9014:1.0 9024:1.0 9025:1.0 9031:1.0 9165:1.0 9230:1.0 9322:1.0 9323:1.0 9331:1.0 9393:1.0 9431:1.0 9433:1.0 9453:1.0 9454:1.0 9468:1.0 9596:1.0 9601:1.0 9711:1.0 9719:1.0 9729:1.0 9835:1.0 9836:1.0 9837:1.0 9838:1.0 9855:1.0 9856:1.0 9923:1.0 9934:1.0 9971:1.0 9972:1.0 9973:1.0 9974:1.0 9975:1.0 9992:1.0 10048:1.0 10101:1.0 10492:1.0 10493:1.0 10494:1.0 10495:1.0 10496:1.0 10497:1.0 10498:1.0 10499:1.0 10500:1.0 10501:1.0 10502:1.0 10503:1.0 10504:1.0 10505:1.0 10506:1.0 10507:1.0 10508:1.0 10509:1.0 10510:1.0 10511:1.0 10512:1.0 10513:1.0 10514:1.0 10515:1.0 10516:1.0 10517:1.0 10518:1.0 10519:1.0 10520:1.0 10521:1.0 10522:1.0 10523:1.0 10524:1.0 10525:1.0 10526:1.0 10527:1.0 10528:1.0 10529:1.0 10530:1.0 10531:1.0 10532:1.0 10533:1.0 10534:1.0 10535:1.0 10536:1.0 10537:1.0 10538:1.0 10539:1.0 10540:1.0 10541:1.0 10542:1.0 10543:1.0 10544:1.0 10545:1.0 10546:1.0 10547:1.0 10548:1.0 10549:1.0 10550:1.0 10551:1.0 10552:1.0 10553:1.0 10554:1.0 10555:1.0 10556:1.0 10557:1.0 10558:1.0 10559:1.0 10560:1.0 10561:1.0 10562:1.0 10563:1.0 10564:1.0 10565:1.0 10566:1.0 10567:1.0 10568:1.0 10569:1.0 10570:1.0 10571:1.0 10572:1.0 10573:1.0 10574:1.0 10575:1.0 10576:1.0 10577:1.0 10578:1.0 10579:1.0 10580:1.0 10581:1.0 10582:1.0 10583:1.0 10584:1.0 10585:1.0 10586:1.0 10587:1.0 10588:1.0 10589:1.0 10590:1.0 10591:1.0 10592:1.0 10593:1.0 10594:1.0 10595:1.0 10596:1.0 10597:1.0 10598:1.0 10599:1.0 10600:1.0 10601:1.0 10602:1.0 10603:1.0 10604:1.0 10605:1.0 10606:1.0 10607:1.0 10608:1.0 10609:1.0 10610:1.0 10611:1.0 10612:1.0 10613:1.0 10614:1.0 10615:1.0 10616:1.0 10617:1.0 10618:1.0 10619:1.0 10620:1.0 10621:1.0 10622:1.0 10623:1.0 10624:1.0 10625:1.0 10626:1.0 10627:1.0 10628:1.0 10629:1.0 10630:1.0 10631:1.0 10632:1.0 10633:1.0 10634:1.0 10635:1.0 10636:1.0 10637:1.0 10638:1.0 10639:1.0 10640:1.0 10641:1.0 10642:1.0 10643:1.0 10644:1.0 10645:1.0 10646:1.0 10647:1.0 10648:1.0 10649:1.0 10650:1.0 10651:1.0 10652:1.0 10653:1.0 10654:1.0 10655:1.0 10656:1.0 10657:1.0 10658:1.0 10659:1.0 10660:1.0 10661:1.0 10662:1.0 10663:1.0 10664:1.0 10665:1.0 10666:1.0 10667:1.0 10668:1.0 10669:1.0 10670:1.0 10671:1.0 10672:1.0 10673:1.0 10674:1.0 10675:1.0 10676:1.0 -1:1.0 
5.515913330365091E-5 0:1.0 1:1.0 2:1.0 3:1.0 4:1.0 5:1.0 55:1.0 97:1.0 103:1.0 105:1.0 106:1.0 107:1.0 117:1.0 118:1.0 141:1.0 197:1.0 220:1.0 221:1.0 230:1.0 231:1.0 232:1.0 233:1.0 234:1.0 235:1.0 261:1.0 262:1.0 268:1.0 269:1.0 270:1.0 308:1.0 309:1.0 314:1.0 322:1.0 341:1.0 349:1.0 363:1.0 364:1.0 365:1.0 366:1.0 367:1.0 368:1.0 369:1.0 370:1.0 371:1.0 377:1.0 378:1.0 393:1.0 422:1.0 424:1.0 425:1.0 426:1.0 436:1.0 437:1.0 438:1.0 450:1.0 452:1.0 461:1.0 478:1.0 595:1.0 596:1.0 597:1.0 601:1.0 602:1.0 615:1.0 616:1.0 656:1.0 679:1.0 692:1.0 693:1.0 701:1.0 702:1.0 703:1.0 705:1.0 742:1.0 756:1.0 835:1.0 836:1.0 898:1.0 1034:1.0 1035:1.0 1130:1.0 1268:1.0 1321:1.0 1359:1.0 1460:1.0 1468:1.0 1469:1.0 1470:1.0 1476:1.0 1554:1.0 1563:1.0 1564:1.0 1581:1.0 1590:1.0 1607:1.0 1608:1.0 1609:1.0 1610:1.0 1611:1.0 1612:1.0 1613:1.0 1614:1.0 1617:1.0 1618:1.0 1619:1.0 1622:1.0 1623:1.0 1624:1.0 1786:1.0 1787:1.0 1788:1.0 1803:1.0 1804:1.0 1805:1.0 1806:1.0 1822:1.0 1823:1.0 1824:1.0 1825:1.0 1826:1.0 1972:1.0 2036:1.0 2037:1.0 2038:1.0 2039:1.0 2040:1.0 2087:1.0 2119:1.0 2124:1.0 2125:1.0 2156:1.0 2163:1.0 2164:1.0 2190:1.0 2311:1.0 2326:1.0 2348:1.0 2349:1.0 2350:1.0 2354:1.0 2376:1.0 2391:1.0 2444:1.0 2445:1.0 2479:1.0 2500:1.0 2528:1.0 2565:1.0 2566:1.0 2569:1.0 2597:1.0 2607:1.0 2608:1.0 2609:1.0 2610:1.0 2611:1.0 2612:1.0 2613:1.0 2633:1.0 2686:1.0 2709:1.0 2714:1.0 2715:1.0 2728:1.0 2777:1.0 2830:1.0 2846:1.0 2853:1.0 2854:1.0 2876:1.0 3029:1.0 3030:1.0 3040:1.0 3043:1.0 3096:1.0 3360:1.0 3361:1.0 3362:1.0 3363:1.0 3364:1.0 3418:1.0 3419:1.0 3420:1.0 3421:1.0 3422:1.0 3465:1.0 3466:1.0 3473:1.0 3691:1.0 3737:1.0 3738:1.0 3739:1.0 3740:1.0 3741:1.0 3752:1.0 3753:1.0 3754:1.0 3772:1.0 3773:1.0 3774:1.0 3794:1.0 3798:1.0 3799:1.0 3800:1.0 3802:1.0 3845:1.0 3932:1.0 4031:1.0 4113:1.0 4171:1.0 4176:1.0 4183:1.0 4239:1.0 4249:1.0 4250:1.0 4466:1.0 4549:1.0 4580:1.0 4882:1.0 4883:1.0 4899:1.0 4937:1.0 4938:1.0 5062:1.0 5063:1.0 5064:1.0 5143:1.0 5172:1.0 5539:1.0 5609:1.0 5660:1.0 5678:1.0 5679:1.0 5680:1.0 5850:1.0 5961:1.0 5988:1.0 6011:1.0 6208:1.0 6212:1.0 6404:1.0 6405:1.0 6417:1.0 6700:1.0 6941:1.0 7082:1.0 7083:1.0 7084:1.0 7138:1.0 7151:1.0 7260:1.0 7585:1.0 7706:1.0 7740:1.0 7835:1.0 8260:1.0 8477:1.0 8482:1.0 8536:1.0 8989:1.0 9013:1.0 9373:1.0 9487:1.0 9702:1.0 10020:1.0 10565:1.0 10677:1.0 10678:1.0 10679:1.0 10680:1.0 10681:1.0 10682:1.0 10683:1.0 10684:1.0 10685:1.0 10686:1.0 10687:1.0 10688:1.0 10689:1.0 10690:1.0 10691:1.0 10692:1.0 10693:1.0 10694:1.0 10695:1.0 10696:1.0 10697:1.0 10698:1.0 10699:1.0 10700:1.0 10701:1.0 10702:1.0 10703:1.0 10704:1.0 10705:1.0 10706:1.0 10707:1.0 10708:1.0 10709:1.0 10710:1.0 10711:1.0 10712:1.0 10713:1.0 10714:1.0 10715:1.0 10716:1.0 10717:1.0 10718:1.0 10719:1.0 10720:1.0 -1:1.0 
3.491207642624909E-4 0:1.0 1:1.0 2:1.0 3:1.0 4:1.0 5:1.0 20:1.0 21:1.0 22:1.0 23:1.0 27:1.0 36:1.0 37:1.0 169:1.0 170:1.0 197:1.0 207:1.0 220:1.0 227:1.0 230:1.0 231:1.0 232:1.0 233:1.0 234:1.0 236:1.0 268:1.0 269:1.0 270:1.0 271:1.0 272:1.0 280:1.0 314:1.0 328:1.0 329:1.0 330:1.0 349:1.0 350:1.0 351:1.0 378:1.0 385:1.0 394:1.0 395:1.0 406:1.0 407:1.0 413:1.0 444:1.0 446:1.0 481:1.0 482:1.0 483:1.0 484:1.0 506:1.0 507:1.0 508:1.0 526:1.0 528:1.0 532:1.0 533:1.0 539:1.0 552:1.0 560:1.0 561:1.0 585:1.0 586:1.0 587:1.0 588:1.0 589:1.0 590:1.0 593:1.0 594:1.0 595:1.0 596:1.0 597:1.0 606:1.0 611:1.0 617:1.0 618:1.0 637:1.0 638:1.0 639:1.0 660:1.0 661:1.0 662:1.0 663:1.0 664:1.0 665:1.0 679:1.0 705:1.0 713:1.0 756:1.0 776:1.0 815:1.0 819:1.0 860:1.0 1005:1.0 1017:1.0 1034:1.0 1035:1.0 1048:1.0 1052:1.0 1113:1.0 1161:1.0 1162:1.0 1163:1.0 1164:1.0 1170:1.0 1201:1.0 1209:1.0 1212:1.0 1215:1.0 1236:1.0 1296:1.0 1329:1.0 1331:1.0 1345:1.0 1349:1.0 1359:1.0 1438:1.0 1451:1.0 1464:1.0 1476:1.0 1489:1.0 1499:1.0 1500:1.0 1501:1.0 1502:1.0 1550:1.0 1551:1.0 1554:1.0 1563:1.0 1564:1.0 1593:1.0 1594:1.0 1595:1.0 1596:1.0 1608:1.0 1609:1.0 1617:1.0 1618:1.0 1632:1.0 1633:1.0 1634:1.0 1635:1.0 1636:1.0 1802:1.0 1803:1.0 1804:1.0 1896:1.0 1901:1.0 2003:1.0 2039:1.0 2040:1.0 2050:1.0 2070:1.0 2072:1.0 2077:1.0 2078:1.0 2089:1.0 2102:1.0 2116:1.0 2119:1.0 2120:1.0 2121:1.0 2129:1.0 2148:1.0 2189:1.0 2373:1.0 2374:1.0 2375:1.0 2466:1.0 2489:1.0 2494:1.0 2534:1.0 2535:1.0 2536:1.0 2537:1.0 2538:1.0 2586:1.0 2598:1.0 2619:1.0 2620:1.0 2635:1.0 2652:1.0 2689:1.0 2690:1.0 2691:1.0 2710:1.0 2715:1.0 2720:1.0 2721:1.0 2722:1.0 2726:1.0 2727:1.0 2761:1.0 2762:1.0 2763:1.0 2764:1.0 2820:1.0 2821:1.0 2824:1.0 2825:1.0 2826:1.0 2830:1.0 2831:1.0 2854:1.0 2858:1.0 2867:1.0 2868:1.0 2869:1.0 2890:1.0 2893:1.0 2901:1.0 2902:1.0 2903:1.0 2930:1.0 2931:1.0 2964:1.0 2965:1.0 2985:1.0 3025:1.0 3067:1.0 3071:1.0 3072:1.0 3073:1.0 3096:1.0 3123:1.0 3132:1.0 3155:1.0 3236:1.0 3375:1.0 3593:1.0 3638:1.0 3643:1.0 3644:1.0 3662:1.0 3667:1.0 3684:1.0 3685:1.0 3686:1.0 3727:1.0 3749:1.0 3756:1.0 3787:1.0 3788:1.0 3801:1.0 3802:1.0 3874:1.0 3973:1.0 3992:1.0 4031:1.0 4036:1.0 4064:1.0 4065:1.0 4319:1.0 4320:1.0 4321:1.0 4327:1.0 4360:1.0 4361:1.0 4362:1.0 4459:1.0 4462:1.0 4560:1.0 4595:1.0 4643:1.0 4664:1.0 4665:1.0 4667:1.0 4698:1.0 4699:1.0 4733:1.0 4753:1.0 4754:1.0 4773:1.0 4777:1.0 4778:1.0 4783:1.0 4854:1.0 4870:1.0 4871:1.0 4884:1.0 4886:1.0 4937:1.0 4938:1.0 5137:1.0 5261:1.0 5262:1.0 5433:1.0 5545:1.0 5688:1.0 5734:1.0 5735:1.0 5907:1.0 5908:1.0 5953:1.0 5963:1.0 6011:1.0 6015:1.0 6016:1.0 6018:1.0 6038:1.0 6101:1.0 6287:1.0 6300:1.0 6420:1.0 6528:1.0 6529:1.0 6531:1.0 6571:1.0 6572:1.0 6635:1.0 6700:1.0 6806:1.0 7026:1.0 7168:1.0 7275:1.0 7288:1.0 7446:1.0 7482:1.0 7483:1.0 7584:1.0 7742:1.0 7822:1.0 8009:1.0 8297:1.0 8357:1.0 8670:1.0 8671:1.0 8698:1.0 8699:1.0 8700:1.0 8714:1.0 8724:1.0 8907:1.0 9008:1.0 9014:1.0 9107:1.0 9236:1.0 9323:1.0 9601:1.0 9784:1.0 9938:1.0 10055:1.0 10551:1.0 10552:1.0 10719:1.0 10725:1.0 10726:1.0 10757:1.0 10758:1.0 10759:1.0 10760:1.0 10761:1.0 10762:1.0 10763:1.0 10764:1.0 10765:1.0 10766:1.0 10767:1.0 10768:1.0 10769:1.0 10770:1.0 10771:1.0 10772:1.0 10773:1.0 10774:1.0 10775:1.0 10776:1.0 10777:1.0 10778:1.0 10779:1.0 10780:1.0 10781:1.0 10782:1.0 10783:1.0 10784:1.0 10785:1.0 10786:1.0 10787:1.0 10788:1.0 10789:1.0 10790:1.0 10791:1.0 10792:1.0 10793:1.0 10794:1.0 10795:1.0 10796:1.0 10797:1.0 10798:1.0 10799:1.0 10800:1.0 10801:1.0 10802:1.0 10803:1.0 10804:1.0 10805:1.0 10806:1.0 10807:1.0 10808:1.0 10809:1.0 10810:1.0 10811:1.0 10812:1.0 10813:1.0 10814:1.0 10815:1.0 10816:1.0 10817:1.0 10818:1.0 10819:1.0 10820:1.0 10821:1.0 10822:1.0 10823:1.0 10824:1.0 10825:1.0 10826:1.0 10827:1.0 10828:1.0 10829:1.0 -1:1.0 
0.023695105371889822 0:1.0 1:1.0 2:1.0 3:1.0 4:1.0 5:1.0 36:1.0 37:1.0 38:1.0 39:1.0 40:1.0 41:1.0 42:1.0 43:1.0 44:1.0 45:1.0 46:1.0 47:1.0 48:1.0 91:1.0 92:1.0 300:1.0 349:1.0 696:1.0 910:1.0 1181:1.0 1359:1.0 1515:1.0 1563:1.0 2870:1.0 3096:1.0 3440:1.0 3448:1.0 3783:1.0 3956:1.0 3957:1.0 6068:1.0 7249:1.0 7948:1.0 10508:1.0 10830:1.0 10831:1.0 10832:1.0 10833:1.0 -1:1.0 
0.008453087555724334 0:1.0 1:1.0 2:1.0 3:1.0 4:1.0 5:1.0 105:1.0 106:1.0 233:1.0 234:1.0 593:1.0 594:1.0 1323:1.0 1453:1.0 1467:1.0 1535:1.0 1582:1.0 1583:1.0 1584:1.0 1585:1.0 1586:1.0 1587:1.0 1993:1.0 2159:1.0 2357:1.0 2358:1.0 2359:1.0 2360:1.0 2612:1.0 2613:1.0 2644:1.0 2645:1.0 2646:1.0 2878:1.0 2879:1.0 3600:1.0 3929:1.0 4239:1.0 7674:1.0 9797:1.0 9798:1.0 9799:1.0 9800:1.0 9801:1.0 9802:1.0 11326:1.0 11327:1.0 11328:1.0 11329:1.0 11330:1.0 -1:1.0 
1.22414283823824E-4 0:1.0 1:1.0 2:1.0 3:1.0 4:1.0 5:1.0 20:1.0 21:1.0 22:1.0 23:1.0 26:1.0 27:1.0 28:1.0 35:1.0 36:1.0 37:1.0 38:1.0 48:1.0 55:1.0 62:1.0 63:1.0 92:1.0 130:1.0 131:1.0 132:1.0 152:1.0 153:1.0 154:1.0 175:1.0 185:1.0 197:1.0 204:1.0 218:1.0 220:1.0 221:1.0 223:1.0 227:1.0 229:1.0 230:1.0 231:1.0 232:1.0 233:1.0 234:1.0 237:1.0 246:1.0 248:1.0 251:1.0 252:1.0 253:1.0 254:1.0 255:1.0 256:1.0 258:1.0 259:1.0 260:1.0 261:1.0 262:1.0 265:1.0 266:1.0 268:1.0 269:1.0 270:1.0 280:1.0 284:1.0 288:1.0 291:1.0 292:1.0 293:1.0 298:1.0 300:1.0 309:1.0 314:1.0 315:1.0 318:1.0 333:1.0 334:1.0 335:1.0 336:1.0 340:1.0 342:1.0 348:1.0 349:1.0 350:1.0 351:1.0 352:1.0 365:1.0 366:1.0 367:1.0 368:1.0 369:1.0 370:1.0 371:1.0 377:1.0 378:1.0 380:1.0 381:1.0 382:1.0 383:1.0 384:1.0 385:1.0 386:1.0 387:1.0 398:1.0 400:1.0 401:1.0 421:1.0 422:1.0 423:1.0 424:1.0 425:1.0 426:1.0 429:1.0 430:1.0 431:1.0 432:1.0 433:1.0 434:1.0 447:1.0 452:1.0 461:1.0 462:1.0 471:1.0 478:1.0 481:1.0 487:1.0 491:1.0 492:1.0 493:1.0 506:1.0 507:1.0 508:1.0 532:1.0 533:1.0 536:1.0 537:1.0 551:1.0 552:1.0 564:1.0 583:1.0 585:1.0 592:1.0 593:1.0 594:1.0 595:1.0 596:1.0 597:1.0 612:1.0 613:1.0 614:1.0 618:1.0 619:1.0 637:1.0 644:1.0 646:1.0 647:1.0 648:1.0 675:1.0 676:1.0 679:1.0 680:1.0 681:1.0 682:1.0 683:1.0 684:1.0 685:1.0 686:1.0 696:1.0 703:1.0 708:1.0 713:1.0 720:1.0 722:1.0 723:1.0 724:1.0 735:1.0 736:1.0 740:1.0 741:1.0 748:1.0 757:1.0 759:1.0 769:1.0 770:1.0 780:1.0 781:1.0 782:1.0 783:1.0 786:1.0 791:1.0 797:1.0 813:1.0 816:1.0 822:1.0 823:1.0 837:1.0 845:1.0 857:1.0 862:1.0 883:1.0 908:1.0 968:1.0 985:1.0 987:1.0 1005:1.0 1010:1.0 1016:1.0 1020:1.0 1021:1.0 1022:1.0 1024:1.0 1025:1.0 1026:1.0 1027:1.0 1028:1.0 1029:1.0 1030:1.0 1034:1.0 1035:1.0 1073:1.0 1100:1.0 1112:1.0 1136:1.0 1145:1.0 1155:1.0 1161:1.0 1165:1.0 1171:1.0 1172:1.0 1181:1.0 1186:1.0 1195:1.0 1209:1.0 1211:1.0 1212:1.0 1215:1.0 1233:1.0 1234:1.0 1235:1.0 1236:1.0 1237:1.0 1238:1.0 1239:1.0 1240:1.0 1252:1.0 1255:1.0 1262:1.0 1290:1.0 1294:1.0 1311:1.0 1323:1.0 1324:1.0 1328:1.0 1329:1.0 1331:1.0 1333:1.0 1334:1.0 1335:1.0 1337:1.0 1338:1.0 1357:1.0 1391:1.0 1399:1.0 1411:1.0 1455:1.0 1459:1.0 1461:1.0 1463:1.0 1464:1.0 1468:1.0 1469:1.0 1470:1.0 1471:1.0 1482:1.0 1488:1.0 1490:1.0 1521:1.0 1538:1.0 1541:1.0 1542:1.0 1545:1.0 1554:1.0 1555:1.0 1563:1.0 1564:1.0 1567:1.0 1590:1.0 1594:1.0 1622:1.0 1623:1.0 1624:1.0 1628:1.0 1629:1.0 1632:1.0 1633:1.0 1634:1.0 1635:1.0 1659:1.0 1692:1.0 1718:1.0 1779:1.0 1780:1.0 1788:1.0 1796:1.0 1845:1.0 1988:1.0 1990:1.0 2005:1.0 2013:1.0 2014:1.0 2019:1.0 2020:1.0 2039:1.0 2040:1.0 2041:1.0 2044:1.0 2046:1.0 2072:1.0 2076:1.0 2089:1.0 2119:1.0 2129:1.0 2130:1.0 2133:1.0 2145:1.0 2146:1.0 2147:1.0 2148:1.0 2165:1.0 2166:1.0 2171:1.0 2181:1.0 2189:1.0 2201:1.0 2202:1.0 2203:1.0 2204:1.0 2205:1.0 2209:1.0 2272:1.0 2278:1.0 2305:1.0 2318:1.0 2321:1.0 2330:1.0 2348:1.0 2349:1.0 2350:1.0 2394:1.0 2398:1.0 2399:1.0 2400:1.0 2435:1.0 2453:1.0 2456:1.0 2457:1.0 2466:1.0 2467:1.0 2470:1.0 2477:1.0 2478:1.0 2481:1.0 2489:1.0 2490:1.0 2501:1.0 2503:1.0 2504:1.0 2505:1.0 2506:1.0 2565:1.0 2567:1.0 2570:1.0 2600:1.0 2603:1.0 2604:1.0 2613:1.0 2622:1.0 2624:1.0 2625:1.0 2664:1.0 2700:1.0 2701:1.0 2705:1.0 2715:1.0 2767:1.0 2815:1.0 2824:1.0 2825:1.0 2826:1.0 2830:1.0 2833:1.0 2834:1.0 2838:1.0 2841:1.0 2844:1.0 2846:1.0 2852:1.0 2859:1.0 2870:1.0 2878:1.0 2879:1.0 2883:1.0 2893:1.0 2894:1.0 2895:1.0 2896:1.0 2897:1.0 2898:1.0 2930:1.0 2934:1.0 2985:1.0 3027:1.0 3047:1.0 3062:1.0 3063:1.0 3064:1.0 3065:1.0 3066:1.0 3085:1.0 3086:1.0 3089:1.0 3102:1.0 3103:1.0 3110:1.0 3118:1.0 3123:1.0 3131:1.0 3132:1.0 3133:1.0 3134:1.0 3135:1.0 3148:1.0 3223:1.0 3312:1.0 3328:1.0 3329:1.0 3334:1.0 3348:1.0 3349:1.0 3350:1.0 3364:1.0 3372:1.0 3373:1.0 3374:1.0 3375:1.0 3418:1.0 3419:1.0 3420:1.0 3426:1.0 3431:1.0 3454:1.0 3467:1.0 3473:1.0 3474:1.0 3488:1.0 3510:1.0 3511:1.0 3513:1.0 3522:1.0 3634:1.0 3635:1.0 3662:1.0 3668:1.0 3684:1.0 3685:1.0 3686:1.0 3711:1.0 3715:1.0 3719:1.0 3732:1.0 3733:1.0 3734:1.0 3745:1.0 3756:1.0 3759:1.0 3760:1.0 3762:1.0 3796:1.0 3797:1.0 3802:1.0 3874:1.0 3884:1.0 3885:1.0 3945:1.0 3946:1.0 3947:1.0 3968:1.0 3988:1.0 4005:1.0 4015:1.0 4016:1.0 4043:1.0 4047:1.0 4048:1.0 4049:1.0 4050:1.0 4058:1.0 4059:1.0 4060:1.0 4061:1.0 4142:1.0 4156:1.0 4157:1.0 4194:1.0 4275:1.0 4281:1.0 4291:1.0 4292:1.0 4297:1.0 4302:1.0 4319:1.0 4320:1.0 4321:1.0 4336:1.0 4340:1.0 4341:1.0 4342:1.0 4357:1.0 4359:1.0 4360:1.0 4361:1.0 4362:1.0 4377:1.0 4392:1.0 4396:1.0 4400:1.0 4412:1.0 4413:1.0 4423:1.0 4424:1.0 4459:1.0 4462:1.0 4464:1.0 4465:1.0 4480:1.0 4484:1.0 4515:1.0 4534:1.0 4535:1.0 4548:1.0 4549:1.0 4561:1.0 4562:1.0 4567:1.0 4568:1.0 4585:1.0 4586:1.0 4587:1.0 4588:1.0 4595:1.0 4613:1.0 4628:1.0 4634:1.0 4636:1.0 4637:1.0 4638:1.0 4640:1.0 4654:1.0 4664:1.0 4665:1.0 4688:1.0 4689:1.0 4690:1.0 4700:1.0 4701:1.0 4702:1.0 4703:1.0 4704:1.0 4734:1.0 4737:1.0 4756:1.0 4777:1.0 4835:1.0 4876:1.0 4885:1.0 4890:1.0 4937:1.0 4938:1.0 4949:1.0 4961:1.0 4962:1.0 4963:1.0 4977:1.0 4986:1.0 5005:1.0 5015:1.0 5016:1.0 5017:1.0 5018:1.0 5019:1.0 5023:1.0 5025:1.0 5026:1.0 5074:1.0 5076:1.0 5093:1.0 5094:1.0 5198:1.0 5241:1.0 5261:1.0 5331:1.0 5383:1.0 5384:1.0 5416:1.0 5440:1.0 5500:1.0 5541:1.0 5542:1.0 5546:1.0 5547:1.0 5548:1.0 5549:1.0 5574:1.0 5575:1.0 5582:1.0 5583:1.0 5591:1.0 5625:1.0 5626:1.0 5640:1.0 5719:1.0 5751:1.0 5777:1.0 5785:1.0 5786:1.0 5814:1.0 5826:1.0 5872:1.0 5916:1.0 5936:1.0 5943:1.0 5961:1.0 5962:1.0 5975:1.0 5980:1.0 5983:1.0 5984:1.0 5985:1.0 5986:1.0 6058:1.0 6071:1.0 6182:1.0 6184:1.0 6221:1.0 6233:1.0 6234:1.0 6237:1.0 6238:1.0 6246:1.0 6267:1.0 6282:1.0 6283:1.0 6284:1.0 6300:1.0 6330:1.0 6381:1.0 6389:1.0 6390:1.0 6391:1.0 6392:1.0 6419:1.0 6450:1.0 6473:1.0 6569:1.0 6594:1.0 6595:1.0 6596:1.0 6616:1.0 6641:1.0 6652:1.0 6653:1.0 6692:1.0 6700:1.0 6705:1.0 6750:1.0 6775:1.0 6782:1.0 6783:1.0 6928:1.0 6955:1.0 6968:1.0 6973:1.0 6981:1.0 6982:1.0 7009:1.0 7025:1.0 7026:1.0 7027:1.0 7082:1.0 7125:1.0 7179:1.0 7225:1.0 7273:1.0 7302:1.0 7316:1.0 7330:1.0 7331:1.0 7375:1.0 7404:1.0 7414:1.0 7415:1.0 7416:1.0 7440:1.0 7446:1.0 7455:1.0 7476:1.0 7510:1.0 7515:1.0 7516:1.0 7584:1.0 7625:1.0 7626:1.0 7636:1.0 7637:1.0 7661:1.0 7692:1.0 7754:1.0 7757:1.0 7788:1.0 7841:1.0 7851:1.0 7862:1.0 7863:1.0 7864:1.0 8026:1.0 8070:1.0 8090:1.0 8139:1.0 8140:1.0 8141:1.0 8142:1.0 8215:1.0 8216:1.0 8217:1.0 8218:1.0 8223:1.0 8291:1.0 8292:1.0 8297:1.0 8305:1.0 8314:1.0 8320:1.0 8386:1.0 8419:1.0 8488:1.0 8576:1.0 8577:1.0 8578:1.0 8593:1.0 8624:1.0 8692:1.0 8705:1.0 8724:1.0 8742:1.0 8863:1.0 8911:1.0 8931:1.0 8932:1.0 8951:1.0 8980:1.0 8981:1.0 8997:1.0 8998:1.0 9071:1.0 9208:1.0 9209:1.0 9210:1.0 9243:1.0 9384:1.0 9453:1.0 9454:1.0 9493:1.0 9541:1.0 9562:1.0 9599:1.0 9600:1.0 9601:1.0 9814:1.0 9830:1.0 9835:1.0 9836:1.0 9837:1.0 9838:1.0 9849:1.0 9850:1.0 9853:1.0 9927:1.0 9941:1.0 9942:1.0 10035:1.0 10050:1.0 10498:1.0 10520:1.0 10551:1.0 10552:1.0 10588:1.0 10783:1.0 10806:1.0 10959:1.0 10960:1.0 10968:1.0 11017:1.0 11031:1.0 11052:1.0 11120:1.0 11122:1.0 11135:1.0 11137:1.0 11138:1.0 11139:1.0 11234:1.0 11337:1.0 11367:1.0 11375:1.0 11449:1.0 11450:1.0 11493:1.0 11494:1.0 11657:1.0 11663:1.0 11741:1.0 11742:1.0 11743:1.0 11744:1.0 11745:1.0 11746:1.0 11747:1.0 11748:1.0 11749:1.0 11750:1.0 11751:1.0 11752:1.0 11753:1.0 11754:1.0 11755:1.0 11756:1.0 11757:1.0 11758:1.0 11759:1.0 11760:1.0 11761:1.0 11762:1.0 11763:1.0 11764:1.0 11765:1.0 11766:1.0 11767:1.0 11768:1.0 11769:1.0 11770:1.0 11771:1.0 11772:1.0 11773:1.0 11774:1.0 11775:1.0 11776:1.0 11777:1.0 11778:1.0 11779:1.0 11780:1.0 11781:1.0 11782:1.0 11783:1.0 11784:1.0 11785:1.0 11786:1.0 11787:1.0 11788:1.0 11789:1.0 11790:1.0 11791:1.0 11792:1.0 11793:1.0 11794:1.0 11795:1.0 11796:1.0 11797:1.0 11798:1.0 11799:1.0 11800:1.0 11801:1.0 11802:1.0 11803:1.0 11804:1.0 11805:1.0 11806:1.0 11807:1.0 11808:1.0 11809:1.0 11810:1.0 11811:1.0 11812:1.0 11813:1.0 11814:1.0 11815:1.0 11816:1.0 11817:1.0 11818:1.0 11819:1.0 11820:1.0 11821:1.0 11822:1.0 11823:1.0 11824:1.0 11825:1.0 11826:1.0 11827:1.0 11828:1.0 11829:1.0 11830:1.0 11831:1.0 11832:1.0 11833:1.0 11834:1.0 11835:1.0 11836:1.0 11837:1.0 11838:1.0 11839:1.0 11840:1.0 11841:1.0 11842:1.0 11843:1.0 11844:1.0 11845:1.0 11846:1.0 11847:1.0 11848:1.0 11849:1.0 11850:1.0 11851:1.0 11852:1.0 11853:1.0 11854:1.0 11855:1.0 11856:1.0 11857:1.0 11858:1.0 11859:1.0 11860:1.0 11861:1.0 11862:1.0 11863:1.0 11864:1.0 11865:1.0 11866:1.0 11867:1.0 11868:1.0 11869:1.0 -1:1.0 
9.630054655212544E-4 0:1.0 1:1.0 2:1.0 3:1.0 4:1.0 5:1.0 20:1.0 21:1.0 22:1.0 23:1.0 27:1.0 28:1.0 35:1.0 36:1.0 37:1.0 38:1.0 48:1.0 55:1.0 56:1.0 57:1.0 58:1.0 59:1.0 77:1.0 92:1.0 105:1.0 106:1.0 107:1.0 155:1.0 164:1.0 185:1.0 197:1.0 204:1.0 220:1.0 221:1.0 222:1.0 229:1.0 230:1.0 232:1.0 233:1.0 234:1.0 246:1.0 247:1.0 248:1.0 249:1.0 250:1.0 254:1.0 258:1.0 259:1.0 260:1.0 269:1.0 270:1.0 277:1.0 288:1.0 289:1.0 290:1.0 308:1.0 309:1.0 314:1.0 330:1.0 349:1.0 350:1.0 351:1.0 352:1.0 356:1.0 363:1.0 369:1.0 370:1.0 371:1.0 389:1.0 390:1.0 391:1.0 392:1.0 411:1.0 412:1.0 413:1.0 414:1.0 415:1.0 416:1.0 417:1.0 418:1.0 419:1.0 433:1.0 435:1.0 436:1.0 437:1.0 438:1.0 439:1.0 440:1.0 441:1.0 452:1.0 453:1.0 478:1.0 492:1.0 505:1.0 511:1.0 512:1.0 532:1.0 536:1.0 537:1.0 557:1.0 565:1.0 582:1.0 612:1.0 613:1.0 614:1.0 618:1.0 619:1.0 620:1.0 621:1.0 622:1.0 623:1.0 624:1.0 625:1.0 626:1.0 656:1.0 657:1.0 658:1.0 659:1.0 660:1.0 661:1.0 662:1.0 663:1.0 664:1.0 665:1.0 691:1.0 696:1.0 702:1.0 703:1.0 705:1.0 713:1.0 734:1.0 742:1.0 760:1.0 764:1.0 765:1.0 766:1.0 767:1.0 768:1.0 769:1.0 770:1.0 771:1.0 772:1.0 773:1.0 774:1.0 775:1.0 778:1.0 785:1.0 786:1.0 791:1.0 792:1.0 804:1.0 809:1.0 810:1.0 811:1.0 812:1.0 813:1.0 814:1.0 815:1.0 858:1.0 872:1.0 873:1.0 874:1.0 904:1.0 924:1.0 945:1.0 977:1.0 992:1.0 993:1.0 1003:1.0 1034:1.0 1035:1.0 1042:1.0 1059:1.0 1069:1.0 1070:1.0 1071:1.0 1073:1.0 1074:1.0 1090:1.0 1107:1.0 1112:1.0 1118:1.0 1119:1.0 1130:1.0 1148:1.0 1151:1.0 1152:1.0 1157:1.0 1158:1.0 1163:1.0 1164:1.0 1211:1.0 1215:1.0 1216:1.0 1229:1.0 1230:1.0 1234:1.0 1235:1.0 1236:1.0 1237:1.0 1238:1.0 1239:1.0 1240:1.0 1241:1.0 1253:1.0 1259:1.0 1260:1.0 1278:1.0 1279:1.0 1280:1.0 1281:1.0 1291:1.0 1335:1.0 1336:1.0 1345:1.0 1348:1.0 1377:1.0 1418:1.0 1419:1.0 1420:1.0 1421:1.0 1422:1.0 1423:1.0 1424:1.0 1439:1.0 1463:1.0 1464:1.0 1489:1.0 1491:1.0 1527:1.0 1535:1.0 1538:1.0 1541:1.0 1542:1.0 1557:1.0 1563:1.0 1564:1.0 1622:1.0 1623:1.0 1624:1.0 1659:1.0 1707:1.0 1709:1.0 1718:1.0 1720:1.0 1731:1.0 1735:1.0 1764:1.0 1803:1.0 1804:1.0 1805:1.0 1806:1.0 1814:1.0 1898:1.0 1902:1.0 1908:1.0 1931:1.0 1932:1.0 1933:1.0 1934:1.0 1946:1.0 1957:1.0 1984:1.0 1996:1.0 2082:1.0 2125:1.0 2130:1.0 2131:1.0 2159:1.0 2160:1.0 2360:1.0 2400:1.0 2404:1.0 2409:1.0 2466:1.0 2467:1.0 2479:1.0 2480:1.0 2481:1.0 2503:1.0 2504:1.0 2511:1.0 2514:1.0 2515:1.0 2531:1.0 2600:1.0 2601:1.0 2602:1.0 2603:1.0 2604:1.0 2628:1.0 2629:1.0 2630:1.0 2671:1.0 2688:1.0 2701:1.0 2740:1.0 2741:1.0 2814:1.0 2841:1.0 2842:1.0 2850:1.0 2870:1.0 2878:1.0 2895:1.0 2896:1.0 2897:1.0 2929:1.0 2936:1.0 2944:1.0 2970:1.0 2971:1.0 2983:1.0 2984:1.0 3006:1.0 3092:1.0 3209:1.0 3210:1.0 3228:1.0 3311:1.0 3365:1.0 3418:1.0 3419:1.0 3420:1.0 3422:1.0 3485:1.0 3488:1.0 3505:1.0 3634:1.0 3635:1.0 3687:1.0 3688:1.0 3689:1.0 3737:1.0 3738:1.0 3739:1.0 3740:1.0 3741:1.0 3742:1.0 3778:1.0 3874:1.0 3894:1.0 3902:1.0 3907:1.0 3942:1.0 3943:1.0 3978:1.0 4005:1.0 4007:1.0 4023:1.0 4043:1.0 4070:1.0 4071:1.0 4072:1.0 4073:1.0 4074:1.0 4075:1.0 4076:1.0 4077:1.0 4145:1.0 4212:1.0 4246:1.0 4247:1.0 4248:1.0 4261:1.0 4262:1.0 4333:1.0 4341:1.0 4342:1.0 4347:1.0 4348:1.0 4349:1.0 4350:1.0 4351:1.0 4352:1.0 4373:1.0 4378:1.0 4379:1.0 4396:1.0 4411:1.0 4430:1.0 4448:1.0 4462:1.0 4502:1.0 4503:1.0 4515:1.0 4529:1.0 4539:1.0 4579:1.0 4580:1.0 4581:1.0 4589:1.0 4595:1.0 4626:1.0 4642:1.0 4644:1.0 4698:1.0 4703:1.0 4704:1.0 4721:1.0 4723:1.0 4728:1.0 4806:1.0 4874:1.0 4875:1.0 4877:1.0 4878:1.0 4899:1.0 4916:1.0 4917:1.0 5013:1.0 5039:1.0 5047:1.0 5244:1.0 5245:1.0 5250:1.0 5350:1.0 5351:1.0 5352:1.0 5353:1.0 5355:1.0 5379:1.0 5539:1.0 5541:1.0 5567:1.0 5568:1.0 5688:1.0 5713:1.0 5838:1.0 5866:1.0 5877:1.0 5940:1.0 5961:1.0 6069:1.0 6087:1.0 6088:1.0 6161:1.0 6162:1.0 6163:1.0 6164:1.0 6197:1.0 6207:1.0 6225:1.0 6265:1.0 6288:1.0 6319:1.0 6329:1.0 6330:1.0 6447:1.0 6511:1.0 6545:1.0 6586:1.0 6617:1.0 6618:1.0 6648:1.0 6662:1.0 6665:1.0 6716:1.0 6764:1.0 6765:1.0 6766:1.0 6790:1.0 6864:1.0 6983:1.0 7085:1.0 7086:1.0 7110:1.0 7177:1.0 7178:1.0 7187:1.0 7197:1.0 7202:1.0 7203:1.0 7218:1.0 7219:1.0 7220:1.0 7221:1.0 7222:1.0 7236:1.0 7245:1.0 7267:1.0 7373:1.0 7523:1.0 7712:1.0 7746:1.0 7772:1.0 7935:1.0 8037:1.0 8151:1.0 8164:1.0 8168:1.0 8169:1.0 8184:1.0 8185:1.0 8186:1.0 8267:1.0 8268:1.0 8269:1.0 8294:1.0 8300:1.0 8301:1.0 8321:1.0 8448:1.0 8449:1.0 8459:1.0 8485:1.0 8509:1.0 8771:1.0 8801:1.0 8856:1.0 9015:1.0 9016:1.0 9170:1.0 9257:1.0 9359:1.0 9474:1.0 9475:1.0 9541:1.0 9599:1.0 9600:1.0 9601:1.0 9696:1.0 9815:1.0 9920:1.0 9921:1.0 9922:1.0 10012:1.0 10058:1.0 10059:1.0 10060:1.0 10061:1.0 10063:1.0 10136:1.0 10145:1.0 10146:1.0 10147:1.0 10187:1.0 10261:1.0 10284:1.0 10373:1.0 10588:1.0 10603:1.0 10646:1.0 10872:1.0 10969:1.0 10986:1.0 10987:1.0 10988:1.0 10989:1.0 11059:1.0 11139:1.0 11204:1.0 11325:1.0 11400:1.0 11445:1.0 11446:1.0 11478:1.0 11635:1.0 11636:1.0 11637:1.0 11638:1.0 11898:1.0 12132:1.0 12133:1.0 12251:1.0 12252:1.0 12253:1.0 12254:1.0 12255:1.0 12256:1.0 12257:1.0 12258:1.0 12259:1.0 12260:1.0 12261:1.0 12262:1.0 12263:1.0 12264:1.0 12265:1.0 12266:1.0 12267:1.0 12268:1.0 12269:1.0 12270:1.0 12271:1.0 12272:1.0 12273:1.0 12274:1.0 12275:1.0 12276:1.0 12277:1.0 12278:1.0 12279:1.0 12280:1.0 12281:1.0 12282:1.0 12283:1.0 12284:1.0 12285:1.0 12286:1.0 12287:1.0 12288:1.0 12289:1.0 12290:1.0 12291:1.0 12292:1.0 12293:1.0 12294:1.0 12295:1.0 12296:1.0 12297:1.0 12298:1.0 12299:1.0 12300:1.0 12301:1.0 12302:1.0 12303:1.0 12304:1.0 12305:1.0 12306:1.0 12307:1.0 12308:1.0 12309:1.0 12310:1.0 12311:1.0 12312:1.0 12313:1.0 12314:1.0 12315:1.0 12316:1.0 12317:1.0 12318:1.0 12319:1.0 12320:1.0 12321:1.0 12322:1.0 12323:1.0 12324:1.0 12325:1.0 12326:1.0 12327:1.0 12328:1.0 12329:1.0 12330:1.0 12331:1.0 12332:1.0 12333:1.0 12334:1.0 12335:1.0 12336:1.0 12337:1.0 12338:1.0 12339:1.0 12340:1.0 12341:1.0 12342:1.0 12343:1.0 12344:1.0 12345:1.0 12346:1.0 12347:1.0 12348:1.0 12349:1.0 12350:1.0 12351:1.0 12352:1.0 12353:1.0 12354:1.0 12355:1.0 12356:1.0 12357:1.0 12358:1.0 12359:1.0 12360:1.0 12361:1.0 12362:1.0 12363:1.0 12364:1.0 12365:1.0 12366:1.0 12367:1.0 12368:1.0 12369:1.0 12370:1.0 12371:1.0 12372:1.0 12373:1.0 12374:1.0 12375:1.0 12376:1.0 12377:1.0 12378:1.0 12379:1.0 12380:1.0 12381:1.0 12382:1.0 12383:1.0 12384:1.0 12385:1.0 12386:1.0 12387:1.0 12388:1.0 12389:1.0 12390:1.0 12391:1.0 12392:1.0 12393:1.0 12394:1.0 12395:1.0 12396:1.0 12397:1.0 12398:1.0 12399:1.0 12400:1.0 12401:1.0 12402:1.0 12403:1.0 12404:1.0 12405:1.0 12406:1.0 12407:1.0 12408:1.0 12409:1.0 12410:1.0 -1:1.0 
0.0018376344848523975 0:1.0 1:1.0 2:1.0 3:1.0 4:1.0 5:1.0 233:1.0 234:1.0 270:1.0 593:1.0 594:1.0 757:1.0 776:1.0 1215:1.0 1453:1.0 1582:1.0 1583:1.0 1584:1.0 1585:1.0 1586:1.0 1587:1.0 1602:1.0 1603:1.0 2415:1.0 2416:1.0 2417:1.0 2418:1.0 2875:1.0 2878:1.0 2879:1.0 3034:1.0 3504:1.0 3600:1.0 3670:1.0 3752:1.0 3756:1.0 4459:1.0 4521:1.0 4671:1.0 8332:1.0 8373:1.0 8374:1.0 8375:1.0 8376:1.0 9776:1.0 9777:1.0 9797:1.0 9798:1.0 9799:1.0 9800:1.0 9801:1.0 9802:1.0 11326:1.0 11407:1.0 11476:1.0 12782:1.0 12783:1.0 12784:1.0 12785:1.0 -1:1.0 
0.003575776908372316 0:1.0 1:1.0 2:1.0 3:1.0 4:1.0 5:1.0 37:1.0 38:1.0 48:1.0 55:1.0 91:1.0 92:1.0 118:1.0 153:1.0 197:1.0 229:1.0 233:1.0 234:1.0 256:1.0 259:1.0 260:1.0 261:1.0 262:1.0 273:1.0 276:1.0 287:1.0 288:1.0 291:1.0 292:1.0 293:1.0 294:1.0 297:1.0 309:1.0 319:1.0 362:1.0 405:1.0 421:1.0 436:1.0 437:1.0 438:1.0 471:1.0 593:1.0 594:1.0 605:1.0 668:1.0 669:1.0 670:1.0 671:1.0 679:1.0 707:1.0 747:1.0 777:1.0 778:1.0 806:1.0 807:1.0 808:1.0 906:1.0 907:1.0 910:1.0 929:1.0 1034:1.0 1107:1.0 1182:1.0 1211:1.0 1212:1.0 1215:1.0 1217:1.0 1218:1.0 1313:1.0 1319:1.0 1320:1.0 1335:1.0 1336:1.0 1337:1.0 1359:1.0 1400:1.0 1454:1.0 1456:1.0 1535:1.0 1541:1.0 1542:1.0 1543:1.0 1544:1.0 1545:1.0 1546:1.0 1547:1.0 1548:1.0 1557:1.0 1558:1.0 1559:1.0 1563:1.0 1564:1.0 1622:1.0 1623:1.0 1624:1.0 1649:1.0 1814:1.0 1819:1.0 1927:1.0 1960:1.0 1988:1.0 2082:1.0 2246:1.0 2247:1.0 2248:1.0 2357:1.0 2358:1.0 2359:1.0 2466:1.0 2493:1.0 2494:1.0 2495:1.0 2496:1.0 2497:1.0 2498:1.0 2499:1.0 2500:1.0 2508:1.0 2551:1.0 2571:1.0 2576:1.0 2583:1.0 2584:1.0 2705:1.0 2741:1.0 2837:1.0 2846:1.0 2853:1.0 2854:1.0 2876:1.0 2878:1.0 2879:1.0 2924:1.0 2980:1.0 2981:1.0 2982:1.0 2983:1.0 2984:1.0 3027:1.0 3030:1.0 3096:1.0 3301:1.0 3302:1.0 3356:1.0 3364:1.0 3369:1.0 3440:1.0 3634:1.0 3799:1.0 3856:1.0 3857:1.0 3930:1.0 4114:1.0 4140:1.0 4141:1.0 4142:1.0 4143:1.0 4144:1.0 4145:1.0 4183:1.0 4289:1.0 4314:1.0 4315:1.0 4549:1.0 4772:1.0 4773:1.0 4781:1.0 4805:1.0 4876:1.0 4878:1.0 5059:1.0 5112:1.0 5173:1.0 5280:1.0 5281:1.0 5282:1.0 5659:1.0 5722:1.0 5785:1.0 5826:1.0 5827:1.0 5936:1.0 5985:1.0 5986:1.0 6015:1.0 6068:1.0 6121:1.0 6149:1.0 6261:1.0 6266:1.0 6289:1.0 6366:1.0 6421:1.0 6428:1.0 6429:1.0 6782:1.0 6816:1.0 6949:1.0 7018:1.0 7086:1.0 7142:1.0 7143:1.0 7429:1.0 7530:1.0 7537:1.0 7585:1.0 7935:1.0 8169:1.0 8398:1.0 8495:1.0 8536:1.0 8653:1.0 8654:1.0 8655:1.0 8977:1.0 8978:1.0 9210:1.0 9211:1.0 9241:1.0 9658:1.0 9725:1.0 9900:1.0 9954:1.0 10155:1.0 10156:1.0 10489:1.0 10553:1.0 10776:1.0 10809:1.0 10927:1.0 11011:1.0 11018:1.0 11301:1.0 11802:1.0 11917:1.0 12021:1.0 12089:1.0 12602:1.0 12772:1.0 12786:1.0 12787:1.0 12788:1.0 12789:1.0 12790:1.0 12791:1.0 12792:1.0 12793:1.0 12794:1.0 12795:1.0 12796:1.0 12797:1.0 12798:1.0 12799:1.0 12800:1.0 12801:1.0 12802:1.0 12803:1.0 12804:1.0 12805:1.0 12806:1.0 12807:1.0 12808:1.0 12809:1.0 12810:1.0 12811:1.0 12812:1.0 12813:1.0 12814:1.0 12815:1.0 12816:1.0 12817:1.0 12818:1.0 12819:1.0 12820:1.0 12821:1.0 12822:1.0 12823:1.0 12824:1.0 12825:1.0 12826:1.0 12827:1.0 12828:1.0 12829:1.0 12830:1.0 12831:1.0 12832:1.0 12833:1.0 12834:1.0 12835:1.0 12836:1.0 12837:1.0 12838:1.0 12839:1.0 12840:1.0 12841:1.0 12842:1.0 12843:1.0 12844:1.0 12845:1.0 12846:1.0 12847:1.0 12848:1.0 12849:1.0 12850:1.0 12851:1.0 12852:1.0 12853:1.0 -1:1.0 
